
\data\
ngram 1=17529
ngram 2=93572

\1-grams:
-5.22458	&agr;	-0.09236427
-5.22458	&agrave;	-0.09236686
-3.82664	&amp;	-0.06515564
-5.22458	&amp;c	-0.06614424
-5.22458	&amp;name	-0.09229176
-5.22458	&aring;d	-0.09138174
-4.92355	&bgr;	-0.09227622
-5.22458	&bgr;-	-0.09234355
-4.92355	&deg;	-0.09227363
-5.22458	&dollar;1,995	-0.06614424
-5.22458	&dollar;11.6	-0.09234614
-5.22458	&dollar;11.65	-0.06614424
-5.22458	&dollar;14,500,000	-0.07959879
-5.22458	&dollar;150,000	-0.09182014
-5.22458	&dollar;17.5	-0.09234614
-5.22458	&dollar;17.95	-0.06614424
-5.22458	&dollar;2,500	-0.09067523
-5.22458	&dollar;20	-0.09234614
-5.22458	&dollar;20.8	-0.09234614
-5.22458	&dollar;20.9	-0.09234614
-5.22458	&dollar;21.6	-0.09234614
-5.22458	&dollar;24,000	-0.09236944
-5.22458	&dollar;250	-0.08062427
-5.22458	&dollar;250,000	-0.06614424
-5.22458	&dollar;3.00	-0.08200549
-5.22458	&dollar;325,000	-0.09236944
-5.22458	&dollar;36,000	-0.09236944
-5.22458	&dollar;4	-0.09234614
-5.22458	&dollar;400	-0.08200549
-5.22458	&dollar;5,000	-0.08062427
-5.22458	&dollar;50	-0.0923565
-5.22458	&dollar;500.	-0.09234614
-5.22458	&dollar;6,800	-0.09184347
-5.22458	&dollar;647,000	-0.09236944
-5.22458	&dollar;7.38	-0.09228658
-5.22458	&dollar;8	-0.09220369
-5.22458	&dollar;80	-0.08200549
-5.22458	&dollar;995	-0.08062427
-5.22458	&eacute;lite	-0.09007172
-5.22458	&eacute;lites	-0.06614424
-5.22458	&eacute;litism	-0.09231248
-5.22458	&eacute;litist	-0.09224772
-5.22458	&eacute;picerie	-0.07645404
-4.747458	&egr;	-0.08060297
-4.02046	&formula;	-0.05145193
-5.22458	&formula;1i	-0.08290094
-4.92355	&frac12;	-0.08367305
-4.92355	&frac12;in	-0.09231506
-5.22458	&gt;95%	-0.09235391
-5.22458	&lgr;&prime;	-0.07645404
-5.22458	&lt;	-0.09236944
-5.22458	&lt;3	-0.09236944
-5.22458	&lt;config	-0.09236944
-5.22458	&mdash;the	-0.09235132
-5.22458	&micro;g	-0.07959879
-4.92355	&micro;m	-0.05365453
-4.92355	&micro;mol/ml	-0.05365453
-5.22458	&ndash;george	-0.09235391
-4.622519	&pound;1	-0.1618306
-5.22458	&pound;1,000	-0.08290094
-5.22458	&pound;1,200	-0.08062427
-5.22458	&pound;1,690	-0.06614424
-5.22458	&pound;1.05p	-0.08367568
-5.22458	&pound;1.5bn	-0.09223478
-5.22458	&pound;1.8	-0.09228658
-4.747458	&pound;10	-0.06587458
-5.22458	&pound;10.1m	-0.08367568
-5.22458	&pound;10.26m	-0.09228658
-5.22458	&pound;1000	-0.09223478
-5.22458	&pound;114,957	-0.08725114
-5.22458	&pound;12.50	-0.06614424
-5.22458	&pound;12m-a-year	-0.09234355
-5.22458	&pound;13.99	-0.08062427
-5.22458	&pound;14	-0.09234614
-5.22458	&pound;14.99	-0.06614424
-5.22458	&pound;140.57	-0.09131426
-5.22458	&pound;15	-0.06614424
-5.22458	&pound;15,000	-0.08062427
-5.22458	&pound;15,000-&pound;20,000	-0.08864021
-5.22458	&pound;159.00	-0.09236944
-5.22458	&pound;16	-0.09228658
-5.22458	&pound;16.99	-0.09202751
-5.22458	&pound;17.70	-0.06614424
-5.22458	&pound;175.00	-0.08062427
-5.22458	&pound;178,000	-0.08290094
-5.22458	&pound;19,000	-0.09235909
-5.22458	&pound;19.25	-0.06614424
-5.22458	&pound;19.50	-0.09235391
-5.22458	&pound;1m	-0.09220369
-5.22458	&pound;2,000	-0.08367568
-5.22458	&pound;2.11	-0.06614424
-5.22458	&pound;2.8	-0.09234614
-5.22458	&pound;20	-0.06622124
-4.92355	&pound;20,000	-0.06217903
-4.92355	&pound;200	-0.06217903
-5.22458	&pound;200,000	-0.07645404
-5.22458	&pound;21,000	-0.06614424
-5.22458	&pound;215.38	-0.09131426
-5.22458	&pound;22,500	-0.06614424
-5.22458	&pound;225	-0.09236944
-5.22458	&pound;229.00	-0.09220369
-5.22458	&pound;230m	-0.09204306
-5.22458	&pound;250,000	-0.06614424
-5.22458	&pound;26.4	-0.09228658
-5.22458	&pound;27m	-0.09236686
-5.22458	&pound;28.50	-0.06614424
-5.22458	&pound;295	-0.06614424
-5.22458	&pound;2m	-0.08062427
-4.92355	&pound;3	-0.06605346
-4.92355	&pound;3,000	-0.0812198
-5.22458	&pound;3.23	-0.0915971
-5.22458	&pound;30	-0.06614424
-5.22458	&pound;30,000-worth	-0.07959879
-5.22458	&pound;300m	-0.08938654
-5.22458	&pound;35	-0.06614424
-5.22458	&pound;354,500	-0.08062427
-5.22458	&pound;36	-0.09234873
-5.22458	&pound;364.09	-0.09220369
-5.22458	&pound;388	-0.08864021
-5.22458	&pound;39	-0.09236944
-5.22458	&pound;39.95	-0.09236686
-5.22458	&pound;4,700	-0.07959879
-5.22458	&pound;4.30	-0.09187199
-4.747458	&pound;40	-0.08987382
-4.92355	&pound;400	-0.08191797
-5.22458	&pound;400m	-0.09229176
-5.22458	&pound;42.95	-0.09236427
-5.22458	&pound;44	-0.09228658
-5.22458	&pound;45	-0.06614424
-5.22458	&pound;5.00	-0.06614424
-5.22458	&pound;5.46	-0.08290094
-5.22458	&pound;5.99	-0.09228916
-4.622519	&pound;50	-0.1618306
-5.22458	&pound;5000	-0.09234614
-5.22458	&pound;515,000	-0.08290094
-4.92355	&pound;55	-0.09230211
-5.22458	&pound;56	-0.09236427
-5.22458	&pound;5bn	-0.08938654
-4.92355	&pound;6	-0.09135319
-5.22458	&pound;6,000	-0.09236427
-5.22458	&pound;60,000	-0.08367568
-5.22458	&pound;600	-0.08290094
-5.22458	&pound;606,000	-0.06614424
-5.22458	&pound;61	-0.08290094
-5.22458	&pound;650	-0.08290094
-4.92355	&pound;695	-0.06601769
-5.22458	&pound;712,000	-0.09007172
-5.22458	&pound;75	-0.09212597
-5.22458	&pound;8,000	-0.09220628
-4.92355	&pound;80	-0.2850516
-5.22458	&pound;80,000	-0.0922011
-5.22458	&pound;85	-0.06614424
-5.22458	&pound;88,000	-0.09236944
-5.22458	&pound;9	-0.09228658
-5.22458	&pound;91,000	-0.09221664
-5.22458	&rgr;	-0.07645404
-4.379482	&times;	-0.2186957
-5.22458	&times;15000	-0.06614424
-5.22458	&verbar;x	-0.09233578
-5.22458	&verbar;x&verbar;	-0.09234355
-5.22458	&verbar;y&verbar;	-0.0922296
-5.22458	'	-0.09087536
-5.22458	'70s	-0.08062427
-5.22458	'73	-0.09054264
-4.747458	'ad	-0.08289564
-4.92355	'ave	-0.3112716
-5.22458	'aye	-0.06622124
-4.747458	'cos	-0.08384208
-5.22458	'em	-0.06614424
-5.22458	'enjoyed	-0.09177865
-5.22458	'gainst	-0.06622124
-5.22458	'it	-0.09236944
-4.145399	's	-0.1196876
-5.22458	'urry	-0.06614424
-4.446428	*	-0.08832147
-5.22458	*abd	-0.09236944
-5.22458	*mongolian	-0.0923332
-4.92355	*new	-0.3112379
-4.183187	+	-0.08575159
-5.22458	+1	-0.09236944
-5.22458	+21.4	-0.09007172
-5.22458	+7	-0.09207933
-5.22458	-20&deg;c	-0.06614424
-5.22458	-40&deg;c	-0.08062427
-5.22458	-columns	-0.06614424
-5.22458	-hco	-0.09226068
-5.22458	-us&dollar;62	-0.09236168
-5.22458	.7	-0.07959879
-5.22458	/	-0.09223478
-5.22458	0	-0.09236427
-5.22458	0&deg;	-0.09236944
-5.22458	0&ndash;255	-0.09236686
-5.22458	0.01	-0.06614424
-5.22458	0.05	-0.09220369
-5.22458	0.1	-0.09220369
-5.22458	0.4	-0.09236686
-5.22458	0.4%	-0.09215706
-5.22458	0.5	-0.09232025
-5.22458	0.51%	-0.08367568
-5.22458	0.6%	-0.09231766
-5.22458	0.83&aring;	-0.09236944
-5.22458	0.86mm	-0.09236944
-5.22458	0.96	-0.08200549
-5.22458	000	-0.09227363
-5.22458	0001&ndash;0001	-0.06614424
-5.22458	01-493	-0.09236944
-5.22458	0225	-0.09236944
-5.22458	04	-0.06614424
-5.22458	0428	-0.09236944
-5.22458	0532	-0.09236944
-5.22458	06.36	-0.08367568
-4.92355	061	-0.09236686
-5.22458	071	-0.09236944
-5.22458	071&ndash;281	-0.09236944
-5.22458	0742	-0.09236944
-5.22458	0865	-0.09236944
-5.22458	0rd	-0.06614424
-3.385731	1	-0.1443785
-5.22458	1&frac12;	-0.08200549
-5.22458	1&ndash;0	-0.09236944
-5.22458	1&ndash;1	-0.09226586
-5.22458	1&ndash;2	-0.09182791
-5.22458	1&ndash;4	-0.09236168
-5.22458	1&ndash;476	-0.09067523
-5.22458	1&ndash;98	-0.09227104
-5.22458	1(2)	-0.06614424
-4.92355	1,000	-0.07951879
-5.22458	1,100,000	-0.06614424
-5.22458	1,152	-0.09016542
-4.92355	1,200	-0.09229176
-5.22458	1,423	-0.09236944
-5.22458	1,500,000	-0.09182791
-5.22458	1,500m	-0.0904152
-5.22458	1,600	-0.09236686
-5.22458	1,637	-0.0923565
-5.22458	1,800	-0.0922555
-5.22458	1,819	-0.09230211
-5.22458	1,900	-0.09227363
-5.22458	1-year-old	-0.09207415
-5.22458	1.03	-0.06614424
-4.92355	1.1	-0.09086756
-4.747458	1.2	-0.05364886
-5.22458	1.2m	-0.09236944
-4.747458	1.3	-0.09210524
-5.22458	1.30	-0.09236427
-4.92355	1.5	-0.09229176
-5.22458	1.5.7	-0.0914051
-5.22458	1.5m	-0.07959879
-5.22458	1.5p	-0.08200549
-5.22458	1.75m	-0.09236686
-5.22458	1.9	-0.06614424
-5.22458	1/32in	-0.09148036
-3.844368	10	-0.102715
-5.22458	10%	-0.08062427
-5.22458	10&percnt;	-0.08968888
-5.22458	10,000	-0.09236686
-5.22458	10,759	-0.06614424
-5.22458	10-day	-0.09229694
-5.22458	10.10pm	-0.06614424
-5.22458	10.4	-0.09152187
-5.22458	10.5	-0.09007172
-4.446428	100	-0.1408234
-4.747458	100%	-0.06609747
-5.22458	100&ndash;1000	-0.08062427
-5.22458	100&ndash;400	-0.09236944
-5.22458	100,000	-0.09221923
-4.92355	1000	-0.06605896
-5.22458	1004.5	-0.09236168
-5.22458	1005	-0.08062427
-5.22458	100g/4oz	-0.06614424
-5.22458	100mph	-0.08367568
-4.92355	101	-0.2850516
-5.22458	106-ball	-0.09236944
-5.22458	107	-0.08062427
-5.22458	108,000	-0.09228658
-4.92355	109	-0.09214929
-5.22458	109,000	-0.09224255
-5.22458	1094	-0.09236427
-5.22458	10pc	-0.09236168
-5.22458	10pm	-0.09152187
-5.22458	10th	-0.09206638
-4.078452	11	-0.08917009
-4.92355	11%	-0.07893427
-5.22458	11-year-olds	-0.09235909
-5.22458	11.00	-0.09236686
-5.22458	11.123&mdash;4.26,32,5	-0.08367568
-5.22458	11.30	-0.08938654
-5.22458	11.30pm	-0.08367568
-5.22458	11/2	-0.08367568
-5.22458	110	-0.09188236
-5.22458	111,000	-0.09181754
-5.22458	115.5mm	-0.06614424
-5.22458	116.31	-0.09226068
-5.22458	117.7	-0.06614424
-5.22458	117/121	-0.09236944
-5.22458	118	-0.08864021
-5.22458	1184	-0.06614424
-5.22458	118p	-0.08290094
-5.22458	119	-0.09225291
-5.22458	11pm	-0.08062427
-3.809606	12	-0.1277123
-5.22458	12-rounder	-0.09211561
-5.22458	12-string	-0.09235909
-5.22458	12.1	-0.06614424
-5.22458	120&ndash;2	-0.06614424
-5.22458	120cm	-0.06614424
-5.22458	121	-0.06614424
-5.22458	121st	-0.09236944
-5.22458	1220	-0.09235391
-5.22458	123	-0.09235909
-5.22458	124.3	-0.09231248
-5.22458	1244	-0.09181754
-4.622519	125	-0.09142845
-5.22458	1259	-0.09234873
-5.22458	126	-0.09236427
-5.22458	127.88	-0.09231766
-4.92355	128	-0.09233838
-5.22458	1280	-0.06614424
-5.22458	1285&ndash;1331	-0.09236686
-5.22458	12th	-0.09229953
-4.145399	13	-0.1220249
-5.22458	13%	-0.07959879
-5.22458	13-day	-0.09236944
-5.22458	13-match	-0.0923332
-4.92355	130	-0.07638419
-5.22458	131	-0.09048282
-5.22458	131a	-0.09236944
-5.22458	132	-0.06614424
-5.22458	133.3	-0.09236944
-5.22458	1332	-0.07645404
-5.22458	134	-0.06614424
-5.22458	1350s	-0.09152187
-5.22458	136	-0.07959879
-5.22458	137.1	-0.09236944
-5.22458	1370	-0.09152187
-5.22458	139	-0.09236427
-5.22458	13th	-0.09138174
-4.145399	14	-0.1110233
-4.92355	14&ins;	-0.3112353
-5.22458	141	-0.09236944
-5.22458	142	-0.06622124
-5.22458	143.7	-0.09236944
-5.22458	145	-0.0922555
-4.92355	146	-0.09059204
-5.22458	1468	-0.06614424
-4.92355	147	-0.2850516
-5.22458	147p	-0.06614424
-4.747458	14th	-0.06564883
-3.994131	15	-0.1612131
-5.22458	15%	-0.09229176
-4.92355	15&ins;	-0.09227104
-5.22458	15-feet-high	-0.09236686
-5.22458	15.3%	-0.09235909
-4.92355	150	-0.09199382
-5.22458	150,000	-0.09236944
-5.22458	150th	-0.07645404
-5.22458	151	-0.09131426
-5.22458	1539	-0.08062427
-5.22458	1540	-0.09233578
-4.92355	1542	-0.06470327
-5.22458	1550	-0.09152187
-5.22458	1559	-0.09214669
-5.22458	15660	-0.06614424
-5.22458	1577	-0.09234355
-5.22458	1598	-0.09199382
-5.22458	15ci	-0.08062427
-5.22458	15th	-0.09234355
-4.183187	16	-0.04069871
-5.22458	16&ndash;17	-0.0923306
-5.22458	16.5	-0.09236686
-5.22458	1607	-0.06622124
-5.22458	162	-0.09143884
-5.22458	1621	-0.09152187
-5.22458	1628	-0.09166714
-5.22458	163	-0.09235909
-4.92355	1648	-0.06524936
-5.22458	1671	-0.08968888
-5.22458	1679	-0.06614424
-5.22458	167a	-0.08062427
-5.22458	167b	-0.08953513
-5.22458	1685	-0.07959879
-5.22458	1693	-0.09236427
-5.22458	16th	-0.06614424
-4.145399	17	-0.08797567
-5.22458	17%	-0.09229176
-5.22458	17(i)	-0.09231248
-5.22458	17-30	-0.0923306
-5.22458	170.3	-0.09187199
-5.22458	1701	-0.09138434
-5.22458	1702&ndash;13	-0.08725114
-5.22458	1709	-0.06614424
-5.22458	1715&ndash;1754	-0.09235909
-5.22458	1722	-0.08062427
-5.22458	1724	-0.08953513
-5.22458	1727	-0.09220369
-5.22458	1748	-0.08290094
-5.22458	175	-0.09236686
-5.22458	1750	-0.08062427
-5.22458	1765	-0.09007172
-5.22458	1777	-0.09236168
-5.22458	177p	-0.06614424
-5.22458	1780s	-0.0923073
-5.22458	1782	-0.06614424
-5.22458	1784	-0.09230988
-5.22458	1789	-0.09087536
-5.22458	1797	-0.08200549
-5.22458	17ci	-0.06614424
-5.22458	17th	-0.09085197
-4.048489	18	-0.05230041
-4.92355	18%	-0.06319658
-4.747458	18&ins;	-0.2254378
-5.22458	18&ndash;12	-0.09225032
-5.22458	18&ndash;21	-0.09236686
-5.22458	18&ndash;30	-0.0920871
-5.22458	18-year-old	-0.09072722
-5.22458	1800	-0.08953513
-5.22458	1800&ndash;1814	-0.09016542
-5.22458	1800s	-0.0923073
-5.22458	1803	-0.09207674
-4.92355	1810.5	-0.06613599
-5.22458	1813	-0.06614424
-5.22458	1818	-0.09228399
-5.22458	1825	-0.08062427
-5.22458	1832	-0.092227
-5.22458	1834	-0.08938654
-4.92355	1838	-0.08062161
-5.22458	1839&ndash;1901	-0.09201973
-4.92355	1840s	-0.06621575
-5.22458	1845	-0.08953513
-5.22458	1848	-0.08062427
-4.747458	1850	-0.06530999
-5.22458	1851	-0.08200549
-5.22458	1854	-0.07959879
-5.22458	1857&ndash;1940	-0.06614424
-5.22458	1858	-0.08062427
-4.92355	186	-0.09233838
-5.22458	1860	-0.06614424
-5.22458	1861	-0.09236944
-5.22458	1865	-0.09224772
-5.22458	1866&ndash;1938	-0.07645404
-4.92355	1871	-0.08951167
-5.22458	1874	-0.0904152
-5.22458	1875	-0.09236944
-4.92355	1876	-0.08286653
-5.22458	1878	-0.09236944
-5.22458	188	-0.07645404
-5.22458	1880s	-0.08062427
-5.22458	1881	-0.08200549
-5.22458	1881&ndash;1955	-0.08062427
-5.22458	1884&ndash;1942	-0.09152965
-5.22458	1884&ndash;5	-0.09235132
-5.22458	1885	-0.09016542
-5.22458	1885&ndash;7	-0.09212856
-5.22458	1886	-0.09236944
-5.22458	1886&ndash;1890.	-0.09226068
-5.22458	1888	-0.08938654
-5.22458	1890	-0.08938654
-5.22458	1890s	-0.09101565
-5.22458	1891&ndash;2	-0.09152187
-4.92355	1892	-0.09233838
-5.22458	1893	-0.08062427
-5.22458	1893&ndash;4	-0.09235391
-4.622519	1895	-0.1731871
-5.22458	1896	-0.08062427
-5.22458	1899	-0.06622124
-5.22458	18p	-0.09212597
-5.22458	18th	-0.08958986
-5.22458	18th-century	-0.09236944
-4.183187	19	-0.1679811
-5.22458	19&ndash;60	-0.07645404
-5.22458	190	-0.09236944
-4.92355	1900s	-0.06524109
-4.92355	1901	-0.2850516
-5.22458	1902&ndash;73	-0.09236944
-5.22458	1904&ndash;5	-0.09236427
-5.22458	1906	-0.09219074
-5.22458	1908	-0.08953513
-4.747458	1911	-0.05357524
-4.92355	1913	-0.06616074
-5.22458	1914	-0.07645404
-5.22458	1916	-0.08062427
-4.747458	1917	-0.08913355
-4.622519	1919	-0.05123873
-5.22458	192	-0.09228658
-5.22458	1920	-0.09152187
-5.22458	1920s	-0.06614424
-5.22458	1921	-0.09235909
-5.22458	1922	-0.06614424
-4.92355	1924	-0.06605621
-5.22458	1925	-0.08062427
-5.22458	1926	-0.06614424
-4.92355	1927	-0.2995316
-4.92355	1928	-0.09137915
-5.22458	1930's	-0.06614424
-4.747458	1930s	-0.2135802
-5.22458	1932	-0.09231248
-4.747458	1933	-0.1991451
-5.22458	1934	-0.06622124
-5.22458	1936	-0.0923073
-5.22458	1937	-0.09234873
-5.22458	1938	-0.08953513
-4.747458	1940	-0.05063196
-4.92355	1941	-0.09223995
-4.622519	1942	-0.03509492
-4.92355	1943	-0.09173457
-5.22458	1944	-0.09236944
-4.747458	1945	-0.07306711
-5.22458	1945&ndash;51	-0.08062427
-5.22458	1947	-0.06622124
-5.22458	1948	-0.0923565
-5.22458	1949	-0.09231506
-4.92355	1950	-0.06532101
-4.622519	1950s	-0.1479761
-4.92355	1953	-0.08061895
-5.22458	1953-.65	-0.06622124
-4.622519	1954	-0.1492609
-4.525609	1955	-0.09035277
-4.92355	1956	-0.09236686
-4.622519	1957	-0.07798777
-5.22458	1958	-0.09236168
-4.92355	1959	-0.06598742
-4.747458	1960	-0.06315226
-4.379482	1960s	-0.005060993
-5.22458	1962	-0.08062427
-4.92355	1963	-0.08966283
-4.622519	1964	-0.0854342
-4.92355	1965	-0.06613599
-4.525609	1966	-0.2430386
-5.22458	1966&ndash;84	-0.06614424
-4.747458	1967	-0.07952145
-4.622519	1968	-0.1618113
-4.622519	1969	-0.1494563
-4.525609	1970	-0.2516029
-5.22458	1970's	-0.09180717
-4.183187	1970s	-0.1281352
-4.379482	1971	-0.1003376
-4.622519	1972	-0.1563512
-4.747458	1973	-0.1937747
-5.22458	1973&ndash;74	-0.09152187
-4.622519	1974	-0.06338485
-4.525609	1975	-0.1386864
-5.22458	1975&ndash;6&ndash;7	-0.06622124
-4.525609	1976	-0.05689227
-5.22458	1976/67	-0.06614424
-5.22458	1976/77	-0.09155041
-4.270337	1977	-0.07208563
-4.32149	1978	-0.1161156
-4.145399	1979	-0.09603051
-5.22458	1979a	-0.06614424
-4.22458	1980	-0.2521672
-4.32149	1980s	-0.05567293
-4.22458	1981	-0.2431415
-5.22458	1981&ndash;85	-0.09236686
-5.22458	1981a	-0.08062427
-4.446428	1982	-0.05033255
-4.078452	1983	-0.06241462
-4.92355	1983a	-0.06614149
-4.22458	1984	-0.1001092
-5.22458	1984b	-0.08725114
-4.32149	1985	0.009402163
-5.22458	1985b	-0.08062427
-4.379482	1986	-0.04914995
-5.22458	1986b	-0.06614424
-5.22458	1986d	-0.09236944
-3.994131	1987	-0.0343508
-4.02046	1988	-0.1159711
-3.945826	1989	-0.1272567
-5.22458	1989c	-0.08938654
-3.92355	1990	-0.1686026
-5.22458	1990b	-0.06614424
-4.622519	1990s	-0.04237254
-3.994131	1991	-0.1449254
-5.22458	1991a	-0.09236944
-5.22458	1991b	-0.09236944
-4.048489	1992	-0.1917402
-4.622519	1993	-0.316462
-5.22458	1993/94	-0.0904152
-5.22458	1994	-0.09236944
-5.22458	1995	-0.08290094
-5.22458	19e&ndash;f	-0.06614424
-4.92355	19th	-0.08052316
-5.22458	1:1	-0.08200549
-5.22458	1cm/&half;inch	-0.08062427
-5.22458	1m	-0.09182791
-5.22458	1st	-0.09236944
-5.22458	1ur	-0.09067523
-3.484217	2	-0.09007309
-4.92355	2%	-0.07959612
-5.22458	2&middot;5cm/1inch	-0.09007172
-5.22458	2&ndash;4	-0.09229694
-5.22458	2&ndash;6	-0.09236686
-5.22458	2&ndash;98	-0.08062427
-5.22458	2(5)	-0.06614424
-4.92355	2+	-0.09235909
-5.22458	2,118	-0.06614424
-5.22458	2,500,000	-0.09236168
-5.22458	2,700-seat	-0.09236944
-5.22458	2,800	-0.09216484
-5.22458	2-d	-0.09232283
-4.92355	2.1	-0.08045131
-5.22458	2.1p	-0.09210006
-5.22458	2.2	-0.09224255
-5.22458	2.2.19	-0.09236944
-5.22458	2.30	-0.09236427
-5.22458	2.5	-0.09220369
-5.22458	2.5-litre	-0.09236944
-5.22458	2.5m	-0.09236944
-5.22458	2.6	-0.09235909
-5.22458	2.67	-0.08062427
-5.22458	2.7.8.	-0.09221406
-5.22458	2.7.9	-0.09223218
-5.22458	2.71	-0.09085197
-5.22458	2.72	-0.09236686
-5.22458	2.8224mhz	-0.0923332
-5.22458	2.99	-0.06614424
-5.22458	2/9	-0.08062427
-4.02046	20	-0.240399
-5.22458	20&ndash;34	-0.06614424
-4.92355	20,000	-0.0818941
-5.22458	20-foot	-0.09236168
-5.22458	20-patient	-0.0922814
-5.22458	20-strong	-0.09234096
-4.183187	200	-0.1522089
-5.22458	200&deg;c	-0.06614424
-5.22458	200&ndash;275	-0.09236686
-5.22458	200&rehy;year-old	-0.0923565
-4.92355	200,000	-0.08054445
-4.92355	2000	-0.08992331
-5.22458	2001	-0.09235132
-5.22458	207	-0.06614424
-5.22458	20mb	-0.09232801
-5.22458	20mhz	-0.08725114
-4.379482	20th	-0.2051303
-4.379482	21	-0.06546704
-5.22458	21&ndash;13	-0.09007172
-5.22458	21&ndash;6	-0.06614424
-5.22458	213	-0.09235909
-5.22458	217	-0.09236944
-5.22458	219	-0.08290094
-5.22458	21st	-0.09227363
-4.145399	22	-0.0484015
-5.22458	22%	-0.09226068
-5.22458	22-week	-0.0922555
-5.22458	22.30	-0.08200549
-5.22458	220,000	-0.08367568
-5.22458	221	-0.06614424
-5.22458	221&ndash;5	-0.09236944
-5.22458	225	-0.09236686
-5.22458	228&ndash;231	-0.06614424
-4.622519	22nd	-0.1619104
-4.110636	23	-0.1088747
-4.92355	23-year-old	-0.09227622
-5.22458	235	-0.09206897
-5.22458	23c	-0.09087536
-5.22458	23d	-0.06614424
-4.145399	24	-0.07041582
-5.22458	24-hour	-0.09234873
-5.22458	24-sep	-0.06614424
-5.22458	24-year-old	-0.09236944
-5.22458	2400	-0.09234614
-5.22458	240mb	-0.0922555
-5.22458	2440mm	-0.09236944
-5.22458	245	-0.09236944
-5.22458	245-t	-0.09234873
-5.22458	248p	-0.091999
-4.183187	25	-0.04992727
-4.92355	25%	-0.08787952
-4.747458	250	-0.09039439
-5.22458	250,000	-0.09182791
-5.22458	256	-0.09232543
-5.22458	26	-0.09232283
-5.22458	26%	-0.0922296
-4.92355	26th	-0.08193123
-4.622519	27	-0.1494025
-5.22458	27-29	-0.09230471
-5.22458	27.47	-0.09236686
-5.22458	270	-0.09236427
-5.22458	275	-0.09177347
-5.22458	2769	-0.06614424
-4.32149	28	-0.05043809
-5.22458	28,000	-0.09232543
-5.22458	28-year-old	-0.09236944
-5.22458	280	-0.06614424
-5.22458	288	-0.06614424
-4.270337	29	-0.06446861
-5.22458	29&frac12;	-0.09236686
-5.22458	290	-0.08864021
-5.22458	295	-0.09236944
-5.22458	29990	-0.06614424
-5.22458	29th	-0.09153225
-5.22458	2:1	-0.06614424
-5.22458	2:2	-0.09232801
-5.22458	2am	-0.09228658
-5.22458	2in	-0.09234614
-5.22458	2lst	-0.09227363
-4.92355	2nd	-0.3112742
-5.22458	2oz	-0.09236944
-5.22458	2oz/50g	-0.09233578
-5.22458	2pm	-0.09193161
-5.22458	2tp	-0.09235909
-5.22458	2x15&ins;	-0.09235909
-3.591111	3	-0.1632909
-5.22458	3&ndash;0	-0.09224772
-5.22458	3&percnt;	-0.07959879
-5.22458	3'	-0.09212079
-5.22458	3(1)	-0.08062427
-4.92355	3,000	-0.05607666
-5.22458	3,000m	-0.09227104
-5.22458	3,000th	-0.09227104
-5.22458	3,500,000	-0.09182791
-5.22458	3-d	-0.09236168
-5.22458	3-year	-0.09233578
-5.22458	3-year-old	-0.09207415
-5.22458	3.1.2.1	-0.0923565
-4.92355	3.11	-0.07644329
-5.22458	3.20	-0.09086236
-5.22458	3.3	-0.09220369
-4.92355	3.4	-0.2850516
-5.22458	3.5	-0.09236686
-5.22458	3.9ise	-0.09236427
-5.22458	3/2/92	-0.09236944
-4.110636	30	-0.114308
-5.22458	30&ndash;36	-0.09236168
-5.22458	30,000	-0.09228658
-5.22458	30-april	-0.09219333
-4.92355	30-year-old	-0.09033456
-4.92355	300	-0.09231248
-5.22458	300&deg;c	-0.08062427
-5.22458	300-page	-0.09214929
-5.22458	3000	-0.06614424
-5.22458	301	-0.09231766
-5.22458	302	-0.09236686
-5.22458	309	-0.09230211
-5.22458	30km	-0.09236686
-5.22458	30mph	-0.06614424
-4.747458	31	-0.06469774
-5.22458	31%	-0.0923306
-5.22458	317.4	-0.09236168
-5.22458	31st	-0.09232543
-4.747458	32	-0.07952411
-5.22458	320	-0.09228658
-5.22458	325	-0.08367568
-5.22458	3250	-0.07645404
-4.747458	33	-0.08948299
-5.22458	335947	-0.06614424
-5.22458	338	-0.09236944
-5.22458	33m	-0.09229953
-4.92355	34	-0.09216742
-5.22458	340	-0.09236944
-5.22458	3403	-0.06614424
-5.22458	34230	-0.06614424
-5.22458	343	-0.09236944
-5.22458	34767-68	-0.09138434
-4.525609	35	-0.06356474
-5.22458	35-year-old	-0.0923332
-5.22458	354	-0.06614424
-5.22458	356	-0.06614424
-5.22458	359	-0.09234873
-5.22458	35987-88	-0.08062427
-4.446428	36	-0.1243675
-5.22458	36&ndash;1484	-0.09236944
-5.22458	36-hour	-0.09218038
-5.22458	36-year-old	-0.09072722
-5.22458	366	-0.09236944
-5.22458	36629	-0.09172679
-5.22458	37.40	-0.09219074
-5.22458	370	-0.09226327
-5.22458	37120-21	-0.06614424
-5.22458	37195	-0.08062427
-5.22458	37225	-0.06622124
-5.22458	376	-0.06614424
-5.22458	37625	-0.06614424
-5.22458	37962	-0.06614424
-5.22458	38	-0.09228658
-5.22458	38,772	-0.09016542
-5.22458	380	-0.06614424
-5.22458	38107	-0.06614424
-5.22458	38118	-0.09231506
-5.22458	38174-75	-0.07645404
-5.22458	38687-88	-0.09236944
-5.22458	38774	-0.06614424
-5.22458	38782	-0.09236686
-5.22458	38800	-0.08715943
-5.22458	38817	-0.08864021
-5.22458	38mm	-0.09236944
-4.747458	39	-0.08364926
-5.22458	39%	-0.09131426
-4.92355	390	-0.09233578
-5.22458	392	-0.06614424
-5.22458	397	-0.09233578
-5.22458	397,000	-0.06614424
-5.22458	3a	-0.06614424
-5.22458	3d	-0.09218038
-5.22458	3kg	-0.07959879
-5.22458	3rd	-0.09235909
-3.733218	4	-0.05323696
-5.22458	4%	-0.06614424
-5.22458	4&ndash;4&frac12;lb/1.8&ndash;2kg	-0.09232801
-5.22458	4-bit	-0.09228399
-5.22458	4.0	-0.09225809
-5.22458	4.2p	-0.09234096
-5.22458	4.5	-0.09236686
-5.22458	4.6	-0.08062427
-4.22458	40	-0.02413248
-5.22458	40,000-strong	-0.09232025
-5.22458	400	-0.09227363
-5.22458	400,000	-0.09221664
-5.22458	4000	-0.07959879
-5.22458	4000rpm	-0.06614424
-5.22458	4004	-0.09067523
-5.22458	406mm	-0.09226327
-5.22458	41	-0.08062427
-5.22458	42	-0.09228916
-5.22458	4291	-0.08367568
-5.22458	4356	-0.09210265
-5.22458	437	-0.06614424
-5.22458	4388	-0.06614424
-4.92355	44	-0.0698418
-5.22458	440&ndash;570	-0.09236686
-5.22458	441	-0.06614424
-5.22458	4469	-0.09236427
-4.525609	45	-0.05468374
-5.22458	45%	-0.07959879
-5.22458	450	-0.09234873
-5.22458	459707	-0.09227363
-5.22458	46p	-0.09227881
-5.22458	47	-0.09236686
-5.22458	47.5%	-0.07959879
-5.22458	471	-0.06614424
-5.22458	48	-0.06614424
-4.92355	48&ins;	-0.3112612
-5.22458	486	-0.09236944
-5.22458	4893748	-0.06614424
-5.22458	49	-0.09236427
-4.92355	490	-0.06613599
-5.22458	498,576	-0.06614424
-5.22458	4f	-0.09067523
-5.22458	4ft	-0.09201973
-5.22458	4mb	-0.09235909
-5.22458	4oz/100g	-0.09236944
-5.22458	4pm	-0.08062427
-4.92355	4th	-0.09223995
-5.22458	4x12	-0.09235909
-3.733218	5	-0.1326844
-4.747458	5%	-0.08186491
-5.22458	5&frac12;	-0.09007172
-5.22458	5&ft;5&ins;	-0.09236944
-5.22458	5&ndash;10	-0.09228916
-5.22458	5&ndash;10%	-0.09215188
-5.22458	5&ndash;9	-0.08958986
-4.92355	5,000	-0.09228658
-5.22458	5,2	-0.07645404
-5.22458	5.0	-0.08367568
-5.22458	5.1-ii	-0.06614424
-5.22458	5.1.4	-0.09236944
-5.22458	5.22	-0.09208451
-5.22458	5.3	-0.08725114
-5.22458	5.7	-0.06614424
-3.945826	50	-0.09435386
-5.22458	50&ins;	-0.09235132
-5.22458	50-seat	-0.09207415
-4.446428	500	-0.09180199
-5.22458	500,000-strong	-0.09230471
-5.22458	5000	-0.09229176
-5.22458	508.66	-0.06614424
-5.22458	50g	-0.09236944
-5.22458	51	-0.0923306
-5.22458	52	-0.08715943
-5.22458	52-year-old	-0.09236944
-5.22458	525	-0.09215706
-4.747458	53	-0.09231765
-5.22458	530.2	-0.09236168
-5.22458	539.71	-0.09236944
-5.22458	54	-0.09208451
-5.22458	55	-0.09221146
-5.22458	558	-0.09101565
-5.22458	56	-0.09236427
-5.22458	56-member	-0.09236944
-5.22458	56th	-0.09226844
-4.92355	57	-0.08364663
-5.22458	57%	-0.09223478
-5.22458	573	-0.09236944
-5.22458	582	-0.09236427
-5.22458	5882	-0.06614424
-4.747458	59	-0.4659425
-5.22458	59%	-0.09236427
-5.22458	5km	-0.09217519
-3.969307	6	-0.1525718
-5.22458	6%	-0.08062427
-5.22458	6&ndash;14-year-olds	-0.08367568
-5.22458	6&ndash;4	-0.07645404
-5.22458	6+	-0.09226844
-4.92355	6,000	-0.0900561
-5.22458	6,000cc	-0.08367568
-5.22458	6-2	-0.09236944
-5.22458	6-3	-0.08200549
-5.22458	6-7pm	-0.09181495
-5.22458	6-string	-0.09236944
-5.22458	6.2.2	-0.06614424
-5.22458	6.22b	-0.09228916
-5.22458	6.3a	-0.06614424
-5.22458	6.4b	-0.07645404
-4.92355	6.5	-0.0551241
-5.22458	6.6&ndash;7.0	-0.06614424
-5.22458	6.7	-0.08062427
-5.22458	6.9	-0.06614424
-4.525609	60	-0.1408354
-5.22458	60%	-0.07959879
-4.92355	60,000	-0.09228658
-4.92355	600	-0.07645135
-5.22458	6000	-0.09199641
-5.22458	61	-0.06614424
-5.22458	61%	-0.09202751
-5.22458	62%	-0.09222441
-5.22458	623	-0.09067784
-5.22458	6250	-0.08725114
-5.22458	627	-0.09236944
-5.22458	632	-0.09236944
-5.22458	63508	-0.09229435
-5.22458	638	-0.09236944
-5.22458	63rd	-0.0923332
-4.747458	64	-0.06554417
-5.22458	64-year-old	-0.09234096
-5.22458	644	-0.06622124
-4.92355	65	-0.09236168
-5.22458	65&ndash;70	-0.09236686
-5.22458	656438	-0.09236944
-5.22458	66	-0.09236427
-5.22458	67	-0.07645404
-5.22458	67,167	-0.09235132
-5.22458	677	-0.09236944
-4.92355	68	-0.06613599
-5.22458	6838	-0.06614424
-5.22458	688.47	-0.06614424
-5.22458	69-67	-0.09201973
-5.22458	6tbsp	-0.09236944
-4.048489	7	-0.1548069
-5.22458	7%	-0.09235909
-5.22458	7&ndash;2	-0.09188236
-4.92355	7&ndash;5	-0.08200284
-5.22458	7&ndash;8	-0.09234096
-5.22458	7(5)	-0.07959879
-5.22458	7,000	-0.0923306
-5.22458	7,400	-0.09232283
-5.22458	7,850	-0.09131426
-5.22458	7.1	-0.06614424
-4.92355	7.2	-0.09211561
-5.22458	7.2(b)	-0.06614424
-5.22458	7.30pm	-0.06614424
-5.22458	7.6	-0.09131426
-5.22458	7.7	-0.09234355
-5.22458	7.9	-0.06614424
-5.22458	7/19	-0.09016542
-4.622519	70	-0.09178901
-5.22458	70,000	-0.09236944
-5.22458	700	-0.09235132
-5.22458	700,000	-0.09233578
-5.22458	700.70	-0.09236944
-5.22458	700/rx	-0.0923073
-5.22458	708	-0.08367568
-5.22458	715	-0.09236944
-5.22458	72	-0.09193161
-5.22458	739190	-0.09236686
-4.92355	74	-0.08054445
-4.622519	75	-0.06591587
-5.22458	750	-0.09228658
-5.22458	75069	-0.07645404
-5.22458	750cc	-0.09229694
-5.22458	76	-0.06614424
-5.22458	760	-0.08062427
-5.22458	762	-0.06622124
-5.22458	77,000	-0.09236944
-5.22458	779	-0.06614424
-4.92355	78	-0.07640837
-5.22458	78(1)	-0.07959879
-5.22458	79	-0.09236168
-5.22458	7903282	-0.06614424
-4.747458	7th	-0.08937089
-3.969307	8	-0.1361704
-5.22458	8%	-0.09195235
-5.22458	8.2	-0.06614424
-5.22458	8.4(b)	-0.09201714
-5.22458	8.6	-0.09229953
-5.22458	8.77	-0.08864021
-4.92355	80	-0.09232801
-5.22458	80%	-0.07959879
-5.22458	80-billion-dollar	-0.09232543
-5.22458	80/70	-0.08062427
-4.525609	800	-0.08183573
-5.22458	8000	-0.06614424
-5.22458	800g	-0.06614424
-5.22458	80486	-0.09232025
-4.92355	81	-0.09070643
-4.92355	82	-0.07925732
-5.22458	82&ndash;5	-0.09220369
-5.22458	8214	-0.09087536
-5.22458	8250	-0.09229176
-4.747458	84	-0.04912993
-5.22458	85	-0.08062427
-4.747458	852	-0.09214928
-4.92355	86	-0.08054445
-4.92355	87	-0.09236686
-5.22458	88	-0.09235909
-5.22458	89	-0.09193161
-5.22458	89(4)	-0.07959879
-5.22458	8oz/225g	-0.09236168
-5.22458	8pm	-0.08062427
-4.379482	9	-0.1317769
-5.22458	9%	-0.06614424
-4.747458	90	-0.08075726
-4.92355	900	-0.09181495
-5.22458	900,000	-0.09236944
-5.22458	9000s	-0.08062427
-5.22458	90ml	-0.09223478
-5.22458	911	-0.09236944
-5.22458	912s	-0.09212597
-5.22458	919	-0.09236944
-5.22458	9225	-0.0916853
-4.92355	93	-0.06406529
-5.22458	93%	-0.09087536
-5.22458	9300	-0.09234614
-5.22458	948	-0.09086236
-5.22458	95%	-0.09232025
-5.22458	97-mph	-0.09236686
-5.22458	98	-0.07645404
-5.22458	98fm	-0.09233578
-5.22458	9986/4175	-0.06614424
-5.22458	999	-0.09208451
-5.22458	9:6	-0.09174754
-5.22458	9m	-0.09236944
-4.747458	9th	-0.06839391
-5.22458	9uz	-0.08062427
-1.23207	</s>
-99	<s>	-0.3153042
-4.270337	=	-0.1609403
-1.666111	a	-0.07686588
-4.92355	a-level	-0.08189145
-5.22458	a-levels	-0.08367568
-4.379482	a.	-0.09226067
-4.92355	a.c.	-0.09236686
-5.22458	a.g.	-0.09236944
-4.92355	a.m	-0.2850516
-5.22458	a.m.	-0.09236944
-5.22458	a13123	-0.09067523
-4.92355	a2	-0.08059234
-5.22458	a4	-0.09234614
-5.22458	aa	-0.09236944
-5.22458	aaaah	-0.06614424
-5.22458	ababa	-0.08367568
-4.92355	abandon	-0.09063105
-5.22458	abaya	-0.06622124
-4.747458	abbey	-0.08032086
-5.22458	abbott	-0.09232801
-5.22458	abbreviated	-0.0923306
-5.22458	abc	-0.09229435
-5.22458	abdel	-0.09236944
-5.22458	abdur	-0.09236944
-5.22458	abe	-0.08725114
-4.92355	aberdeen	-0.08438048
-5.22458	aberdeenshire	-0.07645404
-4.92355	aberystwyth	-0.07894763
-5.22458	abiding	-0.09236427
-3.90236	ability	-0.854669
-5.22458	abkhaz	-0.09230211
-5.22458	abkhazia	-0.09162305
-3.543339	able	-1.025291
-5.22458	abnormal	-0.09087536
-5.22458	aboard	-0.06622124
-4.747458	abolish	-0.06067468
-4.92355	abolition	-0.2985061
-5.22458	abomination	-0.06622124
-5.22458	abound	-0.0904152
-2.750363	about	-0.178239
-3.517009	above	-0.1722643
-4.92355	abreast	-0.0767333
-4.747458	abroad	-0.1989029
-5.22458	abrupt	-0.09235391
-4.92355	abruptly	-0.09151668
-5.22458	abseiling	-0.09007172
-4.32149	absence	-0.2076648
-5.22458	absent	-0.09072722
-4.446428	absolute	-0.09178125
-4.048489	absolutely	-0.112377
-4.92355	absorb	-0.06060505
-4.747458	absorption	-0.4659425
-5.22458	abstinence	-0.0914051
-5.22458	abstract	-0.06614424
-5.22458	abstraction	-0.08062427
-4.92355	absurd	-0.08367305
-5.22458	absurdly	-0.09219851
-5.22458	abu	-0.09236944
-4.92355	abundance	-0.2985061
-5.22458	abundant	-0.09236944
-4.525609	abuse	-0.2439408
-4.92355	abusive	-0.06579477
-5.22458	abysmal	-0.06614424
-5.22458	acacia	-0.09236944
-4.525609	academic	-0.09225808
-4.747458	accelerate	-0.06617723
-5.22458	accelerating	-0.09232283
-5.22458	acceleration	-0.08062427
-4.747458	accent	-0.05038959
-5.22458	accentuate	-0.06614424
-3.543339	accept	-0.2508819
-4.92355	acceptability	-0.0904126
-4.446428	acceptable	-0.3499955
-4.92355	acceptance	-0.07947077
-4.747458	accepted	-0.0917579
-3.92355	access	-0.3333774
-5.22458	accessibility	-0.07959879
-4.92355	accessible	-0.08186492
-4.92355	accessory	-0.09234096
-4.183187	accident	-0.1564219
-5.22458	accidental	-0.06614424
-5.22458	accidentally	-0.09231248
-5.22458	accolade	-0.09072722
-4.92355	accommodate	-0.07089055
-4.379482	accommodation	-0.0918268
-4.183187	accompany	-0.4127687
-4.92355	accompanying	-0.09219074
-5.22458	accomplish	-0.08290094
-4.747458	accomplished	-0.06600942
-3.656378	according	-0.3198654
-4.525609	accordingly	-0.1387279
-3.508576	account	-0.2259254
-4.92355	accountability	-0.07956946
-5.22458	accountable	-0.08200549
-4.92355	accountancy	-0.08999883
-4.622519	accountant	-0.1757766
-4.622519	accounting	-0.1482458
-5.22458	accross	-0.06622124
-5.22458	accrue	-0.08200549
-4.92355	accumulate	-0.08562887
-5.22458	accumulated	-0.09232283
-5.22458	accumulator	-0.06614424
-4.747458	accuracy	-0.05263704
-4.270337	accurate	-0.06325473
-5.22458	accurately	-0.09226586
-4.183187	accuse	-0.1633719
-5.22458	accused	-0.08968888
-5.22458	accustomed	-0.08200549
-4.622519	ace	-0.08245609
-5.22458	acer	-0.09235909
-5.22458	acetone	-0.0916853
-5.22458	ache	-0.09227881
-3.945826	achieve	-0.1549878
-4.32149	achievement	-0.05500004
-5.22458	aching	-0.09235132
-5.22458	achlorhydria	-0.09230988
-4.92355	acid	-0.08917008
-4.379482	acknowledge	-0.2821264
-5.22458	acknowledged	-0.09212597
-5.22458	acknowledgement	-0.07959879
-5.22458	aclet	-0.09223995
-5.22458	acme	-0.07959879
-4.747458	acoustic	-0.2238059
-5.22458	acoustic-phonetic	-0.08062427
-5.22458	acoustics	-0.07959879
-5.22458	acp	-0.0900561
-4.92355	acquaint	-0.3084972
-5.22458	acquiesce	-0.09221923
-4.183187	acquire	-0.09717815
-4.747458	acquisition	-0.06157069
-5.22458	acquittal	-0.09236168
-5.22458	acqusition	-0.07959879
-5.22458	acre	-0.09228658
-5.22458	acre/	-0.09236427
-4.747458	acres	-0.4659425
-5.22458	acrimonious	-0.09234614
-3.552482	across	-0.5001448
-3.379482	act	-0.1324678
-5.22458	acti	-0.09236168
-4.92355	acting	-0.09218815
-3.517009	action	-0.1275199
-4.92355	actionable	-0.09016282
-4.92355	activate	-0.09230211
-4.747458	activation	-0.05823051
-4.183187	active	-0.07220396
-4.747458	actively	-0.2254352
-4.622519	activist	-0.06587183
-3.508576	activity	-0.2091144
-5.22458	activity-based	-0.09236944
-4.622519	actor	-0.08887259
-5.22458	actress	-0.09236686
-4.622519	acts	-0.06674621
-4.22458	actual	-0.1270274
-5.22458	actualization	-0.07959879
-3.534384	actually	-0.09269343
-4.525609	acute	-0.08033152
-4.92355	acutely	-0.0923073
-4.622519	ad	-0.07105648
-5.22458	ad-libbing	-0.06614424
-5.22458	adage	-0.08775391
-5.22458	adagietto	-0.08367568
-4.446428	adam	-0.05034682
-5.22458	adamant	-0.08367568
-5.22458	adamec	-0.06622124
-4.622519	adams	-0.08246139
-5.22458	adana	-0.09234096
-4.622519	adapt	-0.05437297
-5.22458	adaptor	-0.09215188
-3.611796	add	-0.1632471
-4.622519	added	-0.09205601
-4.92355	addict	-0.08200284
-5.22458	addis	-0.09236944
-5.22458	addison	-0.09236944
-4.92355	addition	-0.3009128
-4.048489	additional	-0.1189409
-5.22458	additive	-0.09234096
-3.994131	address	-0.03573887
-5.22458	adduce	-0.09236168
-5.22458	adduct	-0.09153225
-5.22458	adelekan	-0.08725114
-4.92355	adenocarcinoma	-0.05690071
-4.270337	adequate	-0.1095277
-4.92355	adequately	-0.08848348
-5.22458	adewumi	-0.09236427
-5.22458	adf	-0.06614424
-5.22458	adherence	-0.08200549
-5.22458	adhesion	-0.07645404
-5.22458	adhesiveness	-0.08367568
-5.22458	adi	-0.09236944
-4.92355	adjacent	-0.0662185
-5.22458	adjoining	-0.09221664
-5.22458	adjourn	-0.09143884
-5.22458	adjudication	-0.09016542
-5.22458	adjudicator	-0.07645404
-4.525609	adjust	-0.053377
-4.747458	adjuster	-0.06485778
-4.525609	adjustment	-0.06501776
-5.22458	adkin	-0.09236686
-5.22458	adler	-0.09087536
-4.747458	admin	-0.2135829
-4.747458	administer	-0.08168183
-4.145399	administration	-0.066332
-4.525609	administrative	-0.2429536
-4.747458	administrator	-0.07077898
-4.747458	admirable	-0.08250907
-4.92355	admiral	-0.07959612
-5.22458	admiralty	-0.06614424
-4.92355	admire	-0.05615547
-5.22458	admirer	-0.07959879
-4.622519	admission	-0.1596958
-4.078452	admit	-0.1696492
-5.22458	admitting	-0.09218038
-5.22458	admonition	-0.08062427
-5.22458	adolfo	-0.09236944
-4.078452	adopt	-0.08369965
-4.747458	adoption	-0.2125091
-4.747458	adore	-0.08776176
-4.92355	adorn	-0.08838941
-4.92355	adrenal	-0.09236427
-5.22458	adrenaline	-0.09211561
-4.92355	adrian	-0.09236686
-5.22458	adsorb	-0.08938654
-5.22458	adua	-0.08200549
-4.270337	adult	-0.05139527
-5.22458	adulthood	-0.06614424
-3.945826	advance	-0.0539325
-4.270337	advanced	-0.079924
-5.22458	advancement	-0.09219074
-5.22458	advancing	-0.09232025
-3.777422	advantage	-0.2876951
-4.622519	adventure	-0.170644
-5.22458	adventurer	-0.09199382
-5.22458	adverb	-0.08062427
-4.92355	adverbial	-0.08365455
-5.22458	adversary	-0.09213634
-4.92355	adverse	-0.09216224
-4.747458	adversely	-0.2251451
-4.92355	advert	-0.3075475
-4.622519	advertise	-0.07872589
-4.747458	advertisement	-0.4524879
-5.22458	advertiser	-0.0920897
-4.525609	advertising	-0.07283423
-4.02046	advice	-0.142791
-4.270337	advise	-0.1223948
-4.32149	adviser	-0.04711735
-5.22458	advisor	-0.08200549
-4.525609	advisory	-0.2575724
-5.22458	advocacy	-0.09230988
-4.747458	advocate	-0.08114008
-5.22458	aenarion	-0.09231506
-5.22458	aerobatic	-0.09236427
-5.22458	aeroplane	-0.0915997
-5.22458	aerosol	-0.08062427
-4.747458	aerospace	-0.06601493
-5.22458	aesculus	-0.09236944
-5.22458	aesthetic	-0.0923073
-5.22458	aesthetically-numb	-0.09224772
-5.22458	aestheticization	-0.07959879
-5.22458	aesthetics	-0.0914051
-5.22458	aetiology	-0.07959879
-5.22458	afar	-0.08062427
-5.22458	afe	-0.06614424
-4.622519	affair	-0.1480045
-4.183187	affairs	-0.08436112
-3.882157	affect	-0.4414178
-4.446428	affection	-0.1928992
-4.92355	affectionate	-0.0794761
-5.22458	affectionately	-0.08958986
-5.22458	affective	-0.09236427
-5.22458	affiliation	-0.08200549
-5.22458	affirm	-0.09054264
-4.92355	affluence	-0.05365453
-4.622519	afford	-0.1652453
-5.22458	afghan	-0.09087536
-5.22458	afhq	-0.08200549
-5.22458	afield	-0.08864021
-5.22458	afloat	-0.08958986
-5.22458	aforementioned	-0.09234873
-4.110636	afraid	-0.1574344
-4.270337	africa	-0.08778895
-4.446428	african	-0.06538165
-5.22458	africanist	-0.09233838
-5.22458	afro-caribbean	-0.09227881
-2.994131	after	-0.2171266
-5.22458	after-theatre	-0.09236427
-4.747458	aftermath	-0.4659425
-3.969307	afternoon	-0.02614993
-5.22458	afterthought	-0.08200549
-4.747458	afterwards	-0.06329072
-4.92355	ag	-0.04921574
-5.22458	ag.	-0.0923073
-3.290081	again	-0.2502431
-3.20339	against	-0.2731144
-5.22458	agape	-0.08200549
-3.591111	age	-0.2659985
-4.32149	aged	-0.09215707
-4.110636	agency	-0.1341812
-4.92355	agenda	-0.06585532
-4.02046	agent	-0.1375839
-5.22458	aggravation	-0.08062427
-5.22458	aggression	-0.09138434
-4.747458	aggressive	-0.06455144
-5.22458	aggressively	-0.09236427
-4.92355	aggro	-0.0923332
-5.22458	agility	-0.08062427
-5.22458	agitate	-0.06614424
-5.22458	agm	-0.08864021
-5.22458	agnelli	-0.08725114
-4.622519	agnes	-0.09218037
-5.22458	agnew	-0.06614424
-3.668277	ago	-0.2313652
-4.92355	agony	-0.06612773
-5.22458	agoraphobia	-0.08968888
-5.22458	agostini	-0.09231766
-5.22458	agr	-0.09233838
-3.747458	agree	-0.505824
-5.22458	agreeable	-0.09236944
-4.622519	agreed	-0.09170085
-3.809606	agreement	-0.3493855
-4.32149	agricultural	-0.09166974
-4.525609	agriculture	-0.08347485
-5.22458	aguinaldo	-0.07645404
-4.22458	ah	-0.7648143
-4.379482	aha	-0.7468715
-4.270337	ahead	-0.02842592
-5.22458	ahistorical	-0.09236944
-5.22458	ahmed	-0.09236944
-4.32149	ai	-0.1193416
-3.862852	aid	0.007263727
-5.22458	aide	-0.08062427
-5.22458	aides	-0.09234614
-4.747458	aids	-0.06996178
-5.22458	aigun	-0.09236944
-5.22458	aileen	-0.0920871
-5.22458	ailing	-0.09233578
-3.706066	aim	-0.3230441
-5.22458	ainsworth	-0.09207415
-3.71943	air	-0.1287041
-5.22458	air-conditioner	-0.09236686
-5.22458	air-holes	-0.08062427
-4.92355	air-rifle	-0.3112716
-5.22458	airbags	-0.08200549
-4.145399	aircraft	-0.07336278
-5.22458	airdrie	-0.09236944
-4.92355	airfield	-0.05690071
-5.22458	airforce	-0.09227622
-5.22458	airframe	-0.06614424
-5.22458	airlift	-0.08775391
-4.622519	airline	-0.06518044
-4.92355	airplane	-0.06613048
-4.270337	airport	-0.01742709
-5.22458	airstrip	-0.08938654
-5.22458	airtime	-0.06614424
-4.747458	airway	-0.07524629
-5.22458	airy	-0.09206638
-5.22458	aisle	-0.06622124
-5.22458	aitken	-0.0920871
-5.22458	ak-47	-0.08062427
-5.22458	akers	-0.09199122
-5.22458	akin	-0.08200549
-5.22458	akpata	-0.06614424
-5.22458	akrotiri	-0.08938654
-5.22458	aksarayi	-0.09217519
-5.22458	al	-0.09138174
-5.22458	al-haroun	-0.09152965
-5.22458	al-karim	-0.09236944
-5.22458	al-sarayirah	-0.06614424
-5.22458	alacrity	-0.07645404
-5.22458	alain	-0.09118186
-4.525609	alan	-0.0920871
-4.379482	alarm	-0.06389389
-5.22458	alasdair	-0.09236168
-5.22458	alato	-0.0922814
-5.22458	albania	-0.06614424
-5.22458	albanian	-0.09072722
-4.747458	albeit	-0.08986601
-4.446428	albert	-0.05863371
-5.22458	alberto	-0.09236944
-5.22458	albion	-0.09229953
-5.22458	albrecht	-0.09236944
-4.270337	album	-0.04855182
-5.22458	alca	-0.09236944
-5.22458	alcatel	-0.08062427
-5.22458	alcide	-0.09236944
-4.622519	alcohol	-0.08089554
-5.22458	alcoholic	-0.09236944
-5.22458	alcove	-0.08062427
-5.22458	alderley	-0.09236944
-5.22458	aldhelm	-0.0922814
-5.22458	aldington	-0.09233838
-5.22458	alert	-0.08200549
-5.22458	alex	-0.09236686
-4.622519	alexander	-0.0607471
-4.92355	alexandra	-0.06470327
-4.92355	alexandria	-0.07615846
-5.22458	alexei	-0.06614424
-5.22458	alfie	-0.08062427
-5.22458	alfio	-0.09236944
-5.22458	alfonso	-0.09236944
-5.22458	alford	-0.08725114
-5.22458	alfoxden	-0.06614424
-4.92355	alfred	-0.09234614
-5.22458	alfredo	-0.09236944
-5.22458	algae	-0.09087536
-5.22458	algebra	-0.08062427
-4.92355	algerian	-0.09227622
-5.22458	algorithm	-0.06622124
-4.525609	ali	-0.05362054
-5.22458	alibi	-0.08200549
-4.379482	alice	-0.07527592
-4.92355	alien	-0.08989206
-5.22458	alight	-0.09236427
-5.22458	align	-0.08200549
-4.92355	alike	-0.09182273
-5.22458	aliquot	-0.07959879
-4.92355	alison	-0.05697938
-4.92355	alistair	-0.09236686
-4.747458	alive	-0.06292509
-2.562767	all	-0.1624986
-5.22458	all-embracing	-0.09221406
-5.22458	all-german	-0.09234873
-5.22458	all-in	-0.0922555
-5.22458	all-providing	-0.09236944
-5.22458	all-rounder	-0.08968888
-5.22458	all-time	-0.09215706
-5.22458	all-weather	-0.09235391
-5.22458	allah	-0.08725114
-4.747458	allan	-0.08055242
-4.92355	allegation	-0.0877513
-5.22458	allege	-0.08200549
-4.92355	alleged	-0.0923565
-4.622519	allegiance	-0.5920846
-5.22458	allele	-0.07959879
-4.92355	allen	-0.08232627
-5.22458	allergy	-0.08367568
-5.22458	alleyway	-0.07959879
-4.622519	alliance	-0.1747469
-4.525609	allied	-0.09219591
-5.22458	allied-signal	-0.08200549
-5.22458	allies	-0.09201973
-5.22458	alliprandi	-0.09235132
-4.622519	allocate	-0.1508779
-5.22458	allocated	-0.09206638
-4.747458	allocation	-0.05107644
-5.22458	allod	-0.09172679
-5.22458	allot	-0.09236944
-4.92355	allotment	-0.05256326
-3.43925	allow	-0.3036188
-4.747458	allowance	-0.0510565
-5.22458	alloy	-0.06614424
-4.92355	allude	-0.08199754
-5.22458	alluring	-0.08062427
-5.22458	allusion	-0.08200549
-4.747458	ally	-0.0819047
-5.22458	alma-tadema	-0.09152965
-5.22458	almitrine	-0.07645404
-3.581127	almost	-0.1155895
-5.22458	almost-accidental	-0.09234873
-3.90236	alone	-0.1658759
-3.71943	along	-0.4183157
-4.446428	alongside	-0.1891909
-5.22458	alor	-0.09236944
-4.622519	aloud	-0.08816983
-4.92355	alpha-1	-0.3112742
-5.22458	alphabet	-0.08972275
-5.22458	alphabetically	-0.09193161
-5.22458	alpine	-0.09234096
-5.22458	alps	-0.08062427
-3.591111	already	-0.1193071
-4.92355	alresford	-0.09210006
-3.92355	alright	-0.578048
-5.22458	alsager	-0.07645404
-2.939022	also	-0.07524303
-4.747458	altar	-0.1891683
-4.379482	alter	-0.04570094
-4.747458	alteration	-0.2141068
-3.969307	alternative	-0.1679755
-4.446428	alternatively	-0.05303413
-3.305502	although	-0.2838871
-4.92355	altitude	-0.07526784
-4.747458	altogether	-0.08208504
-5.22458	alton	-0.09101565
-4.622519	aluminium	-0.0642449
-5.22458	alumino-	-0.09236944
-5.22458	alvarez	-0.09208451
-3.251452	always	-0.07266143
-5.22458	alyn	-0.09236944
-5.22458	alyson	-0.09224255
-4.92355	alyssia	-0.09101045
-5.22458	alzheimer	-0.09232283
-4.92355	am	-0.06534857
-5.22458	amalgamemnon	-0.09233578
-4.92355	amanda	-0.09045942
-5.22458	amasha	-0.09046722
-4.92355	amateur	-0.09171123
-4.747458	amazed	-0.2185206
-4.92355	amazement	-0.08058702
-4.747458	amazing	-0.08949342
-5.22458	amazingly	-0.06622124
-5.22458	amazonian	-0.09226327
-4.525609	ambassador	-0.24917
-5.22458	ambience	-0.09048282
-4.446428	ambiguity	-0.1040345
-4.92355	ambiguous	-0.06604795
-5.22458	ambion	-0.09236944
-4.446428	ambition	-0.01980843
-5.22458	ambitious	-0.09231766
-4.92355	ambivalent	-0.06614149
-4.92355	ambleside	-0.06217903
-4.747458	ambulance	-0.07891557
-4.747458	amelia	-0.09161266
-5.22458	ameliorate	-0.06622124
-4.92355	amenable	-0.3009128
-4.622519	amend	-0.05540613
-4.622519	amendment	-0.04404283
-5.22458	amenities	-0.08725114
-5.22458	amenity	-0.07645404
-4.078452	america	-0.2972152
-3.82664	american	-0.07601061
-5.22458	ami	-0.09086236
-5.22458	amiable	-0.091999
-5.22458	amiably	-0.09236168
-5.22458	amicably	-0.09229694
-4.622519	amid	-0.09170344
-5.22458	amidships	-0.09229694
-5.22458	amidst	-0.09118186
-5.22458	amiga	-0.09231766
-5.22458	amir	-0.08367568
-5.22458	amis	-0.09214929
-5.22458	ammeter	-0.09225809
-5.22458	ammonium	-0.09236944
-5.22458	ammunition	-0.08715943
-4.92355	amnesty	-0.08860104
-5.22458	amniotic	-0.0923565
-3.680512	among	-0.2773699
-4.270337	amongst	-0.1580498
-4.92355	amorphous	-0.09236168
-5.22458	amory	-0.08062427
-3.611796	amount	-0.5269135
-5.22458	amour	-0.06614424
-5.22458	amp&egrave;re	-0.09226068
-5.22458	ampeg	-0.09236944
-4.92355	ample	-0.09233578
-5.22458	amplitude	-0.07645404
-5.22458	amply	-0.09232801
-5.22458	amputate	-0.06614424
-4.92355	amstrad	-0.09006651
-5.22458	amur	-0.08062427
-4.92355	amuse	-0.09154003
-4.92355	amused	-0.078357
-5.22458	amusement	-0.06614424
-4.92355	amusing	-0.06614149
-5.22458	amusingly	-0.09236168
-5.22458	amv	-0.09234355
-2.459657	an	-0.1712072
-4.747458	an'	-0.08731139
-4.747458	ana	-0.08199753
-4.92355	anaemia	-0.06614149
-4.92355	anal	-0.09222183
-5.22458	analogous	-0.08864021
-5.22458	analogue	-0.09217261
-4.92355	analogy	-0.07923597
-4.446428	analyse	-0.139257
-3.969307	analysis	-0.1968596
-4.747458	analyst	-0.0652466
-5.22458	analytic	-0.09233578
-4.92355	analytical	-0.08722494
-5.22458	analyze	-0.06614424
-5.22458	anand	-0.08062427
-5.22458	anaphoric	-0.0923565
-4.92355	anarch	-0.09232025
-5.22458	anatomical	-0.09236944
-5.22458	anatomy	-0.0920871
-5.22458	anc	-0.0900561
-5.22458	ancestor	-0.09016542
-5.22458	ancestress	-0.07645404
-4.92355	anchor	-0.09067263
-5.22458	anchorman	-0.08938654
-5.22458	anchorthies	-0.07645404
-4.22458	ancient	-0.08043
-5.22458	ancillaries	-0.06614424
-5.22458	ancillary	-0.09224514
-5.22458	ancrene	-0.09236944
-1.57369	and	0.07691005
-4.92355	andersen	-0.08443586
-4.747458	anderson	-0.09098187
-5.22458	andr&eacute;	-0.09236944
-5.22458	andrei	-0.09236944
-5.22458	andrejcak	-0.07959879
-4.22458	andrew	-0.1272778
-4.747458	andrews	-0.4786095
-4.622519	andy	-0.07343242
-5.22458	anecdotal	-0.08968888
-4.92355	anfield	-0.09015501
-4.92355	angel	-0.07089055
-5.22458	angela	-0.07645404
-5.22458	angeles	-0.09199382
-4.525609	anger	-0.06581403
-5.22458	angie	-0.09236944
-4.446428	angle	-0.2318885
-5.22458	anglo-irish	-0.0923332
-5.22458	anglo-saxon	-0.09236944
-4.446428	angry	-0.04805878
-5.22458	anguilla	-0.09236686
-5.22458	anguish	-0.07645404
-4.92355	angus	-0.09236427
-5.22458	anhydrite	-0.09236168
-3.882157	animal	-0.1348347
-5.22458	animate	-0.09236427
-4.747458	animation	-0.2073213
-5.22458	animosity	-0.09201973
-5.22458	anita	-0.09235909
-5.22458	ankara	-0.08062427
-4.622519	ankle	-0.3069282
-4.622519	ann	-0.06502879
-4.747458	anna	-0.07605899
-5.22458	annamese	-0.06614424
-4.446428	anne	-0.3342958
-5.22458	annex	-0.06622124
-4.446428	anniversary	-0.1106974
-5.22458	annotate	-0.09134022
-3.882157	announce	-0.1987101
-4.747458	announcement	-0.06433329
-5.22458	annoy	-0.09175013
-4.525609	annoyed	-0.05660276
-5.22458	annoying	-0.09221664
-4.02046	annual	-0.1560102
-5.22458	annually	-0.09215188
-5.22458	anoch	-0.06614424
-4.92355	anorexic	-0.06601769
-3.305502	another	-0.01088811
-5.22458	anslysed	-0.0916853
-3.733218	answer	-0.1727908
-5.22458	answerable	-0.08200549
-5.22458	ant	-0.08725114
-5.22458	antares	-0.09236686
-5.22458	antenna	-0.09226068
-5.22458	antenne	-0.0922296
-5.22458	antenor	-0.09152965
-5.22458	anteroom	-0.08062427
-5.22458	anthelmintic	-0.09231248
-5.22458	anther	-0.07645404
-5.22458	anthias	-0.06614424
-5.22458	anthology	-0.09235909
-4.379482	anthony	-0.06608921
-5.22458	anthropology	-0.07959879
-4.747458	anti	-0.09223477
-5.22458	anti&rehy;superstitious	-0.08062427
-5.22458	anti-&bgr;	-0.09236944
-5.22458	anti-aa	-0.08062427
-5.22458	anti-basque	-0.09236944
-5.22458	anti-democratic	-0.08062427
-5.22458	anti-estab	-0.09236944
-5.22458	anti-immigrant	-0.09225291
-5.22458	anti-infective	-0.0923306
-5.22458	anti-inflammatory	-0.0923306
-5.22458	anti-roman	-0.09234096
-5.22458	anti-semitism	-0.09235391
-4.92355	anti-social	-0.09224772
-5.22458	anti-soviet	-0.08062427
-5.22458	anti-terrorist	-0.09236168
-5.22458	anti-u	-0.09229176
-5.22458	anti-viral	-0.0923306
-5.22458	antibiotic	-0.06614424
-4.92355	antibody	-0.06614149
-5.22458	antic	-0.0904152
-5.22458	anticipate	-0.09086236
-5.22458	anticipation	-0.07959879
-4.92355	antidote	-0.3009128
-4.525609	antigen	-0.262494
-5.22458	antigen-rich	-0.09236944
-5.22458	antigua	-0.08062427
-5.22458	antipathy	-0.08200549
-5.22458	antipodes	-0.09225291
-4.747458	antique	-0.06621299
-5.22458	antisocial	-0.08864021
-5.22458	antiterrorista	-0.09233838
-4.92355	antitrypsin	-0.08061895
-5.22458	antoinette	-0.0923565
-5.22458	antonio	-0.09236944
-5.22458	antrim	-0.09236944
-4.747458	anxiety	-0.06597091
-4.446428	anxious	-0.2947099
-4.747458	anxiously	-0.08935525
-2.936778	any	-0.1696775
-4.22458	anybody	-0.09294999
-5.22458	anyhow	-0.09236944
-5.22458	anymore	-0.09134022
-3.92355	anyone	-0.1385881
-5.22458	anyone&mdash;including	-0.09067784
-3.543339	anything	-0.129894
-3.777422	anyway	-0.3379951
-4.446428	anywhere	-0.06364776
-4.92355	aorta	-0.08902659
-5.22458	ap	-0.09236944
-4.048489	apart	-0.1281188
-4.92355	apartment	-0.064499
-5.22458	apc	-0.09232801
-5.22458	apennines	-0.09236944
-4.92355	apex	-0.07905445
-5.22458	aphorism	-0.09236944
-5.22458	aplysia	-0.09153225
-5.22458	apollo	-0.09234355
-5.22458	apologetic	-0.09236686
-4.92355	apologise	-0.07678967
-4.747458	apologize	-0.0565887
-5.22458	apology	-0.09072722
-5.22458	apothecary	-0.09232025
-5.22458	appalled	-0.08062427
-4.92355	appalling	-0.09225032
-5.22458	apparatus	-0.09236168
-5.22458	apparel	-0.09054264
-4.183187	apparent	-0.1093746
-4.02046	apparently	-0.1213028
-3.82664	appeal	-0.1606758
-5.22458	appealing	-0.09233578
-3.552482	appear	-0.4267412
-4.110636	appearance	-0.278188
-4.747458	appellant	-0.05363753
-5.22458	appellate	-0.0920871
-4.92355	appendix	-0.09198345
-4.92355	appetite	-0.06613874
-5.22458	appio	-0.0900561
-4.747458	applause	-0.09092991
-4.747458	apple	-0.07856286
-5.22458	appleby	-0.08062427
-5.22458	appleton	-0.09232801
-4.747458	applicable	-0.4683492
-4.747458	applicant	-0.08063491
-3.882157	application	-0.2458338
-4.92355	applied	-0.0923073
-3.733218	apply	-0.2956794
-3.882157	appoint	-0.2216261
-4.02046	appointment	-0.1111879
-5.22458	apposed	-0.09222183
-4.525609	appraisal	-0.07431331
-5.22458	appraise	-0.06614424
-5.22458	appreciable	-0.09226586
-4.525609	appreciate	-0.1069908
-4.747458	appreciation	-0.2088467
-5.22458	apprehension	-0.09016542
-5.22458	apprehensive	-0.09214669
-4.622519	apprentice	-0.07399196
-5.22458	apprenticeship	-0.08367568
-3.706066	approach	-0.2136674
-5.22458	approbation	-0.08200549
-3.82664	appropriate	-0.1111442
-4.92355	appropriately	-0.07574163
-4.92355	appropriation	-0.05256326
-4.622519	approval	-0.03553196
-4.183187	approve	-0.07751763
-4.747458	approved	-0.08285329
-4.747458	approx	-0.09234095
-5.22458	approximate	-0.08200549
-4.747458	approximately	-0.09213892
-3.945826	april	-0.0978917
-5.22458	apron	-0.07959879
-5.22458	aprroached	-0.09167752
-5.22458	aptly	-0.09162045
-5.22458	aqib	-0.09184347
-5.22458	aqmd	-0.09215188
-5.22458	aqua	-0.09236944
-4.92355	aquarium	-0.07957213
-5.22458	aquascape	-0.08062427
-4.92355	aquatic	-0.09208193
-5.22458	aquilinum	-0.09236944
-4.622519	arab	-0.1616544
-5.22458	arabia	-0.08062427
-5.22458	arabic	-0.08062427
-5.22458	arable	-0.09233838
-5.22458	aragon	-0.08200549
-5.22458	araminta	-0.06614424
-5.22458	arbib	-0.0914051
-4.92355	arbiter	-0.06749544
-4.92355	arbitrage	-0.09124677
-5.22458	arbitrarily	-0.0923565
-5.22458	arbitrary	-0.09138174
-4.622519	arbitration	-0.3193877
-5.22458	arbitrator	-0.08062427
-5.22458	arc	-0.09201973
-5.22458	arcade	-0.09138434
-5.22458	arcam	-0.09221406
-4.525609	arch	-0.0600475
-4.747458	archaeological	-0.09212855
-5.22458	archaeologist	-0.09152965
-4.622519	archbishop	-0.1482657
-5.22458	archdeacon	-0.09236944
-5.22458	archduke	-0.09229953
-4.92355	arched	-0.08061629
-5.22458	archetypal	-0.09225809
-5.22458	architect	-0.09236686
-4.92355	architectural	-0.06598467
-4.747458	architecture	-0.06739397
-5.22458	archival	-0.0923332
-4.92355	archive	-0.05365453
-5.22458	archives	-0.09236944
-4.92355	archivist	-0.06370031
-4.379482	arctic	-0.0922244
-5.22458	arditti	-0.09236944
-5.22458	ardkinglas	-0.08968888
-5.22458	ards	-0.08062427
-3.20339	area	-0.3012674
-4.747458	arena	-0.04413832
-5.22458	argos	-0.08200549
-3.844368	argue	-0.2428797
-4.02046	argument	-0.1385642
-4.92355	argyll	-0.0923073
-5.22458	argyrophil	-0.09227881
-4.92355	ari	-0.08045663
-5.22458	ariccia	-0.08062427
-5.22458	aries	-0.08062427
-5.22458	aris	-0.08062427
-3.92355	arise	-0.0370684
-4.92355	arisings	-0.07790479
-4.92355	aristocracy	-0.08639876
-4.92355	aristocratic	-0.09226327
-5.22458	ariston	-0.06622124
-4.92355	arithmetic	-0.0762794
-5.22458	arius	-0.09236944
-3.809606	arm	-0.292641
-5.22458	armadillo	-0.07645404
-4.92355	armani	-0.09235909
-5.22458	armchair	-0.06614424
-4.270337	armed	-0.47404
-4.92355	armour	-0.05365453
-5.22458	armoured	-0.09236944
-3.969307	arms	-0.1013594
-4.078452	army	-0.07793838
-5.22458	arnaud	-0.09236944
-5.22458	arnki	-0.06614424
-5.22458	arno	-0.09224255
-5.22458	arnold	-0.09236944
-4.92355	aroma	-0.06996997
-5.22458	aromatherapy	-0.09231248
-5.22458	aromatics	-0.09192902
-3.32149	around	-0.2136524
-4.747458	arousal	-0.07908113
-5.22458	arouse	-0.09236944
-5.22458	arp	-0.09236944
-4.02046	arrange	-0.10116
-4.92355	arranged	-0.09232801
-3.994131	arrangement	-0.1379199
-4.747458	array	-0.07854682
-5.22458	arrears	-0.09226586
-4.048489	arrest	-0.06440102
-4.379482	arrival	-0.1052773
-3.882157	arrive	-0.3899453
-5.22458	arrogance	-0.06614424
-4.747458	arrow	-0.04795265
-5.22458	arsa	-0.08367568
-5.22458	arse	-0.08968888
-4.747458	arsenal	-0.05364602
-5.22458	arson	-0.08062427
-5.22458	arsonist	-0.09229694
-3.945826	art	-0.02821288
-5.22458	artefact	-0.09134022
-4.92355	arterial	-0.09229953
-5.22458	artery	-0.09232283
-5.22458	artha	-0.09235391
-4.92355	arthritis	-0.0753621
-4.622519	arthur	-0.06425042
-3.90236	article	-0.05134429
-4.92355	articulate	-0.0662185
-5.22458	artificer	-0.0923565
-4.92355	artificial	-0.09232801
-5.22458	artillery	-0.06614424
-5.22458	artisan	-0.08062427
-4.145399	artist	-0.02190783
-4.525609	artistic	-0.0805338
-5.22458	artistically	-0.09226068
-5.22458	artlessness	-0.07959879
-5.22458	artnewsletter	-0.09221406
-4.32149	arts	-0.06558826
-4.92355	artwork	-0.09205601
-5.22458	arwyn	-0.09235391
-5.22458	aryan	-0.09087536
-2.210479	as	-0.2672712
-5.22458	asa	-0.09067523
-5.22458	asbestos	-0.0923306
-4.622519	ascertain	-0.08657461
-5.22458	ascii	-0.09234614
-5.22458	ascites	-0.09229953
-5.22458	ascitic	-0.0923565
-5.22458	ascot	-0.09236944
-4.92355	ascribe	-0.08194715
-4.92355	asda	-0.09229435
-5.22458	asean	-0.09229953
-5.22458	asexual	-0.09236944
-5.22458	asexuality	-0.07645404
-4.622519	ash	-0.06416477
-5.22458	ashamed	-0.07959879
-5.22458	ashdown	-0.09236168
-5.22458	ashenden	-0.09236168
-4.92355	ashley	-0.09204824
-4.92355	ashtray	-0.0782607
-5.22458	ashwell	-0.07645404
-4.379482	asia	-0.2673459
-4.446428	asian	-0.08018242
-5.22458	asics	-0.08725114
-4.446428	aside	-0.105597
-3.290081	ask	-0.3360592
-4.747458	asleep	-0.04413832
-4.183187	aspect	-1.115622
-5.22458	aspiration	-0.07959879
-4.92355	aspirin	-0.08062161
-5.22458	ass	-0.09224514
-4.92355	assail	-0.3090727
-4.92355	assassination	-0.06379988
-4.92355	assault	-0.3090727
-5.22458	assay	-0.08968888
-5.22458	assemblage	-0.09210006
-5.22458	assemble	-0.08290094
-4.02046	assembly	-0.03916365
-4.92355	assent	-0.04921574
-5.22458	assert	-0.06614424
-5.22458	assertion	-0.09016542
-4.92355	assertive	-0.2850516
-4.078452	assess	-0.1200702
-3.994131	assessment	-0.3087855
-5.22458	assessor	-0.07959879
-5.22458	asset	-0.06614424
-4.446428	assets	-0.07833711
-5.22458	asshole	-0.06614424
-5.22458	assign	-0.09236686
-4.622519	assignment	-0.1595796
-5.22458	assignor	-0.07959879
-4.92355	assimilate	-0.07309689
-5.22458	assimilatory	-0.09235909
-4.525609	assist	-0.1287903
-4.747458	assistance	-0.0629057
-4.379482	assistant	-0.07570396
-4.078452	associate	-0.9027091
-4.747458	associated	-0.09227362
-4.110636	association	-0.1952056
-5.22458	associational	-0.09236944
-5.22458	associative	-0.09236686
-5.22458	assorted	-0.09234873
-5.22458	assuage	-0.08062427
-3.994131	assume	-0.3833395
-4.145399	assumption	-0.08525731
-4.446428	assurance	-0.07005994
-4.92355	assure	-0.09157895
-5.22458	aster	-0.07645404
-5.22458	asterisk	-0.0923565
-5.22458	asteroid	-0.07645404
-4.622519	asthma	-0.05971821
-5.22458	astley	-0.09236686
-5.22458	aston	-0.09236427
-4.747458	astonished	-0.06611397
-4.622519	astonishing	-0.08973838
-4.92355	astonishment	-0.08913356
-5.22458	astounded	-0.08200549
-5.22458	astrological	-0.09231506
-5.22458	astronomer	-0.09214929
-5.22458	asturias	-0.06622124
-5.22458	asuryan	-0.09016542
-4.92355	asylum	-0.07640569
-5.22458	asymmetrical	-0.09236944
-2.277146	at	-0.2420487
-5.22458	at3	-0.09134801
-5.22458	ateriography	-0.09232543
-4.747458	athelstan	-0.09218037
-5.22458	athenian	-0.07645404
-4.747458	atkins	-0.0920275
-5.22458	atkinson	-0.09152965
-5.22458	atlanta	-0.09235132
-4.622519	atlantic	-0.06495708
-4.525609	atmosphere	-0.1393662
-4.92355	atmospheric	-0.09219333
-4.747458	atom	-0.08294593
-5.22458	atomic	-0.09232283
-5.22458	atomistic	-0.09234873
-5.22458	atonement	-0.08367568
-5.22458	atrium	-0.07959879
-5.22458	atrocity	-0.06614424
-4.32149	attach	-0.2936019
-4.92355	attachment	-0.04921574
-3.762182	attack	-0.185499
-4.747458	attacker	-0.0890605
-4.92355	attainers	-0.05365453
-5.22458	attainment	-0.07959879
-3.60133	attempt	-0.6100791
-4.92355	attempted	-0.09232801
-3.809606	attend	-0.1002178
-5.22458	attendance	-0.09183569
-4.92355	attendant	-0.06569841
-5.22458	attender	-0.09235132
-3.862852	attention	-0.1922804
-5.22458	attenuation	-0.09072722
-3.969307	attitude	-0.1185592
-5.22458	attitudinal	-0.0922011
-5.22458	attlee	-0.09236944
-4.92355	attorney	-0.3110877
-4.183187	attract	-0.152799
-5.22458	attraction	-0.09007172
-4.446428	attractive	-0.09206898
-5.22458	attributable	-0.08200549
-4.379482	attribute	-0.07148598
-5.22458	atubu	-0.09235132
-4.622519	atwell	-0.1880575
-4.92355	auburn	-0.09231766
-4.92355	auckland	-0.08017176
-4.525609	auction	-0.14045
-5.22458	auctioneer	-0.08062427
-4.747458	audible	-0.04564039
-4.446428	audience	-0.1318761
-5.22458	audio.visual	-0.08062427
-4.622519	audit	-0.1751527
-5.22458	audited	-0.09223737
-5.22458	auditing	-0.09166973
-4.747458	auditor	-0.08670055
-5.22458	aug	-0.09236944
-5.22458	aug&ndash;18	-0.09236944
-4.446428	aug.	-0.09212857
-5.22458	augment	-0.09016542
-5.22458	augmentation	-0.09217519
-4.32149	august	-0.04149133
-5.22458	auguste	-0.09236944
-5.22458	augustine	-0.08958986
-4.92355	augustus	-0.08187288
-5.22458	auk	-0.09236944
-5.22458	aung	-0.09235909
-4.446428	aunt	-0.08617818
-5.22458	aurigny	-0.08062427
-5.22458	auschwitz	-0.08870289
-4.92355	auspex	-0.05256326
-5.22458	aust	-0.08775391
-5.22458	austere	-0.09236427
-5.22458	austin	-0.09236944
-4.525609	australia	-0.04826805
-5.22458	austria	-0.08775391
-5.22458	austrian	-0.09227104
-4.747458	authentic	-0.09023308
-5.22458	authentically	-0.08062427
-4.32149	author	-0.1648889
-5.22458	authorisation	-0.08200549
-4.747458	authorise	-0.05279875
-5.22458	authoritarian	-0.0922296
-4.747458	authoritative	-0.09215964
-3.71943	authorities	-0.1980751
-3.969307	authority	-0.05847303
-5.22458	authorization	-0.09193161
-5.22458	authorize	-0.09134022
-5.22458	autograph	-0.07959879
-5.22458	automated	-0.09224772
-4.446428	automatic	-0.06432226
-4.622519	automatically	-0.07842384
-5.22458	automobile	-0.09236168
-4.92355	autonomous	-0.06613048
-4.747458	autonomy	-0.04608136
-5.22458	autopilot	-0.06614424
-4.32149	autumn	-0.09722991
-5.22458	auxiliary	-0.0923332
-5.22458	av	-0.09224255
-5.22458	ava	-0.09236686
-3.581127	available	-0.3708134
-5.22458	avec	-0.09236944
-5.22458	avellana	-0.09236944
-5.22458	avenue	-0.09224772
-4.048489	average	-0.05659433
-5.22458	averaging	-0.07959879
-5.22458	averil	-0.09236686
-5.22458	avert	-0.09016542
-5.22458	avery	-0.0923306
-5.22458	avia	-0.09228916
-4.92355	aviation	-0.092227
-5.22458	avidly	-0.06614424
-5.22458	aviions	-0.09155041
-5.22458	avium	-0.09236944
-5.22458	aviv	-0.06614424
-3.92355	avoid	-0.1167117
-5.22458	avoidable	-0.09234614
-5.22458	avon	-0.06614424
-4.446428	await	-0.07651851
-4.622519	awake	-0.08041137
-5.22458	awaken	-0.09201714
-3.71943	award	-0.3084345
-5.22458	award-winning	-0.09236686
-3.969307	aware	-0.6644495
-4.32149	awareness	-0.3109823
-3.32149	away	-0.1995184
-4.92355	awesome	-0.09233838
-4.379482	awful	-0.1426183
-4.747458	awkward	-0.09168788
-5.22458	awning	-0.08062427
-5.22458	axa	-0.09235132
-4.92355	axe	-0.05607666
-5.22458	axford	-0.09236944
-5.22458	axholme	-0.09162045
-5.22458	axiom	-0.08958986
-5.22458	axis	-0.0923565
-4.92355	axon	-0.071687
-5.22458	ayaydin	-0.09236944
-5.22458	aycliffe	-0.09228658
-5.22458	aydid	-0.09162305
-4.145399	aye	-0.2633815
-5.22458	ayia	-0.09236686
-5.22458	aylwin	-0.0923565
-4.92355	azanian	-0.3107352
-5.22458	azapo	-0.09236944
-5.22458	azcu&eacute;	-0.09236944
-5.22458	azerbaijani	-0.09198086
-5.22458	azucena	-0.09236686
-3.693101	b	-0.1280341
-5.22458	b&eacute;roff	-0.08062427
-5.22458	b&flat;	-0.09232283
-5.22458	b's	-0.09067523
-5.22458	b-but	-0.06614424
-5.22458	b-films	-0.09174754
-5.22458	b.	-0.09236944
-5.22458	b1257	-0.09007172
-5.22458	ba	-0.09171642
-5.22458	babble	-0.06614424
-5.22458	babu-sahib	-0.08864021
-4.32149	baby	-0.04288651
-5.22458	babylonian	-0.09236686
-5.22458	babysitter	-0.08062427
-3.015065	back	-0.2896648
-5.22458	back-breaking	-0.08062427
-5.22458	back-if	-0.08870289
-5.22458	back-street	-0.09235132
-5.22458	back-tracked	-0.08062427
-4.92355	back-up	-0.07642986
-4.92355	backbench	-0.08772251
-5.22458	backbencher	-0.09236168
-4.379482	background	-0.01710078
-4.747458	backing	-0.07648894
-5.22458	backlash	-0.09067523
-5.22458	backside	-0.08062427
-5.22458	backup	-0.06614424
-4.92355	backward	-0.09232283
-5.22458	backwards	-0.09201973
-4.92355	bacon	-0.09181236
-5.22458	baconian	-0.0920871
-4.92355	bacteria	-0.07949211
-5.22458	bacterial	-0.0923073
-3.693101	bad	-0.08594367
-5.22458	baden	-0.08725114
-4.747458	badge	-0.09078959
-4.747458	badly	-0.06431948
-5.22458	badly-managed	-0.09235391
-5.22458	baffled	-0.09195494
-4.270337	bag	-0.07164809
-5.22458	baggins	-0.09211561
-5.22458	baghdad	-0.09235909
-5.22458	bagnall	-0.09236944
-5.22458	bahamas	-0.06614424
-4.525609	bail	-0.05175936
-5.22458	bailey	-0.0923306
-4.92355	baillie	-0.2985061
-5.22458	bain	-0.06614424
-5.22458	bains	-0.09086236
-4.92355	bait	-0.08618081
-5.22458	bakayoko	-0.06622124
-4.747458	bake	-0.07397845
-4.92355	baker	-0.09121042
-5.22458	baking	-0.08968888
-5.22458	baku	-0.08938654
-5.22458	bala	-0.09217519
-5.22458	balaguer	-0.09236944
-3.92355	balance	-0.1008679
-4.747458	balanced	-0.09217001
-4.92355	balancing	-0.09227881
-5.22458	balcony	-0.08062427
-5.22458	bald	-0.06622124
-5.22458	baldersdale	-0.08968888
-5.22458	bali	-0.08062427
-3.882157	ball	-0.2226716
-5.22458	ballerina	-0.09233578
-4.622519	ballet	-0.08749474
-4.92355	balliol	-0.09076881
-5.22458	ballistics	-0.08062427
-4.92355	balloon	-0.06620199
-5.22458	ballot	-0.0920871
-4.747458	ballroom	-0.04230861
-5.22458	ballymena	-0.09236168
-5.22458	balmy	-0.09230988
-5.22458	balsa-bomb	-0.06614424
-5.22458	balustrade	-0.08775391
-5.22458	bamberg	-0.09087536
-4.270337	ban	-0.07805982
-5.22458	banality	-0.09208451
-4.747458	banana	-0.06613322
-5.22458	banbury	-0.09234096
-4.078452	band	-0.04387784
-5.22458	banda	-0.09234873
-4.92355	bandage	-0.06548083
-5.22458	bandleader	-0.09072722
-5.22458	bang	-0.06614424
-4.92355	bangladesh	-0.06313011
-5.22458	bangladeshi	-0.09184347
-4.92355	banish	-0.03831223
-3.994131	bank	-0.004394345
-5.22458	banker	-0.0923332
-4.525609	banking	-0.1551752
-5.22458	bankruptcy	-0.09232025
-4.048489	banks	-0.1256223
-5.22458	bann	-0.06622124
-5.22458	banner	-0.09229435
-5.22458	banquet	-0.08062427
-5.22458	banquo	-0.07959879
-4.92355	banter	-0.06749544
-5.22458	baptise	-0.09007172
-5.22458	baquero	-0.09207674
-3.969307	bar	-0.09947497
-5.22458	bar-tabac	-0.09007172
-5.22458	baratieri	-0.09223218
-5.22458	barbara	-0.08968888
-4.92355	barbarossa	-0.0763627
-5.22458	barbecue	-0.09210006
-4.92355	barber	-0.09234355
-5.22458	barbra	-0.06614424
-5.22458	barcelona	-0.06614424
-4.92355	barclay	-0.09227881
-4.22458	bare	-0.08898336
-5.22458	barefoot	-0.09192902
-4.747458	barely	-0.09226067
-4.622519	bargain	-0.05463573
-5.22458	bargain-basement	-0.0923306
-4.379482	bargaining	-0.0653155
-5.22458	bargany	-0.0923306
-5.22458	barge	-0.08062427
-4.747458	bark	-0.07365146
-5.22458	barkley	-0.09152187
-5.22458	barlaston	-0.09193161
-5.22458	barlow/worcester	-0.0922814
-5.22458	barn	-0.09172679
-5.22458	barnes	-0.06614424
-4.92355	barnett	-0.3110566
-4.92355	barney	-0.09217519
-5.22458	barnsley	-0.07645404
-5.22458	barometer	-0.09236944
-4.622519	baron	-0.1880886
-4.92355	barrage	-0.0795828
-5.22458	barrel	-0.07959879
-4.92355	barrels	-0.06609197
-5.22458	barren	-0.09233838
-5.22458	barrie	-0.09236944
-4.525609	barrier	-0.03317915
-4.92355	barrister	-0.06605896
-4.747458	barrow	-0.07966278
-4.747458	barry	-0.09234355
-4.622519	bars	-0.04412964
-5.22458	bartholomew	-0.07645404
-4.92355	bartlett	-0.09150112
-4.92355	barton	-0.09169048
-5.22458	bartram	-0.06614424
-4.92355	basal	-0.09230211
-5.22458	basalt	-0.09236944
-3.633515	base	-0.370973
-4.92355	baseball	-0.3112716
-4.92355	baseline	-0.09205083
-5.22458	basement	-0.06614424
-3.969307	basic	-0.08449803
-5.22458	basically	-0.09234873
-5.22458	basics	-0.09054264
-4.92355	basil	-0.07416482
-5.22458	basin	-0.08938654
-5.22458	basinwards	-0.08200549
-3.777422	basis	-0.4458601
-4.747458	basket	-0.2118229
-5.22458	basque	-0.09212597
-5.22458	bass	-0.09236427
-5.22458	bassman	-0.09232283
-4.92355	bastard	-0.06070254
-5.22458	basuki	-0.09235132
-4.747458	bat	-0.198914
-5.22458	bat-uul	-0.09236944
-5.22458	batch	-0.09235909
-5.22458	bates	-0.08938654
-4.270337	bath	-0.0718952
-4.747458	bathe	-0.0729209
-5.22458	bathing	-0.09232801
-5.22458	bathonga	-0.09152965
-4.747458	bathroom	-0.03622207
-5.22458	batm&ouml;nh	-0.08062427
-5.22458	batsman	-0.09236944
-5.22458	battalion	-0.06614424
-5.22458	batter	-0.09236944
-5.22458	battered	-0.09220887
-4.92355	battery	-0.09218815
-5.22458	batteurs	-0.06614424
-3.92355	battle	-0.0980999
-5.22458	battling	-0.09236944
-5.22458	bauv	-0.09226068
-5.22458	bavadra	-0.06622124
-5.22458	baxter	-0.09187199
-4.92355	bay	-0.04921574
-5.22458	bayern	-0.09236944
-5.22458	bayfield	-0.07645404
-4.110636	bbc	-0.1120508
-5.22458	bcap	-0.07645404
-1.44383	be	-0.1480683
-3.994131	beach	-0.1398509
-4.92355	beacon	-0.0763412
-4.92355	beads	-0.08773298
-5.22458	beagle	-0.07645404
-4.379482	beam	-0.1271878
-4.92355	beamish	-0.04921574
-4.622519	bean	-0.1619379
-3.733218	bear	-0.1726041
-5.22458	bearded	-0.09234355
-5.22458	beardsley	-0.09217779
-4.747458	bearing	-0.08182777
-5.22458	bearish	-0.09223478
-5.22458	beast	-0.06614424
-4.22458	beat	-0.07774948
-5.22458	beaten	-0.09236427
-5.22458	beating	-0.09232801
-4.92355	beatrice	-0.09217779
-5.22458	beatrix	-0.09209229
-5.22458	beattie	-0.08062427
-5.22458	beaujolais	-0.09236944
-4.183187	beautiful	-0.06023713
-4.747458	beautifully	-0.08988164
-4.622519	beauty	-0.1589043
-5.22458	beaver	-0.09236427
-3.015065	because	-0.4358074
-5.22458	beckenham	-0.09007172
-5.22458	becker	-0.08062427
-5.22458	becket	-0.09007172
-5.22458	beckside	-0.09232543
-5.22458	becky	-0.09101565
-3.183187	become	-0.1859062
-3.809606	bed	-0.08695523
-5.22458	beddoes	-0.08870289
-5.22458	bedford	-0.0923306
-4.92355	bedfordshire	-0.08061895
-4.22458	bedroom	-0.2274197
-5.22458	bedroomed	-0.09207415
-4.92355	bedside	-0.05690071
-4.747458	bee	-0.08268651
-5.22458	bee-line	-0.08864021
-5.22458	beech	-0.09226586
-4.747458	beef	-0.09220109
-4.747458	beer	-0.09058423
-5.22458	beeswaxed	-0.09236944
-5.22458	beetle	-0.09067523
-3.120776	before	-0.2264743
-4.92355	beforehand	-0.05365453
-4.747458	beg	-0.08797631
-5.22458	beget	-0.06622124
-5.22458	beggar	-0.06614424
-3.343766	begin	-0.5604419
-4.747458	beginner	-0.06238162
-4.02046	beginning	-0.6244963
-4.92355	behalf	-0.06570116
-4.32149	behave	-0.1098367
-3.945826	behaviour	-0.2462691
-5.22458	behavioural	-0.06614424
-5.22458	behead	-0.08864021
-3.552482	behind	-0.335561
-4.92355	beijing	-0.08054179
-4.446428	being	-0.1345128
-5.22458	bejasus	-0.06614424
-5.22458	belarus	-0.09232543
-4.92355	belated	-0.3111706
-5.22458	belau	-0.06614424
-5.22458	beldam	-0.09101565
-5.22458	beleaguered	-0.09236944
-4.145399	belfast	-0.1336582
-4.92355	belgian	-0.09204046
-5.22458	belgium	-0.09232025
-5.22458	belhadj	-0.08200549
-4.270337	belief	-0.1936818
-3.425239	believe	-0.3143145
-5.22458	believedly	-0.09007172
-4.622519	bell	-0.06272276
-4.747458	bella	-0.08018773
-4.92355	belle	-0.0922555
-5.22458	bellot	-0.09236944
-4.32149	belong	-0.5672683
-4.92355	belongings	-0.06332949
-4.92355	beloved	-0.09236168
-3.844368	below	-0.1293278
-4.379482	belt	-0.09303248
-5.22458	bemba	-0.09213634
-4.92355	bemused	-0.08967325
-4.92355	ben	-0.07258227
-5.22458	bence	-0.06614424
-4.92355	bench	-0.07998263
-4.622519	bend	-0.07688091
-4.622519	beneath	-0.1334124
-5.22458	benedetti	-0.09181236
-5.22458	benedict	-0.06614424
-5.22458	beneficent	-0.09138174
-4.622519	beneficial	-0.3263706
-3.90236	benefit	-0.05583258
-5.22458	beneift	-0.09072722
-4.92355	benign	-0.08061097
-5.22458	benjamin	-0.09236944
-5.22458	bennet	-0.08200549
-4.92355	bennett	-0.08702575
-5.22458	benny	-0.09224514
-5.22458	bent	-0.09236944
-4.747458	bentley	-0.09232283
-5.22458	benz	-0.09236427
-5.22458	benzene	-0.07645404
-5.22458	benzina	-0.06622124
-5.22458	beqa	-0.08290094
-5.22458	bequest	-0.09153225
-5.22458	bereiter	-0.08062427
-5.22458	berg	-0.09236686
-5.22458	berger	-0.09222183
-5.22458	bergg	-0.08725114
-5.22458	berisford	-0.09228658
-5.22458	berkeley	-0.09184347
-5.22458	berkshire	-0.08715943
-4.525609	berlin	-0.1171811
-5.22458	berlusconi	-0.09152965
-5.22458	bernama	-0.09230988
-4.622519	bernard	-0.05344498
-5.22458	bernie	-0.08062427
-5.22458	berret	-0.09224514
-4.92355	berry	-0.09151409
-4.92355	bert	-0.09177606
-4.92355	beryl	-0.07617459
-5.22458	beseech	-0.09236686
-4.622519	beside	-0.06262571
-4.32149	besides	-0.07988191
-5.22458	bessmertnykh	-0.07645404
-4.92355	best-known	-0.09229435
-5.22458	best-rule	-0.0914051
-4.92355	bestow	-0.08668482
-5.22458	bestseller	-0.09231506
-4.747458	bet	-0.08318931
-4.92355	beta	-0.08061895
-5.22458	beth	-0.09236427
-5.22458	bethlehem	-0.06614424
-5.22458	betide	-0.09167752
-4.622519	betray	-0.05435318
-5.22458	betsy	-0.09236944
-5.22458	better-off	-0.08200549
-5.22458	better-paid	-0.09236686
-5.22458	betteridge	-0.09231506
-4.92355	betting	-0.09047242
-4.622519	betty	-0.04328097
-3.091041	between	-0.1900254
-5.22458	beuningen	-0.09234355
-5.22458	beuys	-0.08864021
-4.92355	beverley	-0.09231506
-3.92355	beyond	-0.2177021
-5.22458	bhalla	-0.08062427
-5.22458	bhuide	-0.06614424
-5.22458	biagio	-0.09236944
-5.22458	bianchi	-0.09232801
-4.92355	bias	-0.08354886
-5.22458	biased	-0.09198086
-4.525609	bible	-0.01661395
-4.747458	biblical	-0.09166194
-5.22458	bibliographic	-0.09223995
-5.22458	bibliography	-0.07645404
-5.22458	bibliometric	-0.09236944
-4.92355	bicycle	-0.066213
-4.446428	bid	-0.1087742
-5.22458	bidder	-0.09087536
-5.22458	biddles	-0.07645404
-5.22458	bide	-0.08715943
-3.405036	big	-0.05040693
-5.22458	bikini	-0.08938654
-5.22458	bilateral	-0.09230471
-4.92355	bilbo	-0.08423011
-5.22458	bilge	-0.06614424
-4.92355	bilingual	-0.09218038
-3.733218	bill	-0.1152836
-5.22458	billet	-0.09219592
-5.22458	billiards	-0.08290094
-4.22458	billion	-0.3943604
-4.622519	billy	-0.08039807
-4.92355	bimbo	-0.09051923
-5.22458	bimodal	-0.08367568
-5.22458	bin	-0.06614424
-4.92355	binary	-0.09232283
-4.622519	bind	-0.06118413
-5.22458	bindery	-0.08062427
-4.92355	binding	-0.09232543
-5.22458	bing	-0.09236686
-5.22458	binge	-0.09236944
-5.22458	bingeing/starving/vomiting	-0.06614424
-5.22458	bingham	-0.09101565
-5.22458	binoculars	-0.09208451
-4.92355	biochemistry	-0.07064018
-5.22458	biographical	-0.09232801
-4.92355	biography	-0.07635733
-4.92355	biological	-0.09222183
-5.22458	biologist	-0.09234873
-4.92355	biology	-0.08315493
-5.22458	bion	-0.06614424
-5.22458	biopsy	-0.06622124
-5.22458	biot-savart	-0.09226068
-5.22458	bipolar	-0.09234614
-4.048489	bird	-0.1548373
-5.22458	birkbeck	-0.06614424
-4.622519	birmingham	-0.176397
-5.22458	biro	-0.09236686
-4.183187	birth	-0.1745142
-5.22458	birth'	-0.0922296
-5.22458	birth-rate	-0.07645404
-4.747458	birthday	-0.06598467
-4.92355	biscuit	-0.04921574
-5.22458	bisexual	-0.09198086
-4.145399	bishop	-0.08600238
-5.22458	bisset	-0.09229953
-3.82664	bit	-0.4873148
-4.32149	bite	-0.09660707
-5.22458	biting	-0.09231248
-4.446428	bitter	-0.0657287
-4.92355	bitterly	-0.07958013
-5.22458	bitty	-0.09236427
-5.22458	biven	-0.08062427
-4.747458	bizarre	-0.08351978
-5.22458	bizzerk	-0.09226068
-3.43925	black	-0.1150444
-5.22458	black-back	-0.09236944
-5.22458	black-cattle	-0.08062427
-5.22458	black-jacketed	-0.09198086
-5.22458	blackbird	-0.09087536
-5.22458	blackburn	-0.09229694
-5.22458	blackeyes	-0.09230471
-5.22458	blackfriar	-0.09225291
-5.22458	blackhurst	-0.08062427
-5.22458	blacking	-0.09234873
-4.92355	blackmail	-0.07939874
-5.22458	blackpool	-0.08062427
-4.747458	blacksmith	-0.08862454
-4.92355	blade	-0.07958813
-5.22458	blair	-0.07959879
-5.22458	blaise	-0.09235909
-4.92355	blake	-0.0761504
-5.22458	blakemore	-0.09234614
-4.183187	blame	-0.2660034
-5.22458	blanch	-0.06622124
-5.22458	blanche	-0.09231506
-5.22458	blanchflower	-0.09226068
-5.22458	blandly	-0.09236427
-4.92355	blank	-0.06329349
-4.747458	blanket	-0.06585532
-5.22458	blasphemous	-0.06614424
-5.22458	blasphemy	-0.06614424
-4.446428	blast	-0.03312574
-5.22458	blasted	-0.09232801
-5.22458	blatantly	-0.0923565
-4.92355	blaze	-0.09235132
-4.92355	bleak	-0.2850516
-4.92355	bleed	-0.09227881
-4.622519	bleeding	-0.06612222
-5.22458	bleep	-0.09231248
-4.747458	blend	-0.1856549
-5.22458	blended	-0.09234096
-4.747458	bless	-0.06281701
-4.92355	blessing	-0.2850516
-5.22458	blida	-0.0923332
-5.22458	blimey	-0.08953513
-4.622519	blind	-0.07638687
-5.22458	blindly	-0.09236944
-4.92355	blink	-0.308979
-5.22458	blinker	-0.08938654
-5.22458	blisham	-0.08367568
-5.22458	blissful	-0.09199641
-5.22458	blister	-0.06614424
-5.22458	blitz	-0.07959879
-4.747458	blizzard	-0.06600117
-4.747458	bloc	-0.08023567
-4.02046	block	-0.02262683
-4.747458	blockade	-0.07675208
-5.22458	blocked	-0.09234614
-4.92355	blocking	-0.09216224
-4.92355	bloke	-0.08718825
-4.92355	blond	-0.07938807
-4.92355	blonde	-0.09236686
-3.90236	blood	-0.1920677
-5.22458	blood-vessels	-0.08367568
-5.22458	bloodstained	-0.09235391
-5.22458	bloodstock	-0.09231506
-5.22458	bloodstream	-0.09235391
-4.078452	bloody	-0.1081895
-5.22458	bloomfield	-0.07645404
-4.747458	blooming	-0.092227
-5.22458	bloomsbury	-0.07645404
-5.22458	blotter	-0.06614424
-4.92355	blouse	-0.06587183
-4.145399	blow	-0.05341383
-5.22458	blowback	-0.09234096
-5.22458	bludgeon	-0.06622124
-4.145399	blue	-0.05086566
-5.22458	bluebell	-0.09236686
-4.92355	blueprint	-0.08838157
-4.92355	blunder	-0.08810447
-5.22458	blundering	-0.09236944
-5.22458	blunkett	-0.08062427
-4.92355	blur	-0.05264272
-4.92355	blurred	-0.06610848
-5.22458	blush	-0.08290094
-5.22458	bluth	-0.09236427
-5.22458	bmw	-0.0923306
-5.22458	bmws	-0.09007172
-4.92355	boar	-0.06613323
-3.882157	board	-0.01060946
-5.22458	boarding	-0.09215188
-5.22458	boardroom	-0.09236944
-4.622519	boards	-0.05416095
-4.92355	boast	-0.06540093
-4.22458	boat	-0.1666029
-5.22458	boathouse	-0.08367568
-5.22458	boatman	-0.09163602
-4.622519	bob	-0.07921994
-5.22458	bobbie	-0.09101565
-5.22458	bobby	-0.08367568
-5.22458	boboli	-0.09230988
-5.22458	bode	-0.09175532
-5.22458	bodenland	-0.06614424
-4.92355	bodie	-0.06318827
-5.22458	bodily	-0.0923565
-4.92355	bodo	-0.06370031
-3.680512	body	-0.2060948
-5.22458	boelcke	-0.09234873
-4.92355	boer	-0.3111421
-4.92355	bog	-0.08021969
-5.22458	boggle	-0.09236944
-5.22458	bognor	-0.0923332
-5.22458	bogomil	-0.0922814
-4.92355	bohuslav	-0.3112742
-5.22458	boiardo	-0.09236944
-4.622519	boil	-0.1670786
-4.747458	boiler	-0.05358374
-5.22458	boilie	-0.09186162
-5.22458	boiling	-0.09234614
-5.22458	bokassa	-0.06614424
-5.22458	bokhara	-0.09236944
-4.747458	bold	-0.09225031
-5.22458	boldly	-0.08367568
-5.22458	boleyn	-0.0904152
-4.92355	bolivia	-0.0662185
-5.22458	bollinger	-0.09007172
-5.22458	bollocking	-0.06614424
-5.22458	bolsover	-0.08367568
-4.525609	bolt	-0.1583954
-4.110636	bomb	-0.06568166
-5.22458	bomb-shell	-0.0923565
-5.22458	bombard	-0.09016542
-5.22458	bomber	-0.08968888
-5.22458	bombing	-0.07645404
-5.22458	bon	-0.08200549
-5.22458	bona	-0.09236944
-4.92355	bonanza	-0.08310468
-4.747458	bond	-0.0631855
-5.22458	bond-holders	-0.09195494
-5.22458	bondholder	-0.09227363
-5.22458	bondi	-0.09221923
-5.22458	bonding	-0.09201973
-4.747458	bone	-0.09037618
-5.22458	boned	-0.09234614
-5.22458	bonefield	-0.06614424
-5.22458	bones	-0.08062427
-5.22458	bonfire	-0.08062427
-5.22458	bong	-0.09205342
-5.22458	bonnie	-0.09236427
-4.747458	bonus	-0.07686481
-5.22458	bony	-0.09235132
-5.22458	boob	-0.09225032
-3.361257	book	-0.1781607
-5.22458	booking	-0.06614424
-4.622519	booklet	-0.1711506
-5.22458	bookseller	-0.08062427
-5.22458	bookshop	-0.0915997
-4.747458	boom	-0.06356198
-5.22458	boomerang	-0.08062427
-4.747458	boost	-0.08431453
-5.22458	booster	-0.06614424
-4.446428	boot	-0.04889245
-5.22458	boot-bindings	-0.06614424
-4.92355	booth	-0.09212597
-5.22458	booty	-0.08367568
-5.22458	booze	-0.09181236
-5.22458	boozer	-0.09236944
-4.379482	border	-0.09937622
-5.22458	bore	-0.08062427
-4.92355	bored	-0.09103123
-4.92355	boredom	-0.09219074
-5.22458	borehamwood	-0.0923565
-5.22458	boring	-0.09233578
-5.22458	boris	-0.09215706
-5.22458	borneo	-0.07645404
-5.22458	boro	-0.09236427
-4.747458	borough	-0.05256042
-4.379482	borrow	-0.06505913
-5.22458	borrowed	-0.09236168
-4.92355	borrower	-0.08902398
-4.92355	borrowing	-0.07642449
-5.22458	borstal	-0.08864021
-4.92355	bosnia	-0.08361228
-5.22458	bosnian	-0.09236944
-4.32149	boss	-0.03510971
-5.22458	bossidy	-0.08725114
-5.22458	boston	-0.08062427
-4.92355	boswell	-0.09217261
-5.22458	botanic	-0.09230988
-5.22458	botch	-0.09236168
-3.167675	both	-0.07764117
-4.622519	bother	-0.18376
-5.22458	bothwell	-0.09132724
-5.22458	bott	-0.07959879
-5.22458	botters	-0.09016542
-4.525609	bottle	-0.1254903
-3.90236	bottom	-0.218533
-5.22458	bottomley	-0.09183051
-5.22458	boudica	-0.06622124
-5.22458	boulangerie	-0.09236944
-4.92355	boulder	-0.08398203
-5.22458	boull&eacute;e	-0.08367568
-4.92355	bounce	-0.3082938
-5.22458	bound	-0.09234873
-4.110636	boundary	-0.005500272
-5.22458	bounds	-0.08958986
-5.22458	bouquet	-0.07645404
-5.22458	bourbon	-0.09236686
-4.747458	bourgeois	-0.09232024
-5.22458	bourgeoisie	-0.09228658
-5.22458	bourgeoisified	-0.09231506
-5.22458	bourges	-0.09236944
-5.22458	bournonville	-0.08367568
-4.92355	bousfield	-0.08060565
-4.747458	bout	-0.07045501
-4.92355	boutari	-0.06078053
-5.22458	bouteville	-0.09224772
-4.92355	bovine	-0.09236686
-5.22458	bow	-0.08200549
-5.22458	bowel	-0.09236686
-5.22458	bowels	-0.07645404
-4.92355	bowen	-0.07642986
-5.22458	bower	-0.09236686
-5.22458	bowes	-0.09231248
-4.92355	bowl	-0.07947344
-4.92355	bowler	-0.06613874
-5.22458	bowles	-0.08725114
-5.22458	bowling	-0.09228658
-4.048489	box	-0.05159948
-5.22458	box-office	-0.09213634
-5.22458	boxer	-0.08062427
-5.22458	boxers	-0.09236686
-4.747458	boxing	-0.2251839
-3.668277	boy	-0.2428622
-4.747458	boycott	-0.07931069
-4.92355	boyfriend	-0.0916412
-5.22458	boymans	-0.09234873
-5.22458	boyz	-0.09235132
-4.92355	boz	-0.08999362
-4.747458	bp	-0.08819075
-5.22458	bpf	-0.09221406
-5.22458	br	-0.06614424
-5.22458	bra	-0.09236944
-5.22458	brac	-0.09234355
-4.747458	bracelet	-0.1867462
-4.92355	braces	-0.08061629
-5.22458	brachiopod	-0.09226068
-5.22458	bracken	-0.09236944
-5.22458	brackish	-0.09221664
-4.747458	bradford	-0.08918311
-5.22458	brady-plan	-0.09236944
-5.22458	braemar	-0.09236944
-5.22458	brag	-0.0904152
-5.22458	bragg	-0.09101565
-5.22458	brahimi	-0.06614424
-5.22458	brahman	-0.07645404
-4.145399	brain	-0.1176693
-5.22458	brain-weak	-0.06614424
-5.22458	brainchild	-0.06614424
-5.22458	brainy	-0.09236686
-4.92355	brakes	-0.0753621
-5.22458	braking	-0.0920871
-5.22458	bramble	-0.09232025
-4.22458	branch	-0.1542051
-4.32149	brand	-0.04644419
-4.92355	brandt	-0.09208193
-5.22458	brandy	-0.09236944
-5.22458	branestawm	-0.09230211
-5.22458	branson	-0.06614424
-5.22458	brass	-0.09152965
-5.22458	brassicae	-0.06614424
-5.22458	brat	-0.07959879
-5.22458	bravely	-0.09217519
-4.92355	brawl	-0.05365453
-5.22458	brawny	-0.09236944
-4.92355	brazil	-0.08367305
-5.22458	bre	-0.08062427
-4.446428	breach	-0.4393306
-4.145399	bread	-0.1337838
-5.22458	breadcrumb	-0.0922296
-3.581127	break	-0.1641062
-5.22458	break-in	-0.07645404
-4.747458	breakdown	-0.2124184
-4.379482	breakfast	-0.06434434
-4.92355	breakthrough	-0.07755663
-4.32149	breast	-0.09725264
-5.22458	breastfeed	-0.0915971
-4.379482	breath	-0.3423609
-4.22458	breathe	-0.2465799
-5.22458	breathing	-0.09226068
-5.22458	breathlessly	-0.06614424
-5.22458	brecciate	-0.09235909
-5.22458	brecsu	-0.09236944
-4.270337	breed	-0.03821314
-4.747458	breeding	-0.07950278
-4.92355	breeze	-0.05256326
-4.92355	bremen	-0.08177736
-5.22458	bremner	-0.07645404
-4.92355	brenda	-0.09227363
-5.22458	brent	-0.06614424
-5.22458	bretonnian	-0.09233578
-5.22458	brewer	-0.06614424
-5.22458	brewery	-0.08367568
-5.22458	brewing	-0.09227881
-4.446428	brian	-0.08043002
-5.22458	bribe	-0.07645404
-4.525609	brick	-0.08233951
-5.22458	brickwork	-0.07959879
-5.22458	bride	-0.08953513
-5.22458	bride-to-be	-0.08200549
-5.22458	bridesmaid	-0.09223218
-4.048489	bridge	-0.1188812
-5.22458	bridgend	-0.08938654
-5.22458	bridget	-0.07645404
-5.22458	bridle	-0.09230211
-4.183187	brief	-0.09081817
-4.92355	briefcase	-0.06595165
-5.22458	briefing	-0.09235132
-4.525609	briefly	-0.07645671
-5.22458	briefs	-0.09236944
-5.22458	brieish	-0.09228916
-4.92355	brigade	-0.06614149
-5.22458	brigadier	-0.09236944
-5.22458	briggs/anthony	-0.06614424
-4.270337	bright	-0.07955078
-5.22458	brightening	-0.06614424
-4.92355	brightly	-0.08927963
-5.22458	brightness	-0.08725114
-4.622519	brighton	-0.06237329
-5.22458	brilliance	-0.08775391
-4.525609	brilliant	-0.08987382
-3.343766	bring	-0.2993284
-5.22458	bringeth	-0.09215706
-5.22458	brink	-0.07959879
-5.22458	bristle	-0.09174754
-4.525609	bristol	-0.06045457
-3.543339	britain	-0.1750666
-5.22458	britannia	-0.09236944
-3.517009	british	-0.1279381
-4.92355	brits	-0.07676014
-5.22458	brittan/race	-0.06614424
-5.22458	britten	-0.06614424
-5.22458	brittle	-0.09219851
-4.183187	broad	-0.09685328
-4.446428	broadcast	-0.2103446
-4.92355	broadcaster	-0.08977746
-4.747458	broadcasting	-0.09161266
-5.22458	broaden	-0.09134022
-5.22458	broadened	-0.09236944
-4.92355	broadly	-0.08276065
-5.22458	broadmoor	-0.09082339
-5.22458	broccoli	-0.06614424
-4.622519	brochure	-0.08007587
-5.22458	brodick	-0.09138174
-5.22458	broil	-0.09236944
-4.92355	broken	-0.09234873
-5.22458	broker	-0.08062427
-5.22458	brom	-0.09231506
-5.22458	bromham	-0.09236686
-5.22458	bromley	-0.09233578
-5.22458	bronchial	-0.0923073
-4.92355	bronze	-0.09016022
-5.22458	broody	-0.09236686
-4.747458	brook	-0.06212628
-4.92355	brooke	-0.0921182
-5.22458	brooklands	-0.09222183
-5.22458	brooklyn	-0.09233578
-5.22458	brose	-0.08968888
-5.22458	brossa	-0.09233838
-5.22458	brothel	-0.06614424
-3.92355	brother	-0.01357944
-5.22458	brother-in-law	-0.09224514
-5.22458	brougham	-0.09236944
-5.22458	broughton	-0.09225291
-4.92355	brow	-0.09221664
-4.078452	brown	-0.12798
-5.22458	brown-field	-0.09232283
-4.92355	browne	-0.08719087
-5.22458	browne-wilkinson	-0.09224255
-4.92355	brownie	-0.06554694
-5.22458	brownlee	-0.06614424
-4.747458	bruce	-0.09234355
-5.22458	bruise	-0.09152187
-5.22458	brul	-0.09234096
-5.22458	brunell	-0.09236944
-5.22458	bruno	-0.0923073
-4.270337	brush	-0.0848754
-5.22458	brusque	-0.06614424
-4.92355	brussels	-0.0818994
-4.92355	brutal	-0.09233838
-4.622519	bryan	-0.09227621
-5.22458	bryant	-0.09236427
-5.22458	bryce	-0.09134801
-5.22458	bryncrug	-0.09236944
-5.22458	bs	-0.09072722
-5.22458	bsc	-0.08367568
-5.22458	bsd	-0.0923565
-5.22458	bse	-0.09087536
-5.22458	bsg	-0.0923565
-5.22458	bt	-0.09101565
-4.92355	bubble	-0.06441892
-5.22458	bucaille	-0.09236944
-5.22458	buccleuch	-0.09207674
-5.22458	buchan	-0.0923073
-4.747458	bucket	-0.05062056
-5.22458	buckminster	-0.09236427
-5.22458	bud	-0.08775391
-4.92355	budapest	-0.05690071
-5.22458	buddhism	-0.06614424
-3.969307	budget	-0.1187059
-4.92355	budgetary	-0.09217519
-5.22458	buenas	-0.06614424
-5.22458	buffalo	-0.06614424
-5.22458	buffer	-0.09183051
-4.92355	buffet	-0.09008473
-5.22458	bug	-0.09155041
-5.22458	bugey	-0.08958986
-4.92355	bugger	-0.07578199
-4.747458	buggy	-0.08040605
-4.92355	bugler	-0.08862193
-5.22458	buid	-0.08958986
-3.71943	build	-0.261213
-5.22458	build-up	-0.07959879
-4.747458	builder	-0.06122864
-3.706066	building	-0.1170501
-5.22458	built-up	-0.09210006
-5.22458	buksh	-0.09221923
-5.22458	bulb	-0.09232025
-4.92355	bulgaria	-0.09232801
-5.22458	bulimic	-0.09231506
-4.92355	bulk	-0.2985061
-4.379482	bull	-0.1907188
-5.22458	bulldozer	-0.09223478
-5.22458	bullen	-0.09236427
-5.22458	bullet	-0.09132724
-5.22458	bullethole	-0.08062427
-5.22458	bulletin	-0.09231506
-5.22458	bullshit	-0.09101565
-4.92355	bully	-0.08968627
-5.22458	bully-boy	-0.09236168
-4.747458	bum	-0.04920715
-5.22458	bump	-0.08062427
-4.747458	bumper	-0.0804513
-4.92355	bun	-0.061237
-4.622519	bunch	-0.1483651
-5.22458	bunche	-0.07959879
-5.22458	bundestag	-0.06614424
-4.525609	bundle	-0.2323237
-5.22458	bungle	-0.09234355
-4.747458	bunny	-0.09228916
-5.22458	bunting	-0.06614424
-5.22458	buon	-0.09236944
-4.92355	buoy	-0.08005723
-5.22458	buoyancy	-0.07959879
-5.22458	buoyant	-0.09223478
-4.747458	burden	-0.04302286
-4.92355	bureau	-0.08990508
-5.22458	bureaucracy	-0.0923565
-4.92355	bureaucrat	-0.06569566
-5.22458	bureaucratization	-0.07959879
-5.22458	burger	-0.0923073
-5.22458	burglar	-0.08715943
-5.22458	burglary	-0.06614424
-5.22458	burhs	-0.08062427
-5.22458	buried	-0.09235391
-5.22458	burke	-0.09234355
-5.22458	burlington	-0.09236944
-5.22458	burly	-0.09227104
-5.22458	burma	-0.0923073
-4.446428	burn	-0.05054645
-5.22458	burnard	-0.07645404
-4.92355	burner	-0.09076881
-5.22458	burnet	-0.09231766
-4.92355	burning	-0.05256326
-5.22458	burnishing	-0.09234614
-5.22458	burnt-out	-0.0923565
-5.22458	burrell	-0.09228658
-4.92355	burrow	-0.2850516
-4.525609	burst	-0.163837
-5.22458	burton	-0.09086236
-4.22458	bury	-0.121426
-4.145399	bus	-0.008630238
-4.183187	bush	-0.1019297
-3.43925	business	-0.1521078
-5.22458	business-critical	-0.09231506
-4.622519	businessman	-0.0912857
-4.92355	businessmen	-0.06613874
-5.22458	busker	-0.09184347
-5.22458	bust	-0.06614424
-5.22458	bust-length	-0.09016542
-5.22458	bust-up	-0.09201973
-5.22458	buster	-0.06614424
-5.22458	bustle	-0.0915997
-4.270337	busy	-0.09741435
-2.347208	but	-0.3432396
-4.747458	butcher	-0.09215705
-5.22458	butis	-0.08367568
-4.747458	butler	-0.06417306
-5.22458	butler-sloss	-0.08062427
-5.22458	butoxy	-0.09236944
-5.22458	butt	-0.07959879
-5.22458	butter	-0.08938654
-5.22458	butterfly	-0.09236944
-5.22458	butterworth	-0.06622124
-5.22458	buttocks	-0.09171642
-4.446428	button	-0.2041827
-5.22458	buttress	-0.09007172
-3.656378	buy	-0.1551992
-4.747458	buyer	-0.06057439
-5.22458	buying	-0.09219851
-5.22458	buyout	-0.07959879
-4.92355	buzz	-0.08229181
-2.295161	by	-0.1314862
-5.22458	by-election	-0.09201973
-5.22458	by-the-book	-0.09229435
-5.22458	by-way	-0.07959879
-5.22458	bye	-0.09235909
-5.22458	bye-law	-0.0914051
-5.22458	byelarus	-0.09236944
-5.22458	byron	-0.09152187
-5.22458	byword	-0.08864021
-3.71943	c	-0.05430101
-5.22458	c&amp;p	-0.09228658
-5.22458	c&eacute;sar	-0.09184347
-5.22458	c-anca	-0.07645404
-5.22458	c-in-c	-0.09235909
-5.22458	c-isam	-0.0923565
-4.379482	c.	-0.05902253
-5.22458	c/ebp	-0.09236686
-5.22458	c1	-0.09208451
-3.52561	ca	-0.1849628
-4.525609	cab	-0.140907
-4.747458	cabbage	-0.0631855
-4.92355	cabin	-0.06599568
-4.747458	cabinet	-0.05686698
-4.446428	cable	-0.08609938
-5.22458	cabrera	-0.09152965
-5.22458	cadbury	-0.0923306
-5.22458	caddie	-0.06614424
-5.22458	caddis	-0.06614424
-5.22458	cadieux	-0.09101565
-5.22458	cadillac	-0.09232543
-5.22458	caernarfon	-0.06614424
-5.22458	caf	-0.09236944
-5.22458	caf&eacute;	-0.09236944
-5.22458	caf&eacute;s	-0.08062427
-5.22458	cafe	-0.08062427
-5.22458	cafeteria	-0.06614424
-4.747458	cage	-0.03960069
-4.22458	cake	-0.1022273
-5.22458	calamari	-0.09222441
-5.22458	calamitous	-0.09236686
-5.22458	calamity	-0.06614424
-5.22458	calapaez	-0.08938654
-5.22458	calcium	-0.09234873
-5.22458	calcium-loving	-0.09234873
-4.446428	calculate	-0.1758592
-5.22458	calculatedly	-0.0923565
-4.747458	calculation	-0.06425595
-5.22458	calcutta	-0.09087536
-5.22458	cale	-0.09232025
-5.22458	caledonia	-0.08715943
-4.92355	caledor	-0.08062161
-5.22458	calendar	-0.09236686
-5.22458	calendrical	-0.09236944
-5.22458	calero	-0.09236944
-5.22458	calf	-0.09235391
-5.22458	calibration	-0.06622124
-4.92355	calibre	-0.3102916
-4.747458	california	-0.0618069
-4.92355	california-based	-0.09231248
-5.22458	caliph	-0.08200549
-3.179257	call	-0.1508483
-5.22458	callaghan	-0.09048282
-5.22458	callejas	-0.09229953
-5.22458	caller	-0.09153225
-5.22458	callow	-0.08062427
-5.22458	calm	-0.06614424
-4.92355	calmly	-0.05365453
-5.22458	calmness	-0.09206897
-5.22458	calorie	-0.09236427
-5.22458	calverton	-0.08367568
-5.22458	calvin	-0.09231766
-5.22458	calvinism	-0.09211043
-5.22458	calvinistic	-0.09230211
-5.22458	camacho	-0.06614424
-5.22458	cambrian	-0.08200549
-4.622519	cambridge	-0.06291123
-4.92355	cambridgeshire	-0.09039699
-5.22458	cameo	-0.09086236
-4.379482	camera	-0.08672489
-4.92355	cameron	-0.07636539
-5.22458	camlab	-0.08725114
-4.622519	camp	-0.1578976
-3.945826	campaign	-0.1999363
-4.446428	campbell	-0.1244673
-5.22458	campbell-savours	-0.09236686
-4.92355	camper	-0.09138694
-5.22458	camping	-0.09232283
-5.22458	campos	-0.08725114
-5.22458	campus	-0.09235391
-2.652871	can	-0.3037702
-5.22458	canada	-0.09188236
-5.22458	canadian	-0.09231248
-5.22458	canadian-born	-0.08953513
-4.622519	canal	-0.06535408
-4.747458	cancel	-0.05360072
-5.22458	cancelled	-0.09230211
-4.270337	cancer	-0.05657183
-5.22458	cancer-causing	-0.0923565
-5.22458	candace	-0.09236427
-3.969307	candidate	-0.1518439
-4.622519	candle	-0.06288907
-5.22458	canister	-0.08062427
-5.22458	cannon	-0.09236168
-5.22458	cannulae	-0.07645404
-5.22458	canoeing	-0.09236944
-4.92355	canon	-0.07948411
-5.22458	canonize	-0.09016542
-4.622519	canterbury	-0.05359506
-5.22458	canvas/nylon	-0.09236944
-4.525609	capability	-0.03943106
-4.183187	capable	-1.115622
-5.22458	capacitance	-0.09220369
-4.379482	capacity	-0.1191206
-5.22458	cape	-0.09067523
-5.22458	capetian	-0.08062427
-3.969307	capital	-0.08421917
-4.446428	capitalism	-0.09014981
-4.446428	capitalist	-0.09158415
-5.22458	capping	-0.06614424
-5.22458	capriccio	-0.08062427
-5.22458	capricious	-0.09230988
-4.32149	captain	-0.1104077
-5.22458	captaincy	-0.09087536
-5.22458	caption	-0.0922296
-4.446428	capture	-0.0969078
-5.22458	capture.richard	-0.09236686
-3.446429	car	-0.06497619
-5.22458	cara	-0.06614424
-5.22458	carabineri	-0.09016542
-5.22458	caracas	-0.09236944
-5.22458	caracciolo	-0.08200549
-4.622519	carat	-0.1722103
-4.92355	caravan	-0.08132871
-4.92355	carbohydrate	-0.07995865
-4.92355	carbon	-0.3112716
-5.22458	carbonate	-0.09236944
-4.92355	carburettor	-0.08362549
-5.22458	carcase	-0.07959879
-5.22458	carcass	-0.07645404
-4.078452	card	-0.0733045
-5.22458	card-playing	-0.09153225
-4.92355	cardboard	-0.09223995
-5.22458	cardiac	-0.09234614
-4.92355	cardiff	-0.08788214
-5.22458	cardigan	-0.08870289
-5.22458	cardinal	-0.09236686
-4.270337	cards	-0.1026341
-5.22458	carduus	-0.09236944
-3.581127	care	-0.1661946
-5.22458	care/education	-0.08062427
-3.969307	career	-0.0478128
-5.22458	carefree	-0.09217519
-4.32149	careful	-0.0501528
-4.110636	carefully	-0.04686707
-4.92355	careless	-0.09235909
-5.22458	carer	-0.09226068
-4.747458	carers	-0.06465082
-5.22458	carfax	-0.07645404
-5.22458	carib	-0.09229953
-4.92355	caribbean	-0.06612498
-4.747458	caring	-0.08059233
-4.92355	carl	-0.07645135
-5.22458	carlioz	-0.08062427
-4.92355	carlo	-0.09232543
-4.92355	carlos	-0.05615547
-5.22458	carlotta	-0.09220887
-4.747458	carlton	-0.1962799
-5.22458	carmelite	-0.09236427
-4.747458	carnivore	-0.08994153
-4.622519	carol	-0.0814668
-5.22458	carole	-0.08290094
-4.622519	caroline	-0.1619379
-5.22458	carpenter	-0.08062427
-4.525609	carpet	-0.1488837
-5.22458	carpeting	-0.09226068
-4.622519	carriage	-0.08304382
-5.22458	carrick	-0.09225291
-4.622519	carrie	-0.09204305
-5.22458	carried-out	-0.08968888
-4.446428	carrier	-0.05045805
-5.22458	carrington	-0.09207415
-3.492186	carry	-0.4068645
-5.22458	carrying	-0.09236944
-5.22458	carson	-0.06622124
-4.747458	cart	-0.1962799
-5.22458	cartagena	-0.09236686
-5.22458	cartel	-0.06614424
-4.622519	carter	-0.04916425
-5.22458	cartoon	-0.09215188
-5.22458	caruso	-0.09138434
-4.525609	carve	-0.08895089
-4.92355	carved	-0.09235132
-5.22458	carving	-0.06614424
-5.22458	casanova	-0.08725114
-5.22458	cascade	-0.09197827
-3.171501	case	-0.2008265
-4.270337	cash	-0.1972499
-5.22458	caspar	-0.09226327
-5.22458	casserole	-0.08062427
-4.747458	cassette	-0.09143883
-5.22458	cassie	-0.09199382
-4.048489	cast	-0.09259281
-5.22458	caste	-0.0922814
-5.22458	caster	-0.06614424
-5.22458	castilian	-0.09225291
-5.22458	casting	-0.09234355
-4.747458	castle	-0.08935525
-5.22458	castling	-0.08367568
-5.22458	castries	-0.09054264
-4.622519	casual	-0.0916801
-4.446428	casualty	-0.02490144
-5.22458	casualty-list	-0.09236168
-5.22458	casuistry	-0.06614424
-4.32149	cat	-0.1045344
-4.32149	catalogue	-0.0410107
-5.22458	cataloguing	-0.09227363
-5.22458	catalonia	-0.08062427
-5.22458	catalytic	-0.09236686
-5.22458	catastrophism	-0.07959879
-3.969307	catch	-0.1803215
-5.22458	catchy	-0.0922555
-5.22458	categorical	-0.0923565
-5.22458	categorised	-0.09207415
-5.22458	categorize	-0.06622124
-4.078452	category	-0.5580278
-5.22458	cater	-0.09229953
-5.22458	caterham	-0.09235909
-5.22458	catering	-0.08062427
-5.22458	catesby	-0.08062427
-4.92355	cathedral	-0.08132871
-4.446428	catherine	-0.05154039
-4.92355	cathexis	-0.07732614
-5.22458	cathode	-0.09232025
-4.446428	catholic	-0.1409381
-5.22458	catholicism	-0.07959879
-5.22458	cathy	-0.09236944
-4.747458	cattle	-0.08711224
-4.92355	catwalk	-0.06583881
-5.22458	causation	-0.08062427
-3.633515	cause	-0.154948
-4.92355	caustic	-0.3112742
-4.747458	caution	-0.05660557
-4.92355	cautious	-0.09146998
-5.22458	cav	-0.08367568
-5.22458	cavalcade	-0.07959879
-5.22458	cavalry	-0.09233578
-5.22458	cave	-0.08062427
-5.22458	cave-like	-0.09236168
-5.22458	cavendish	-0.09236427
-5.22458	cavil	-0.09007172
-5.22458	caw	-0.09236944
-4.92355	cbi	-0.09181754
-5.22458	ccg	-0.07645404
-4.622519	cd	-0.08234746
-4.92355	cd2	-0.08061629
-4.92355	cd4	-0.09227104
-5.22458	cdp	-0.09236944
-4.92355	cdu	-0.09225291
-4.525609	cease	-0.5717224
-4.525609	ceasefire	-0.06585532
-5.22458	ceaseless	-0.0923306
-5.22458	ceau&scedil;escu	-0.09225291
-4.622519	ceausescu	-0.160044
-5.22458	cecil	-0.09217779
-5.22458	cecilia	-0.09234614
-4.92355	cees	-0.3112742
-5.22458	cegb	-0.09236686
-4.525609	ceiling	-0.02604927
-4.446428	celebrate	-0.113988
-4.92355	celebration	-0.09047242
-5.22458	celebratory	-0.09233578
-5.22458	celebrity	-0.09215188
-4.747458	celia	-0.07371904
-3.668277	cell	-0.1096759
-4.622519	cellar	-0.03612481
-5.22458	cellulite	-0.09236944
-4.92355	celluloid	-0.07641912
-4.92355	celtic	-0.09235909
-5.22458	cemaleddin	-0.09236944
-4.622519	cemetery	-0.1461942
-5.22458	censer	-0.0923565
-4.92355	censorship	-0.06434159
-5.22458	census	-0.06614424
-5.22458	centaur	-0.09231766
-5.22458	centaurea	-0.09236944
-5.22458	centaurus	-0.08367568
-5.22458	centigrade	-0.09163602
-5.22458	centimetre	-0.09214411
-3.82664	central	-0.1100337
-4.92355	centralise	-0.071687
-3.60133	centre	-0.1493276
-5.22458	centrifugal-compressor	-0.0923306
-5.22458	centrifuge	-0.09233578
-3.644796	century	-0.2155213
-5.22458	century-fox	-0.06614424
-5.22458	ceramics	-0.07645404
-5.22458	cercle	-0.09236168
-5.22458	cerebral	-0.09236944
-5.22458	ceremonial	-0.09224772
-4.92355	ceremony	-0.071687
-3.534384	certain	-0.06427827
-3.844368	certainly	-0.1087911
-5.22458	certainty	-0.08200549
-4.446428	certificate	-0.1150596
-4.92355	certify	-0.08769895
-5.22458	ceruloplasmin	-0.0923565
-5.22458	cg3	-0.09236427
-4.622519	ch	-0.08286653
-5.22458	chadburn	-0.09236944
-4.183187	chain	-0.1964789
-4.747458	chains	-0.07840512
-3.90236	chair	-0.3499555
-3.882157	chairman	-0.350804
-4.747458	chalk	-0.09225808
-5.22458	chalker	-0.09228658
-4.048489	challenge	-0.1047791
-5.22458	challenging	-0.09232801
-5.22458	chaloner	-0.09236686
-4.92355	chamber	-0.09231766
-5.22458	chamberlain	-0.09152965
-5.22458	chambermaid	-0.09217519
-4.92355	chambers	-0.0819445
-4.622519	champion	-0.1449746
-5.22458	championship	-0.06614424
-4.02046	chance	-0.1536193
-5.22458	chancellery	-0.06614424
-4.32149	chancellor	-0.06097264
-5.22458	chandelier	-0.09216224
-3.220258	change	-0.3606506
-4.379482	changing	-0.09170604
-4.270337	channel	-0.0331465
-5.22458	channel/getting	-0.09231766
-4.92355	channels	-0.08858014
-5.22458	chantal	-0.09234355
-4.622519	chaos	-0.05966796
-4.525609	chap	-0.2259537
-4.747458	chapel	-0.07825802
-4.92355	chaplain	-0.08200284
-5.22458	chaplin	-0.09233578
-4.92355	chapman	-0.08053647
-3.733218	chapter	-0.09841057
-3.809606	character	-0.2669659
-4.622519	characterise	-0.149561
-4.446428	characteristic	-0.1102052
-5.22458	characteristically	-0.09236944
-4.525609	characterize	-0.162394
-5.22458	charcoal	-0.08715943
-5.22458	charcuterie	-0.08062427
-3.82664	charge	-0.2633858
-5.22458	chariot	-0.09234873
-5.22458	charitable	-0.09232543
-4.110636	charity	-0.02202759
-5.22458	charkiewicz	-0.09236944
-5.22458	charlemagne	-0.07645404
-3.777422	charles	-0.0864242
-5.22458	charlesworth	-0.09236944
-5.22458	charley	-0.09213634
-4.747458	charlie	-0.080233
-4.747458	charlotte	-0.08026496
-5.22458	charm	-0.07959879
-4.747458	charming	-0.08288241
-5.22458	charmingly	-0.09236944
-5.22458	charolais	-0.06614424
-5.22458	charon	-0.09227622
-5.22458	charred	-0.09230471
-4.525609	chart	-0.04429455
-5.22458	charted	-0.09230988
-4.622519	charter	-0.1611449
-5.22458	chartered	-0.09236168
-5.22458	chary	-0.07959879
-5.22458	chas	-0.09231506
-4.525609	chase	-0.03526329
-5.22458	chaste	-0.09235132
-5.22458	chastened	-0.09220369
-4.32149	chat	-0.110074
-5.22458	chatichai	-0.09236944
-4.92355	chatter	-0.2995316
-5.22458	chaucer	-0.09231766
-5.22458	chauffeur	-0.09223737
-5.22458	chea	-0.09236686
-4.183187	cheap	-0.1108045
-5.22458	cheat	-0.08870289
-3.82664	check	-0.03590518
-4.92355	checklist	-0.07631971
-4.446428	cheek	-0.1877702
-5.22458	cheekbone	-0.06614424
-4.747458	cheer	-0.06429186
-4.92355	cheerful	-0.08039808
-5.22458	cheerfully	-0.09236944
-4.379482	cheese	-0.09164259
-5.22458	cheesemaking	-0.09234355
-5.22458	cheesy	-0.06614424
-5.22458	cheetah	-0.0914051
-5.22458	chef	-0.09236686
-4.747458	cheltenham	-0.07825802
-5.22458	chem	-0.06614424
-4.22458	chemical	-0.1817844
-5.22458	chemically	-0.09186162
-5.22458	chemist	-0.08864021
-4.92355	chemistry	-0.08968367
-5.22458	chemotherapy	-0.09067523
-5.22458	chen	-0.09162305
-4.747458	cheque	-0.0797561
-4.747458	cherish	-0.2232519
-5.22458	chernobyl	-0.09152187
-5.22458	cherub	-0.08938654
-5.22458	cherwell	-0.06622124
-5.22458	cheshire	-0.08062427
-4.747458	chest	-0.07836234
-5.22458	chest-register	-0.09087536
-5.22458	chester	-0.0923073
-5.22458	chesterman	-0.09209229
