
\data\
ngram 1=17529
ngram 2=93572

\1-grams:
-5.22458	&agr;	-99
-5.22458	&agrave;	-99
-3.82664	&amp;	-99
-5.22458	&amp;c	-99
-5.22458	&amp;name	-99
-5.22458	&aring;d	-99
-4.92355	&bgr;	-99
-5.22458	&bgr;-	-99
-4.92355	&deg;	-99
-5.22458	&dollar;1,995	-99
-5.22458	&dollar;11.6	-99
-5.22458	&dollar;11.65	-99
-5.22458	&dollar;14,500,000	-99
-5.22458	&dollar;150,000	-99
-5.22458	&dollar;17.5	-99
-5.22458	&dollar;17.95	-99
-5.22458	&dollar;2,500	-99
-5.22458	&dollar;20	-99
-5.22458	&dollar;20.8	-99
-5.22458	&dollar;20.9	-99
-5.22458	&dollar;21.6	-99
-5.22458	&dollar;24,000	-99
-5.22458	&dollar;250	-99
-5.22458	&dollar;250,000	-99
-5.22458	&dollar;3.00	-99
-5.22458	&dollar;325,000	-99
-5.22458	&dollar;36,000	-99
-5.22458	&dollar;4	-99
-5.22458	&dollar;400	-99
-5.22458	&dollar;5,000	-99
-5.22458	&dollar;50	-99
-5.22458	&dollar;500.	-99
-5.22458	&dollar;6,800	-99
-5.22458	&dollar;647,000	-99
-5.22458	&dollar;7.38	-99
-5.22458	&dollar;8	-99
-5.22458	&dollar;80	-99
-5.22458	&dollar;995	-99
-5.22458	&eacute;lite	-99
-5.22458	&eacute;lites	-99
-5.22458	&eacute;litism	-99
-5.22458	&eacute;litist	-99
-5.22458	&eacute;picerie	-99
-4.747458	&egr;	-99
-4.02046	&formula;	-99
-5.22458	&formula;1i	-99
-4.92355	&frac12;	-99
-4.92355	&frac12;in	-99
-5.22458	&gt;95%	-99
-5.22458	&lgr;&prime;	-99
-5.22458	&lt;	-99
-5.22458	&lt;3	-99
-5.22458	&lt;config	-99
-5.22458	&mdash;the	-99
-5.22458	&micro;g	-99
-4.92355	&micro;m	-99
-4.92355	&micro;mol/ml	-99
-5.22458	&ndash;george	-99
-4.622519	&pound;1	-99
-5.22458	&pound;1,000	-99
-5.22458	&pound;1,200	-99
-5.22458	&pound;1,690	-99
-5.22458	&pound;1.05p	-99
-5.22458	&pound;1.5bn	-99
-5.22458	&pound;1.8	-99
-4.747458	&pound;10	-99
-5.22458	&pound;10.1m	-99
-5.22458	&pound;10.26m	-99
-5.22458	&pound;1000	-99
-5.22458	&pound;114,957	-99
-5.22458	&pound;12.50	-99
-5.22458	&pound;12m-a-year	-99
-5.22458	&pound;13.99	-99
-5.22458	&pound;14	-99
-5.22458	&pound;14.99	-99
-5.22458	&pound;140.57	-99
-5.22458	&pound;15	-99
-5.22458	&pound;15,000	-99
-5.22458	&pound;15,000-&pound;20,000	-99
-5.22458	&pound;159.00	-99
-5.22458	&pound;16	-99
-5.22458	&pound;16.99	-99
-5.22458	&pound;17.70	-99
-5.22458	&pound;175.00	-99
-5.22458	&pound;178,000	-99
-5.22458	&pound;19,000	-99
-5.22458	&pound;19.25	-99
-5.22458	&pound;19.50	-99
-5.22458	&pound;1m	-99
-5.22458	&pound;2,000	-99
-5.22458	&pound;2.11	-99
-5.22458	&pound;2.8	-99
-5.22458	&pound;20	-99
-4.92355	&pound;20,000	-99
-4.92355	&pound;200	-99
-5.22458	&pound;200,000	-99
-5.22458	&pound;21,000	-99
-5.22458	&pound;215.38	-99
-5.22458	&pound;22,500	-99
-5.22458	&pound;225	-99
-5.22458	&pound;229.00	-99
-5.22458	&pound;230m	-99
-5.22458	&pound;250,000	-99
-5.22458	&pound;26.4	-99
-5.22458	&pound;27m	-99
-5.22458	&pound;28.50	-99
-5.22458	&pound;295	-99
-5.22458	&pound;2m	-99
-4.92355	&pound;3	-99
-4.92355	&pound;3,000	-99
-5.22458	&pound;3.23	-99
-5.22458	&pound;30	-99
-5.22458	&pound;30,000-worth	-99
-5.22458	&pound;300m	-99
-5.22458	&pound;35	-99
-5.22458	&pound;354,500	-99
-5.22458	&pound;36	-99
-5.22458	&pound;364.09	-99
-5.22458	&pound;388	-99
-5.22458	&pound;39	-99
-5.22458	&pound;39.95	-99
-5.22458	&pound;4,700	-99
-5.22458	&pound;4.30	-99
-4.747458	&pound;40	-99
-4.92355	&pound;400	-99
-5.22458	&pound;400m	-99
-5.22458	&pound;42.95	-99
-5.22458	&pound;44	-99
-5.22458	&pound;45	-99
-5.22458	&pound;5.00	-99
-5.22458	&pound;5.46	-99
-5.22458	&pound;5.99	-99
-4.622519	&pound;50	-99
-5.22458	&pound;5000	-99
-5.22458	&pound;515,000	-99
-4.92355	&pound;55	-99
-5.22458	&pound;56	-99
-5.22458	&pound;5bn	-99
-4.92355	&pound;6	-99
-5.22458	&pound;6,000	-99
-5.22458	&pound;60,000	-99
-5.22458	&pound;600	-99
-5.22458	&pound;606,000	-99
-5.22458	&pound;61	-99
-5.22458	&pound;650	-99
-4.92355	&pound;695	-99
-5.22458	&pound;712,000	-99
-5.22458	&pound;75	-99
-5.22458	&pound;8,000	-99
-4.92355	&pound;80	-99
-5.22458	&pound;80,000	-99
-5.22458	&pound;85	-99
-5.22458	&pound;88,000	-99
-5.22458	&pound;9	-99
-5.22458	&pound;91,000	-99
-5.22458	&rgr;	-99
-4.379482	&times;	-99
-5.22458	&times;15000	-99
-5.22458	&verbar;x	-99
-5.22458	&verbar;x&verbar;	-99
-5.22458	&verbar;y&verbar;	-99
-5.22458	'	-99
-5.22458	'70s	-99
-5.22458	'73	-99
-4.747458	'ad	-99
-4.92355	'ave	-99
-5.22458	'aye	-99
-4.747458	'cos	-99
-5.22458	'em	-99
-5.22458	'enjoyed	-99
-5.22458	'gainst	-99
-5.22458	'it	-99
-4.145399	's	-99
-5.22458	'urry	-99
-4.446428	*	-99
-5.22458	*abd	-99
-5.22458	*mongolian	-99
-4.92355	*new	-99
-4.183187	+	-99
-5.22458	+1	-99
-5.22458	+21.4	-99
-5.22458	+7	-99
-5.22458	-20&deg;c	-99
-5.22458	-40&deg;c	-99
-5.22458	-columns	-99
-5.22458	-hco	-99
-5.22458	-us&dollar;62	-99
-5.22458	.7	-99
-5.22458	/	-99
-5.22458	0	-99
-5.22458	0&deg;	-99
-5.22458	0&ndash;255	-99
-5.22458	0.01	-99
-5.22458	0.05	-99
-5.22458	0.1	-99
-5.22458	0.4	-99
-5.22458	0.4%	-99
-5.22458	0.5	-99
-5.22458	0.51%	-99
-5.22458	0.6%	-99
-5.22458	0.83&aring;	-99
-5.22458	0.86mm	-99
-5.22458	0.96	-99
-5.22458	000	-99
-5.22458	0001&ndash;0001	-99
-5.22458	01-493	-99
-5.22458	0225	-99
-5.22458	04	-99
-5.22458	0428	-99
-5.22458	0532	-99
-5.22458	06.36	-99
-4.92355	061	-99
-5.22458	071	-99
-5.22458	071&ndash;281	-99
-5.22458	0742	-99
-5.22458	0865	-99
-5.22458	0rd	-99
-3.385731	1	-99
-5.22458	1&frac12;	-99
-5.22458	1&ndash;0	-99
-5.22458	1&ndash;1	-99
-5.22458	1&ndash;2	-99
-5.22458	1&ndash;4	-99
-5.22458	1&ndash;476	-99
-5.22458	1&ndash;98	-99
-5.22458	1(2)	-99
-4.92355	1,000	-99
-5.22458	1,100,000	-99
-5.22458	1,152	-99
-4.92355	1,200	-99
-5.22458	1,423	-99
-5.22458	1,500,000	-99
-5.22458	1,500m	-99
-5.22458	1,600	-99
-5.22458	1,637	-99
-5.22458	1,800	-99
-5.22458	1,819	-99
-5.22458	1,900	-99
-5.22458	1-year-old	-99
-5.22458	1.03	-99
-4.92355	1.1	-99
-4.747458	1.2	-99
-5.22458	1.2m	-99
-4.747458	1.3	-99
-5.22458	1.30	-99
-4.92355	1.5	-99
-5.22458	1.5.7	-99
-5.22458	1.5m	-99
-5.22458	1.5p	-99
-5.22458	1.75m	-99
-5.22458	1.9	-99
-5.22458	1/32in	-99
-3.844368	10	-99
-5.22458	10%	-99
-5.22458	10&percnt;	-99
-5.22458	10,000	-99
-5.22458	10,759	-99
-5.22458	10-day	-99
-5.22458	10.10pm	-99
-5.22458	10.4	-99
-5.22458	10.5	-99
-4.446428	100	-99
-4.747458	100%	-99
-5.22458	100&ndash;1000	-99
-5.22458	100&ndash;400	-99
-5.22458	100,000	-99
-4.92355	1000	-99
-5.22458	1004.5	-99
-5.22458	1005	-99
-5.22458	100g/4oz	-99
-5.22458	100mph	-99
-4.92355	101	-99
-5.22458	106-ball	-99
-5.22458	107	-99
-5.22458	108,000	-99
-4.92355	109	-99
-5.22458	109,000	-99
-5.22458	1094	-99
-5.22458	10pc	-99
-5.22458	10pm	-99
-5.22458	10th	-99
-4.078452	11	-99
-4.92355	11%	-99
-5.22458	11-year-olds	-99
-5.22458	11.00	-99
-5.22458	11.123&mdash;4.26,32,5	-99
-5.22458	11.30	-99
-5.22458	11.30pm	-99
-5.22458	11/2	-99
-5.22458	110	-99
-5.22458	111,000	-99
-5.22458	115.5mm	-99
-5.22458	116.31	-99
-5.22458	117.7	-99
-5.22458	117/121	-99
-5.22458	118	-99
-5.22458	1184	-99
-5.22458	118p	-99
-5.22458	119	-99
-5.22458	11pm	-99
-3.809606	12	-99
-5.22458	12-rounder	-99
-5.22458	12-string	-99
-5.22458	12.1	-99
-5.22458	120&ndash;2	-99
-5.22458	120cm	-99
-5.22458	121	-99
-5.22458	121st	-99
-5.22458	1220	-99
-5.22458	123	-99
-5.22458	124.3	-99
-5.22458	1244	-99
-4.622519	125	-99
-5.22458	1259	-99
-5.22458	126	-99
-5.22458	127.88	-99
-4.92355	128	-99
-5.22458	1280	-99
-5.22458	1285&ndash;1331	-99
-5.22458	12th	-99
-4.145399	13	-99
-5.22458	13%	-99
-5.22458	13-day	-99
-5.22458	13-match	-99
-4.92355	130	-99
-5.22458	131	-99
-5.22458	131a	-99
-5.22458	132	-99
-5.22458	133.3	-99
-5.22458	1332	-99
-5.22458	134	-99
-5.22458	1350s	-99
-5.22458	136	-99
-5.22458	137.1	-99
-5.22458	1370	-99
-5.22458	139	-99
-5.22458	13th	-99
-4.145399	14	-99
-4.92355	14&ins;	-99
-5.22458	141	-99
-5.22458	142	-99
-5.22458	143.7	-99
-5.22458	145	-99
-4.92355	146	-99
-5.22458	1468	-99
-4.92355	147	-99
-5.22458	147p	-99
-4.747458	14th	-99
-3.994131	15	-99
-5.22458	15%	-99
-4.92355	15&ins;	-99
-5.22458	15-feet-high	-99
-5.22458	15.3%	-99
-4.92355	150	-99
-5.22458	150,000	-99
-5.22458	150th	-99
-5.22458	151	-99
-5.22458	1539	-99
-5.22458	1540	-99
-4.92355	1542	-99
-5.22458	1550	-99
-5.22458	1559	-99
-5.22458	15660	-99
-5.22458	1577	-99
-5.22458	1598	-99
-5.22458	15ci	-99
-5.22458	15th	-99
-4.183187	16	-99
-5.22458	16&ndash;17	-99
-5.22458	16.5	-99
-5.22458	1607	-99
-5.22458	162	-99
-5.22458	1621	-99
-5.22458	1628	-99
-5.22458	163	-99
-4.92355	1648	-99
-5.22458	1671	-99
-5.22458	1679	-99
-5.22458	167a	-99
-5.22458	167b	-99
-5.22458	1685	-99
-5.22458	1693	-99
-5.22458	16th	-99
-4.145399	17	-99
-5.22458	17%	-99
-5.22458	17(i)	-99
-5.22458	17-30	-99
-5.22458	170.3	-99
-5.22458	1701	-99
-5.22458	1702&ndash;13	-99
-5.22458	1709	-99
-5.22458	1715&ndash;1754	-99
-5.22458	1722	-99
-5.22458	1724	-99
-5.22458	1727	-99
-5.22458	1748	-99
-5.22458	175	-99
-5.22458	1750	-99
-5.22458	1765	-99
-5.22458	1777	-99
-5.22458	177p	-99
-5.22458	1780s	-99
-5.22458	1782	-99
-5.22458	1784	-99
-5.22458	1789	-99
-5.22458	1797	-99
-5.22458	17ci	-99
-5.22458	17th	-99
-4.048489	18	-99
-4.92355	18%	-99
-4.747458	18&ins;	-99
-5.22458	18&ndash;12	-99
-5.22458	18&ndash;21	-99
-5.22458	18&ndash;30	-99
-5.22458	18-year-old	-99
-5.22458	1800	-99
-5.22458	1800&ndash;1814	-99
-5.22458	1800s	-99
-5.22458	1803	-99
-4.92355	1810.5	-99
-5.22458	1813	-99
-5.22458	1818	-99
-5.22458	1825	-99
-5.22458	1832	-99
-5.22458	1834	-99
-4.92355	1838	-99
-5.22458	1839&ndash;1901	-99
-4.92355	1840s	-99
-5.22458	1845	-99
-5.22458	1848	-99
-4.747458	1850	-99
-5.22458	1851	-99
-5.22458	1854	-99
-5.22458	1857&ndash;1940	-99
-5.22458	1858	-99
-4.92355	186	-99
-5.22458	1860	-99
-5.22458	1861	-99
-5.22458	1865	-99
-5.22458	1866&ndash;1938	-99
-4.92355	1871	-99
-5.22458	1874	-99
-5.22458	1875	-99
-4.92355	1876	-99
-5.22458	1878	-99
-5.22458	188	-99
-5.22458	1880s	-99
-5.22458	1881	-99
-5.22458	1881&ndash;1955	-99
-5.22458	1884&ndash;1942	-99
-5.22458	1884&ndash;5	-99
-5.22458	1885	-99
-5.22458	1885&ndash;7	-99
-5.22458	1886	-99
-5.22458	1886&ndash;1890.	-99
-5.22458	1888	-99
-5.22458	1890	-99
-5.22458	1890s	-99
-5.22458	1891&ndash;2	-99
-4.92355	1892	-99
-5.22458	1893	-99
-5.22458	1893&ndash;4	-99
-4.622519	1895	-99
-5.22458	1896	-99
-5.22458	1899	-99
-5.22458	18p	-99
-5.22458	18th	-99
-5.22458	18th-century	-99
-4.183187	19	-99
-5.22458	19&ndash;60	-99
-5.22458	190	-99
-4.92355	1900s	-99
-4.92355	1901	-99
-5.22458	1902&ndash;73	-99
-5.22458	1904&ndash;5	-99
-5.22458	1906	-99
-5.22458	1908	-99
-4.747458	1911	-99
-4.92355	1913	-99
-5.22458	1914	-99
-5.22458	1916	-99
-4.747458	1917	-99
-4.622519	1919	-99
-5.22458	192	-99
-5.22458	1920	-99
-5.22458	1920s	-99
-5.22458	1921	-99
-5.22458	1922	-99
-4.92355	1924	-99
-5.22458	1925	-99
-5.22458	1926	-99
-4.92355	1927	-99
-4.92355	1928	-99
-5.22458	1930's	-99
-4.747458	1930s	-99
-5.22458	1932	-99
-4.747458	1933	-99
-5.22458	1934	-99
-5.22458	1936	-99
-5.22458	1937	-99
-5.22458	1938	-99
-4.747458	1940	-99
-4.92355	1941	-99
-4.622519	1942	-99
-4.92355	1943	-99
-5.22458	1944	-99
-4.747458	1945	-99
-5.22458	1945&ndash;51	-99
-5.22458	1947	-99
-5.22458	1948	-99
-5.22458	1949	-99
-4.92355	1950	-99
-4.622519	1950s	-99
-4.92355	1953	-99
-5.22458	1953-.65	-99
-4.622519	1954	-99
-4.525609	1955	-99
-4.92355	1956	-99
-4.622519	1957	-99
-5.22458	1958	-99
-4.92355	1959	-99
-4.747458	1960	-99
-4.379482	1960s	-99
-5.22458	1962	-99
-4.92355	1963	-99
-4.622519	1964	-99
-4.92355	1965	-99
-4.525609	1966	-99
-5.22458	1966&ndash;84	-99
-4.747458	1967	-99
-4.622519	1968	-99
-4.622519	1969	-99
-4.525609	1970	-99
-5.22458	1970's	-99
-4.183187	1970s	-99
-4.379482	1971	-99
-4.622519	1972	-99
-4.747458	1973	-99
-5.22458	1973&ndash;74	-99
-4.622519	1974	-99
-4.525609	1975	-99
-5.22458	1975&ndash;6&ndash;7	-99
-4.525609	1976	-99
-5.22458	1976/67	-99
-5.22458	1976/77	-99
-4.270337	1977	-99
-4.32149	1978	-99
-4.145399	1979	-99
-5.22458	1979a	-99
-4.22458	1980	-99
-4.32149	1980s	-99
-4.22458	1981	-99
-5.22458	1981&ndash;85	-99
-5.22458	1981a	-99
-4.446428	1982	-99
-4.078452	1983	-99
-4.92355	1983a	-99
-4.22458	1984	-99
-5.22458	1984b	-99
-4.32149	1985	-99
-5.22458	1985b	-99
-4.379482	1986	-99
-5.22458	1986b	-99
-5.22458	1986d	-99
-3.994131	1987	-99
-4.02046	1988	-99
-3.945826	1989	-99
-5.22458	1989c	-99
-3.92355	1990	-99
-5.22458	1990b	-99
-4.622519	1990s	-99
-3.994131	1991	-99
-5.22458	1991a	-99
-5.22458	1991b	-99
-4.048489	1992	-99
-4.622519	1993	-99
-5.22458	1993/94	-99
-5.22458	1994	-99
-5.22458	1995	-99
-5.22458	19e&ndash;f	-99
-4.92355	19th	-99
-5.22458	1:1	-99
-5.22458	1cm/&half;inch	-99
-5.22458	1m	-99
-5.22458	1st	-99
-5.22458	1ur	-99
-3.484217	2	-99
-4.92355	2%	-99
-5.22458	2&middot;5cm/1inch	-99
-5.22458	2&ndash;4	-99
-5.22458	2&ndash;6	-99
-5.22458	2&ndash;98	-99
-5.22458	2(5)	-99
-4.92355	2+	-99
-5.22458	2,118	-99
-5.22458	2,500,000	-99
-5.22458	2,700-seat	-99
-5.22458	2,800	-99
-5.22458	2-d	-99
-4.92355	2.1	-99
-5.22458	2.1p	-99
-5.22458	2.2	-99
-5.22458	2.2.19	-99
-5.22458	2.30	-99
-5.22458	2.5	-99
-5.22458	2.5-litre	-99
-5.22458	2.5m	-99
-5.22458	2.6	-99
-5.22458	2.67	-99
-5.22458	2.7.8.	-99
-5.22458	2.7.9	-99
-5.22458	2.71	-99
-5.22458	2.72	-99
-5.22458	2.8224mhz	-99
-5.22458	2.99	-99
-5.22458	2/9	-99
-4.02046	20	-99
-5.22458	20&ndash;34	-99
-4.92355	20,000	-99
-5.22458	20-foot	-99
-5.22458	20-patient	-99
-5.22458	20-strong	-99
-4.183187	200	-99
-5.22458	200&deg;c	-99
-5.22458	200&ndash;275	-99
-5.22458	200&rehy;year-old	-99
-4.92355	200,000	-99
-4.92355	2000	-99
-5.22458	2001	-99
-5.22458	207	-99
-5.22458	20mb	-99
-5.22458	20mhz	-99
-4.379482	20th	-99
-4.379482	21	-99
-5.22458	21&ndash;13	-99
-5.22458	21&ndash;6	-99
-5.22458	213	-99
-5.22458	217	-99
-5.22458	219	-99
-5.22458	21st	-99
-4.145399	22	-99
-5.22458	22%	-99
-5.22458	22-week	-99
-5.22458	22.30	-99
-5.22458	220,000	-99
-5.22458	221	-99
-5.22458	221&ndash;5	-99
-5.22458	225	-99
-5.22458	228&ndash;231	-99
-4.622519	22nd	-99
-4.110636	23	-99
-4.92355	23-year-old	-99
-5.22458	235	-99
-5.22458	23c	-99
-5.22458	23d	-99
-4.145399	24	-99
-5.22458	24-hour	-99
-5.22458	24-sep	-99
-5.22458	24-year-old	-99
-5.22458	2400	-99
-5.22458	240mb	-99
-5.22458	2440mm	-99
-5.22458	245	-99
-5.22458	245-t	-99
-5.22458	248p	-99
-4.183187	25	-99
-4.92355	25%	-99
-4.747458	250	-99
-5.22458	250,000	-99
-5.22458	256	-99
-5.22458	26	-99
-5.22458	26%	-99
-4.92355	26th	-99
-4.622519	27	-99
-5.22458	27-29	-99
-5.22458	27.47	-99
-5.22458	270	-99
-5.22458	275	-99
-5.22458	2769	-99
-4.32149	28	-99
-5.22458	28,000	-99
-5.22458	28-year-old	-99
-5.22458	280	-99
-5.22458	288	-99
-4.270337	29	-99
-5.22458	29&frac12;	-99
-5.22458	290	-99
-5.22458	295	-99
-5.22458	29990	-99
-5.22458	29th	-99
-5.22458	2:1	-99
-5.22458	2:2	-99
-5.22458	2am	-99
-5.22458	2in	-99
-5.22458	2lst	-99
-4.92355	2nd	-99
-5.22458	2oz	-99
-5.22458	2oz/50g	-99
-5.22458	2pm	-99
-5.22458	2tp	-99
-5.22458	2x15&ins;	-99
-3.591111	3	-99
-5.22458	3&ndash;0	-99
-5.22458	3&percnt;	-99
-5.22458	3'	-99
-5.22458	3(1)	-99
-4.92355	3,000	-99
-5.22458	3,000m	-99
-5.22458	3,000th	-99
-5.22458	3,500,000	-99
-5.22458	3-d	-99
-5.22458	3-year	-99
-5.22458	3-year-old	-99
-5.22458	3.1.2.1	-99
-4.92355	3.11	-99
-5.22458	3.20	-99
-5.22458	3.3	-99
-4.92355	3.4	-99
-5.22458	3.5	-99
-5.22458	3.9ise	-99
-5.22458	3/2/92	-99
-4.110636	30	-99
-5.22458	30&ndash;36	-99
-5.22458	30,000	-99
-5.22458	30-april	-99
-4.92355	30-year-old	-99
-4.92355	300	-99
-5.22458	300&deg;c	-99
-5.22458	300-page	-99
-5.22458	3000	-99
-5.22458	301	-99
-5.22458	302	-99
-5.22458	309	-99
-5.22458	30km	-99
-5.22458	30mph	-99
-4.747458	31	-99
-5.22458	31%	-99
-5.22458	317.4	-99
-5.22458	31st	-99
-4.747458	32	-99
-5.22458	320	-99
-5.22458	325	-99
-5.22458	3250	-99
-4.747458	33	-99
-5.22458	335947	-99
-5.22458	338	-99
-5.22458	33m	-99
-4.92355	34	-99
-5.22458	340	-99
-5.22458	3403	-99
-5.22458	34230	-99
-5.22458	343	-99
-5.22458	34767-68	-99
-4.525609	35	-99
-5.22458	35-year-old	-99
-5.22458	354	-99
-5.22458	356	-99
-5.22458	359	-99
-5.22458	35987-88	-99
-4.446428	36	-99
-5.22458	36&ndash;1484	-99
-5.22458	36-hour	-99
-5.22458	36-year-old	-99
-5.22458	366	-99
-5.22458	36629	-99
-5.22458	37.40	-99
-5.22458	370	-99
-5.22458	37120-21	-99
-5.22458	37195	-99
-5.22458	37225	-99
-5.22458	376	-99
-5.22458	37625	-99
-5.22458	37962	-99
-5.22458	38	-99
-5.22458	38,772	-99
-5.22458	380	-99
-5.22458	38107	-99
-5.22458	38118	-99
-5.22458	38174-75	-99
-5.22458	38687-88	-99
-5.22458	38774	-99
-5.22458	38782	-99
-5.22458	38800	-99
-5.22458	38817	-99
-5.22458	38mm	-99
-4.747458	39	-99
-5.22458	39%	-99
-4.92355	390	-99
-5.22458	392	-99
-5.22458	397	-99
-5.22458	397,000	-99
-5.22458	3a	-99
-5.22458	3d	-99
-5.22458	3kg	-99
-5.22458	3rd	-99
-3.733218	4	-99
-5.22458	4%	-99
-5.22458	4&ndash;4&frac12;lb/1.8&ndash;2kg	-99
-5.22458	4-bit	-99
-5.22458	4.0	-99
-5.22458	4.2p	-99
-5.22458	4.5	-99
-5.22458	4.6	-99
-4.22458	40	-99
-5.22458	40,000-strong	-99
-5.22458	400	-99
-5.22458	400,000	-99
-5.22458	4000	-99
-5.22458	4000rpm	-99
-5.22458	4004	-99
-5.22458	406mm	-99
-5.22458	41	-99
-5.22458	42	-99
-5.22458	4291	-99
-5.22458	4356	-99
-5.22458	437	-99
-5.22458	4388	-99
-4.92355	44	-99
-5.22458	440&ndash;570	-99
-5.22458	441	-99
-5.22458	4469	-99
-4.525609	45	-99
-5.22458	45%	-99
-5.22458	450	-99
-5.22458	459707	-99
-5.22458	46p	-99
-5.22458	47	-99
-5.22458	47.5%	-99
-5.22458	471	-99
-5.22458	48	-99
-4.92355	48&ins;	-99
-5.22458	486	-99
-5.22458	4893748	-99
-5.22458	49	-99
-4.92355	490	-99
-5.22458	498,576	-99
-5.22458	4f	-99
-5.22458	4ft	-99
-5.22458	4mb	-99
-5.22458	4oz/100g	-99
-5.22458	4pm	-99
-4.92355	4th	-99
-5.22458	4x12	-99
-3.733218	5	-99
-4.747458	5%	-99
-5.22458	5&frac12;	-99
-5.22458	5&ft;5&ins;	-99
-5.22458	5&ndash;10	-99
-5.22458	5&ndash;10%	-99
-5.22458	5&ndash;9	-99
-4.92355	5,000	-99
-5.22458	5,2	-99
-5.22458	5.0	-99
-5.22458	5.1-ii	-99
-5.22458	5.1.4	-99
-5.22458	5.22	-99
-5.22458	5.3	-99
-5.22458	5.7	-99
-3.945826	50	-99
-5.22458	50&ins;	-99
-5.22458	50-seat	-99
-4.446428	500	-99
-5.22458	500,000-strong	-99
-5.22458	5000	-99
-5.22458	508.66	-99
-5.22458	50g	-99
-5.22458	51	-99
-5.22458	52	-99
-5.22458	52-year-old	-99
-5.22458	525	-99
-4.747458	53	-99
-5.22458	530.2	-99
-5.22458	539.71	-99
-5.22458	54	-99
-5.22458	55	-99
-5.22458	558	-99
-5.22458	56	-99
-5.22458	56-member	-99
-5.22458	56th	-99
-4.92355	57	-99
-5.22458	57%	-99
-5.22458	573	-99
-5.22458	582	-99
-5.22458	5882	-99
-4.747458	59	-99
-5.22458	59%	-99
-5.22458	5km	-99
-3.969307	6	-99
-5.22458	6%	-99
-5.22458	6&ndash;14-year-olds	-99
-5.22458	6&ndash;4	-99
-5.22458	6+	-99
-4.92355	6,000	-99
-5.22458	6,000cc	-99
-5.22458	6-2	-99
-5.22458	6-3	-99
-5.22458	6-7pm	-99
-5.22458	6-string	-99
-5.22458	6.2.2	-99
-5.22458	6.22b	-99
-5.22458	6.3a	-99
-5.22458	6.4b	-99
-4.92355	6.5	-99
-5.22458	6.6&ndash;7.0	-99
-5.22458	6.7	-99
-5.22458	6.9	-99
-4.525609	60	-99
-5.22458	60%	-99
-4.92355	60,000	-99
-4.92355	600	-99
-5.22458	6000	-99
-5.22458	61	-99
-5.22458	61%	-99
-5.22458	62%	-99
-5.22458	623	-99
-5.22458	6250	-99
-5.22458	627	-99
-5.22458	632	-99
-5.22458	63508	-99
-5.22458	638	-99
-5.22458	63rd	-99
-4.747458	64	-99
-5.22458	64-year-old	-99
-5.22458	644	-99
-4.92355	65	-99
-5.22458	65&ndash;70	-99
-5.22458	656438	-99
-5.22458	66	-99
-5.22458	67	-99
-5.22458	67,167	-99
-5.22458	677	-99
-4.92355	68	-99
-5.22458	6838	-99
-5.22458	688.47	-99
-5.22458	69-67	-99
-5.22458	6tbsp	-99
-4.048489	7	-99
-5.22458	7%	-99
-5.22458	7&ndash;2	-99
-4.92355	7&ndash;5	-99
-5.22458	7&ndash;8	-99
-5.22458	7(5)	-99
-5.22458	7,000	-99
-5.22458	7,400	-99
-5.22458	7,850	-99
-5.22458	7.1	-99
-4.92355	7.2	-99
-5.22458	7.2(b)	-99
-5.22458	7.30pm	-99
-5.22458	7.6	-99
-5.22458	7.7	-99
-5.22458	7.9	-99
-5.22458	7/19	-99
-4.622519	70	-99
-5.22458	70,000	-99
-5.22458	700	-99
-5.22458	700,000	-99
-5.22458	700.70	-99
-5.22458	700/rx	-99
-5.22458	708	-99
-5.22458	715	-99
-5.22458	72	-99
-5.22458	739190	-99
-4.92355	74	-99
-4.622519	75	-99
-5.22458	750	-99
-5.22458	75069	-99
-5.22458	750cc	-99
-5.22458	76	-99
-5.22458	760	-99
-5.22458	762	-99
-5.22458	77,000	-99
-5.22458	779	-99
-4.92355	78	-99
-5.22458	78(1)	-99
-5.22458	79	-99
-5.22458	7903282	-99
-4.747458	7th	-99
-3.969307	8	-99
-5.22458	8%	-99
-5.22458	8.2	-99
-5.22458	8.4(b)	-99
-5.22458	8.6	-99
-5.22458	8.77	-99
-4.92355	80	-99
-5.22458	80%	-99
-5.22458	80-billion-dollar	-99
-5.22458	80/70	-99
-4.525609	800	-99
-5.22458	8000	-99
-5.22458	800g	-99
-5.22458	80486	-99
-4.92355	81	-99
-4.92355	82	-99
-5.22458	82&ndash;5	-99
-5.22458	8214	-99
-5.22458	8250	-99
-4.747458	84	-99
-5.22458	85	-99
-4.747458	852	-99
-4.92355	86	-99
-4.92355	87	-99
-5.22458	88	-99
-5.22458	89	-99
-5.22458	89(4)	-99
-5.22458	8oz/225g	-99
-5.22458	8pm	-99
-4.379482	9	-99
-5.22458	9%	-99
-4.747458	90	-99
-4.92355	900	-99
-5.22458	900,000	-99
-5.22458	9000s	-99
-5.22458	90ml	-99
-5.22458	911	-99
-5.22458	912s	-99
-5.22458	919	-99
-5.22458	9225	-99
-4.92355	93	-99
-5.22458	93%	-99
-5.22458	9300	-99
-5.22458	948	-99
-5.22458	95%	-99
-5.22458	97-mph	-99
-5.22458	98	-99
-5.22458	98fm	-99
-5.22458	9986/4175	-99
-5.22458	999	-99
-5.22458	9:6	-99
-5.22458	9m	-99
-4.747458	9th	-99
-5.22458	9uz	-99
-1.23207	</s>
-99	<s>	-99
-4.270337	=	-99
-1.666111	a	-99
-4.92355	a-level	-99
-5.22458	a-levels	-99
-4.379482	a.	-99
-4.92355	a.c.	-99
-5.22458	a.g.	-99
-4.92355	a.m	-99
-5.22458	a.m.	-99
-5.22458	a13123	-99
-4.92355	a2	-99
-5.22458	a4	-99
-5.22458	aa	-99
-5.22458	aaaah	-99
-5.22458	ababa	-99
-4.92355	abandon	-99
-5.22458	abaya	-99
-4.747458	abbey	-99
-5.22458	abbott	-99
-5.22458	abbreviated	-99
-5.22458	abc	-99
-5.22458	abdel	-99
-5.22458	abdur	-99
-5.22458	abe	-99
-4.92355	aberdeen	-99
-5.22458	aberdeenshire	-99
-4.92355	aberystwyth	-99
-5.22458	abiding	-99
-3.90236	ability	-99
-5.22458	abkhaz	-99
-5.22458	abkhazia	-99
-3.543339	able	-99
-5.22458	abnormal	-99
-5.22458	aboard	-99
-4.747458	abolish	-99
-4.92355	abolition	-99
-5.22458	abomination	-99
-5.22458	abound	-99
-2.750363	about	-99
-3.517009	above	-99
-4.92355	abreast	-99
-4.747458	abroad	-99
-5.22458	abrupt	-99
-4.92355	abruptly	-99
-5.22458	abseiling	-99
-4.32149	absence	-99
-5.22458	absent	-99
-4.446428	absolute	-99
-4.048489	absolutely	-99
-4.92355	absorb	-99
-4.747458	absorption	-99
-5.22458	abstinence	-99
-5.22458	abstract	-99
-5.22458	abstraction	-99
-4.92355	absurd	-99
-5.22458	absurdly	-99
-5.22458	abu	-99
-4.92355	abundance	-99
-5.22458	abundant	-99
-4.525609	abuse	-99
-4.92355	abusive	-99
-5.22458	abysmal	-99
-5.22458	acacia	-99
-4.525609	academic	-99
-4.747458	accelerate	-99
-5.22458	accelerating	-99
-5.22458	acceleration	-99
-4.747458	accent	-99
-5.22458	accentuate	-99
-3.543339	accept	-99
-4.92355	acceptability	-99
-4.446428	acceptable	-99
-4.92355	acceptance	-99
-4.747458	accepted	-99
-3.92355	access	-99
-5.22458	accessibility	-99
-4.92355	accessible	-99
-4.92355	accessory	-99
-4.183187	accident	-99
-5.22458	accidental	-99
-5.22458	accidentally	-99
-5.22458	accolade	-99
-4.92355	accommodate	-99
-4.379482	accommodation	-99
-4.183187	accompany	-99
-4.92355	accompanying	-99
-5.22458	accomplish	-99
-4.747458	accomplished	-99
-3.656378	according	-99
-4.525609	accordingly	-99
-3.508576	account	-99
-4.92355	accountability	-99
-5.22458	accountable	-99
-4.92355	accountancy	-99
-4.622519	accountant	-99
-4.622519	accounting	-99
-5.22458	accross	-99
-5.22458	accrue	-99
-4.92355	accumulate	-99
-5.22458	accumulated	-99
-5.22458	accumulator	-99
-4.747458	accuracy	-99
-4.270337	accurate	-99
-5.22458	accurately	-99
-4.183187	accuse	-99
-5.22458	accused	-99
-5.22458	accustomed	-99
-4.622519	ace	-99
-5.22458	acer	-99
-5.22458	acetone	-99
-5.22458	ache	-99
-3.945826	achieve	-99
-4.32149	achievement	-99
-5.22458	aching	-99
-5.22458	achlorhydria	-99
-4.92355	acid	-99
-4.379482	acknowledge	-99
-5.22458	acknowledged	-99
-5.22458	acknowledgement	-99
-5.22458	aclet	-99
-5.22458	acme	-99
-4.747458	acoustic	-99
-5.22458	acoustic-phonetic	-99
-5.22458	acoustics	-99
-5.22458	acp	-99
-4.92355	acquaint	-99
-5.22458	acquiesce	-99
-4.183187	acquire	-99
-4.747458	acquisition	-99
-5.22458	acquittal	-99
-5.22458	acqusition	-99
-5.22458	acre	-99
-5.22458	acre/	-99
-4.747458	acres	-99
-5.22458	acrimonious	-99
-3.552482	across	-99
-3.379482	act	-99
-5.22458	acti	-99
-4.92355	acting	-99
-3.517009	action	-99
-4.92355	actionable	-99
-4.92355	activate	-99
-4.747458	activation	-99
-4.183187	active	-99
-4.747458	actively	-99
-4.622519	activist	-99
-3.508576	activity	-99
-5.22458	activity-based	-99
-4.622519	actor	-99
-5.22458	actress	-99
-4.622519	acts	-99
-4.22458	actual	-99
-5.22458	actualization	-99
-3.534384	actually	-99
-4.525609	acute	-99
-4.92355	acutely	-99
-4.622519	ad	-99
-5.22458	ad-libbing	-99
-5.22458	adage	-99
-5.22458	adagietto	-99
-4.446428	adam	-99
-5.22458	adamant	-99
-5.22458	adamec	-99
-4.622519	adams	-99
-5.22458	adana	-99
-4.622519	adapt	-99
-5.22458	adaptor	-99
-3.611796	add	-99
-4.622519	added	-99
-4.92355	addict	-99
-5.22458	addis	-99
-5.22458	addison	-99
-4.92355	addition	-99
-4.048489	additional	-99
-5.22458	additive	-99
-3.994131	address	-99
-5.22458	adduce	-99
-5.22458	adduct	-99
-5.22458	adelekan	-99
-4.92355	adenocarcinoma	-99
-4.270337	adequate	-99
-4.92355	adequately	-99
-5.22458	adewumi	-99
-5.22458	adf	-99
-5.22458	adherence	-99
-5.22458	adhesion	-99
-5.22458	adhesiveness	-99
-5.22458	adi	-99
-4.92355	adjacent	-99
-5.22458	adjoining	-99
-5.22458	adjourn	-99
-5.22458	adjudication	-99
-5.22458	adjudicator	-99
-4.525609	adjust	-99
-4.747458	adjuster	-99
-4.525609	adjustment	-99
-5.22458	adkin	-99
-5.22458	adler	-99
-4.747458	admin	-99
-4.747458	administer	-99
-4.145399	administration	-99
-4.525609	administrative	-99
-4.747458	administrator	-99
-4.747458	admirable	-99
-4.92355	admiral	-99
-5.22458	admiralty	-99
-4.92355	admire	-99
-5.22458	admirer	-99
-4.622519	admission	-99
-4.078452	admit	-99
-5.22458	admitting	-99
-5.22458	admonition	-99
-5.22458	adolfo	-99
-4.078452	adopt	-99
-4.747458	adoption	-99
-4.747458	adore	-99
-4.92355	adorn	-99
-4.92355	adrenal	-99
-5.22458	adrenaline	-99
-4.92355	adrian	-99
-5.22458	adsorb	-99
-5.22458	adua	-99
-4.270337	adult	-99
-5.22458	adulthood	-99
-3.945826	advance	-99
-4.270337	advanced	-99
-5.22458	advancement	-99
-5.22458	advancing	-99
-3.777422	advantage	-99
-4.622519	adventure	-99
-5.22458	adventurer	-99
-5.22458	adverb	-99
-4.92355	adverbial	-99
-5.22458	adversary	-99
-4.92355	adverse	-99
-4.747458	adversely	-99
-4.92355	advert	-99
-4.622519	advertise	-99
-4.747458	advertisement	-99
-5.22458	advertiser	-99
-4.525609	advertising	-99
-4.02046	advice	-99
-4.270337	advise	-99
-4.32149	adviser	-99
-5.22458	advisor	-99
-4.525609	advisory	-99
-5.22458	advocacy	-99
-4.747458	advocate	-99
-5.22458	aenarion	-99
-5.22458	aerobatic	-99
-5.22458	aeroplane	-99
-5.22458	aerosol	-99
-4.747458	aerospace	-99
-5.22458	aesculus	-99
-5.22458	aesthetic	-99
-5.22458	aesthetically-numb	-99
-5.22458	aestheticization	-99
-5.22458	aesthetics	-99
-5.22458	aetiology	-99
-5.22458	afar	-99
-5.22458	afe	-99
-4.622519	affair	-99
-4.183187	affairs	-99
-3.882157	affect	-99
-4.446428	affection	-99
-4.92355	affectionate	-99
-5.22458	affectionately	-99
-5.22458	affective	-99
-5.22458	affiliation	-99
-5.22458	affirm	-99
-4.92355	affluence	-99
-4.622519	afford	-99
-5.22458	afghan	-99
-5.22458	afhq	-99
-5.22458	afield	-99
-5.22458	afloat	-99
-5.22458	aforementioned	-99
-4.110636	afraid	-99
-4.270337	africa	-99
-4.446428	african	-99
-5.22458	africanist	-99
-5.22458	afro-caribbean	-99
-2.994131	after	-99
-5.22458	after-theatre	-99
-4.747458	aftermath	-99
-3.969307	afternoon	-99
-5.22458	afterthought	-99
-4.747458	afterwards	-99
-4.92355	ag	-99
-5.22458	ag.	-99
-3.290081	again	-99
-3.20339	against	-99
-5.22458	agape	-99
-3.591111	age	-99
-4.32149	aged	-99
-4.110636	agency	-99
-4.92355	agenda	-99
-4.02046	agent	-99
-5.22458	aggravation	-99
-5.22458	aggression	-99
-4.747458	aggressive	-99
-5.22458	aggressively	-99
-4.92355	aggro	-99
-5.22458	agility	-99
-5.22458	agitate	-99
-5.22458	agm	-99
-5.22458	agnelli	-99
-4.622519	agnes	-99
-5.22458	agnew	-99
-3.668277	ago	-99
-4.92355	agony	-99
-5.22458	agoraphobia	-99
-5.22458	agostini	-99
-5.22458	agr	-99
-3.747458	agree	-99
-5.22458	agreeable	-99
-4.622519	agreed	-99
-3.809606	agreement	-99
-4.32149	agricultural	-99
-4.525609	agriculture	-99
-5.22458	aguinaldo	-99
-4.22458	ah	-99
-4.379482	aha	-99
-4.270337	ahead	-99
-5.22458	ahistorical	-99
-5.22458	ahmed	-99
-4.32149	ai	-99
-3.862852	aid	-99
-5.22458	aide	-99
-5.22458	aides	-99
-4.747458	aids	-99
-5.22458	aigun	-99
-5.22458	aileen	-99
-5.22458	ailing	-99
-3.706066	aim	-99
-5.22458	ainsworth	-99
-3.71943	air	-99
-5.22458	air-conditioner	-99
-5.22458	air-holes	-99
-4.92355	air-rifle	-99
-5.22458	airbags	-99
-4.145399	aircraft	-99
-5.22458	airdrie	-99
-4.92355	airfield	-99
-5.22458	airforce	-99
-5.22458	airframe	-99
-5.22458	airlift	-99
-4.622519	airline	-99
-4.92355	airplane	-99
-4.270337	airport	-99
-5.22458	airstrip	-99
-5.22458	airtime	-99
-4.747458	airway	-99
-5.22458	airy	-99
-5.22458	aisle	-99
-5.22458	aitken	-99
-5.22458	ak-47	-99
-5.22458	akers	-99
-5.22458	akin	-99
-5.22458	akpata	-99
-5.22458	akrotiri	-99
-5.22458	aksarayi	-99
-5.22458	al	-99
-5.22458	al-haroun	-99
-5.22458	al-karim	-99
-5.22458	al-sarayirah	-99
-5.22458	alacrity	-99
-5.22458	alain	-99
-4.525609	alan	-99
-4.379482	alarm	-99
-5.22458	alasdair	-99
-5.22458	alato	-99
-5.22458	albania	-99
-5.22458	albanian	-99
-4.747458	albeit	-99
-4.446428	albert	-99
-5.22458	alberto	-99
-5.22458	albion	-99
-5.22458	albrecht	-99
-4.270337	album	-99
-5.22458	alca	-99
-5.22458	alcatel	-99
-5.22458	alcide	-99
-4.622519	alcohol	-99
-5.22458	alcoholic	-99
-5.22458	alcove	-99
-5.22458	alderley	-99
-5.22458	aldhelm	-99
-5.22458	aldington	-99
-5.22458	alert	-99
-5.22458	alex	-99
-4.622519	alexander	-99
-4.92355	alexandra	-99
-4.92355	alexandria	-99
-5.22458	alexei	-99
-5.22458	alfie	-99
-5.22458	alfio	-99
-5.22458	alfonso	-99
-5.22458	alford	-99
-5.22458	alfoxden	-99
-4.92355	alfred	-99
-5.22458	alfredo	-99
-5.22458	algae	-99
-5.22458	algebra	-99
-4.92355	algerian	-99
-5.22458	algorithm	-99
-4.525609	ali	-99
-5.22458	alibi	-99
-4.379482	alice	-99
-4.92355	alien	-99
-5.22458	alight	-99
-5.22458	align	-99
-4.92355	alike	-99
-5.22458	aliquot	-99
-4.92355	alison	-99
-4.92355	alistair	-99
-4.747458	alive	-99
-2.562767	all	-99
-5.22458	all-embracing	-99
-5.22458	all-german	-99
-5.22458	all-in	-99
-5.22458	all-providing	-99
-5.22458	all-rounder	-99
-5.22458	all-time	-99
-5.22458	all-weather	-99
-5.22458	allah	-99
-4.747458	allan	-99
-4.92355	allegation	-99
-5.22458	allege	-99
-4.92355	alleged	-99
-4.622519	allegiance	-99
-5.22458	allele	-99
-4.92355	allen	-99
-5.22458	allergy	-99
-5.22458	alleyway	-99
-4.622519	alliance	-99
-4.525609	allied	-99
-5.22458	allied-signal	-99
-5.22458	allies	-99
-5.22458	alliprandi	-99
-4.622519	allocate	-99
-5.22458	allocated	-99
-4.747458	allocation	-99
-5.22458	allod	-99
-5.22458	allot	-99
-4.92355	allotment	-99
-3.43925	allow	-99
-4.747458	allowance	-99
-5.22458	alloy	-99
-4.92355	allude	-99
-5.22458	alluring	-99
-5.22458	allusion	-99
-4.747458	ally	-99
-5.22458	alma-tadema	-99
-5.22458	almitrine	-99
-3.581127	almost	-99
-5.22458	almost-accidental	-99
-3.90236	alone	-99
-3.71943	along	-99
-4.446428	alongside	-99
-5.22458	alor	-99
-4.622519	aloud	-99
-4.92355	alpha-1	-99
-5.22458	alphabet	-99
-5.22458	alphabetically	-99
-5.22458	alpine	-99
-5.22458	alps	-99
-3.591111	already	-99
-4.92355	alresford	-99
-3.92355	alright	-99
-5.22458	alsager	-99
-2.939022	also	-99
-4.747458	altar	-99
-4.379482	alter	-99
-4.747458	alteration	-99
-3.969307	alternative	-99
-4.446428	alternatively	-99
-3.305502	although	-99
-4.92355	altitude	-99
-4.747458	altogether	-99
-5.22458	alton	-99
-4.622519	aluminium	-99
-5.22458	alumino-	-99
-5.22458	alvarez	-99
-3.251452	always	-99
-5.22458	alyn	-99
-5.22458	alyson	-99
-4.92355	alyssia	-99
-5.22458	alzheimer	-99
-4.92355	am	-99
-5.22458	amalgamemnon	-99
-4.92355	amanda	-99
-5.22458	amasha	-99
-4.92355	amateur	-99
-4.747458	amazed	-99
-4.92355	amazement	-99
-4.747458	amazing	-99
-5.22458	amazingly	-99
-5.22458	amazonian	-99
-4.525609	ambassador	-99
-5.22458	ambience	-99
-4.446428	ambiguity	-99
-4.92355	ambiguous	-99
-5.22458	ambion	-99
-4.446428	ambition	-99
-5.22458	ambitious	-99
-4.92355	ambivalent	-99
-4.92355	ambleside	-99
-4.747458	ambulance	-99
-4.747458	amelia	-99
-5.22458	ameliorate	-99
-4.92355	amenable	-99
-4.622519	amend	-99
-4.622519	amendment	-99
-5.22458	amenities	-99
-5.22458	amenity	-99
-4.078452	america	-99
-3.82664	american	-99
-5.22458	ami	-99
-5.22458	amiable	-99
-5.22458	amiably	-99
-5.22458	amicably	-99
-4.622519	amid	-99
-5.22458	amidships	-99
-5.22458	amidst	-99
-5.22458	amiga	-99
-5.22458	amir	-99
-5.22458	amis	-99
-5.22458	ammeter	-99
-5.22458	ammonium	-99
-5.22458	ammunition	-99
-4.92355	amnesty	-99
-5.22458	amniotic	-99
-3.680512	among	-99
-4.270337	amongst	-99
-4.92355	amorphous	-99
-5.22458	amory	-99
-3.611796	amount	-99
-5.22458	amour	-99
-5.22458	amp&egrave;re	-99
-5.22458	ampeg	-99
-4.92355	ample	-99
-5.22458	amplitude	-99
-5.22458	amply	-99
-5.22458	amputate	-99
-4.92355	amstrad	-99
-5.22458	amur	-99
-4.92355	amuse	-99
-4.92355	amused	-99
-5.22458	amusement	-99
-4.92355	amusing	-99
-5.22458	amusingly	-99
-5.22458	amv	-99
-2.459657	an	-99
-4.747458	an'	-99
-4.747458	ana	-99
-4.92355	anaemia	-99
-4.92355	anal	-99
-5.22458	analogous	-99
-5.22458	analogue	-99
-4.92355	analogy	-99
-4.446428	analyse	-99
-3.969307	analysis	-99
-4.747458	analyst	-99
-5.22458	analytic	-99
-4.92355	analytical	-99
-5.22458	analyze	-99
-5.22458	anand	-99
-5.22458	anaphoric	-99
-4.92355	anarch	-99
-5.22458	anatomical	-99
-5.22458	anatomy	-99
-5.22458	anc	-99
-5.22458	ancestor	-99
-5.22458	ancestress	-99
-4.92355	anchor	-99
-5.22458	anchorman	-99
-5.22458	anchorthies	-99
-4.22458	ancient	-99
-5.22458	ancillaries	-99
-5.22458	ancillary	-99
-5.22458	ancrene	-99
-1.57369	and	-99
-4.92355	andersen	-99
-4.747458	anderson	-99
-5.22458	andr&eacute;	-99
-5.22458	andrei	-99
-5.22458	andrejcak	-99
-4.22458	andrew	-99
-4.747458	andrews	-99
-4.622519	andy	-99
-5.22458	anecdotal	-99
-4.92355	anfield	-99
-4.92355	angel	-99
-5.22458	angela	-99
-5.22458	angeles	-99
-4.525609	anger	-99
-5.22458	angie	-99
-4.446428	angle	-99
-5.22458	anglo-irish	-99
-5.22458	anglo-saxon	-99
-4.446428	angry	-99
-5.22458	anguilla	-99
-5.22458	anguish	-99
-4.92355	angus	-99
-5.22458	anhydrite	-99
-3.882157	animal	-99
-5.22458	animate	-99
-4.747458	animation	-99
-5.22458	animosity	-99
-5.22458	anita	-99
-5.22458	ankara	-99
-4.622519	ankle	-99
-4.622519	ann	-99
-4.747458	anna	-99
-5.22458	annamese	-99
-4.446428	anne	-99
-5.22458	annex	-99
-4.446428	anniversary	-99
-5.22458	annotate	-99
-3.882157	announce	-99
-4.747458	announcement	-99
-5.22458	annoy	-99
-4.525609	annoyed	-99
-5.22458	annoying	-99
-4.02046	annual	-99
-5.22458	annually	-99
-5.22458	anoch	-99
-4.92355	anorexic	-99
-3.305502	another	-99
-5.22458	anslysed	-99
-3.733218	answer	-99
-5.22458	answerable	-99
-5.22458	ant	-99
-5.22458	antares	-99
-5.22458	antenna	-99
-5.22458	antenne	-99
-5.22458	antenor	-99
-5.22458	anteroom	-99
-5.22458	anthelmintic	-99
-5.22458	anther	-99
-5.22458	anthias	-99
-5.22458	anthology	-99
-4.379482	anthony	-99
-5.22458	anthropology	-99
-4.747458	anti	-99
-5.22458	anti&rehy;superstitious	-99
-5.22458	anti-&bgr;	-99
-5.22458	anti-aa	-99
-5.22458	anti-basque	-99
-5.22458	anti-democratic	-99
-5.22458	anti-estab	-99
-5.22458	anti-immigrant	-99
-5.22458	anti-infective	-99
-5.22458	anti-inflammatory	-99
-5.22458	anti-roman	-99
-5.22458	anti-semitism	-99
-4.92355	anti-social	-99
-5.22458	anti-soviet	-99
-5.22458	anti-terrorist	-99
-5.22458	anti-u	-99
-5.22458	anti-viral	-99
-5.22458	antibiotic	-99
-4.92355	antibody	-99
-5.22458	antic	-99
-5.22458	anticipate	-99
-5.22458	anticipation	-99
-4.92355	antidote	-99
-4.525609	antigen	-99
-5.22458	antigen-rich	-99
-5.22458	antigua	-99
-5.22458	antipathy	-99
-5.22458	antipodes	-99
-4.747458	antique	-99
-5.22458	antisocial	-99
-5.22458	antiterrorista	-99
-4.92355	antitrypsin	-99
-5.22458	antoinette	-99
-5.22458	antonio	-99
-5.22458	antrim	-99
-4.747458	anxiety	-99
-4.446428	anxious	-99
-4.747458	anxiously	-99
-2.936778	any	-99
-4.22458	anybody	-99
-5.22458	anyhow	-99
-5.22458	anymore	-99
-3.92355	anyone	-99
-5.22458	anyone&mdash;including	-99
-3.543339	anything	-99
-3.777422	anyway	-99
-4.446428	anywhere	-99
-4.92355	aorta	-99
-5.22458	ap	-99
-4.048489	apart	-99
-4.92355	apartment	-99
-5.22458	apc	-99
-5.22458	apennines	-99
-4.92355	apex	-99
-5.22458	aphorism	-99
-5.22458	aplysia	-99
-5.22458	apollo	-99
-5.22458	apologetic	-99
-4.92355	apologise	-99
-4.747458	apologize	-99
-5.22458	apology	-99
-5.22458	apothecary	-99
-5.22458	appalled	-99
-4.92355	appalling	-99
-5.22458	apparatus	-99
-5.22458	apparel	-99
-4.183187	apparent	-99
-4.02046	apparently	-99
-3.82664	appeal	-99
-5.22458	appealing	-99
-3.552482	appear	-99
-4.110636	appearance	-99
-4.747458	appellant	-99
-5.22458	appellate	-99
-4.92355	appendix	-99
-4.92355	appetite	-99
-5.22458	appio	-99
-4.747458	applause	-99
-4.747458	apple	-99
-5.22458	appleby	-99
-5.22458	appleton	-99
-4.747458	applicable	-99
-4.747458	applicant	-99
-3.882157	application	-99
-4.92355	applied	-99
-3.733218	apply	-99
-3.882157	appoint	-99
-4.02046	appointment	-99
-5.22458	apposed	-99
-4.525609	appraisal	-99
-5.22458	appraise	-99
-5.22458	appreciable	-99
-4.525609	appreciate	-99
-4.747458	appreciation	-99
-5.22458	apprehension	-99
-5.22458	apprehensive	-99
-4.622519	apprentice	-99
-5.22458	apprenticeship	-99
-3.706066	approach	-99
-5.22458	approbation	-99
-3.82664	appropriate	-99
-4.92355	appropriately	-99
-4.92355	appropriation	-99
-4.622519	approval	-99
-4.183187	approve	-99
-4.747458	approved	-99
-4.747458	approx	-99
-5.22458	approximate	-99
-4.747458	approximately	-99
-3.945826	april	-99
-5.22458	apron	-99
-5.22458	aprroached	-99
-5.22458	aptly	-99
-5.22458	aqib	-99
-5.22458	aqmd	-99
-5.22458	aqua	-99
-4.92355	aquarium	-99
-5.22458	aquascape	-99
-4.92355	aquatic	-99
-5.22458	aquilinum	-99
-4.622519	arab	-99
-5.22458	arabia	-99
-5.22458	arabic	-99
-5.22458	arable	-99
-5.22458	aragon	-99
-5.22458	araminta	-99
-5.22458	arbib	-99
-4.92355	arbiter	-99
-4.92355	arbitrage	-99
-5.22458	arbitrarily	-99
-5.22458	arbitrary	-99
-4.622519	arbitration	-99
-5.22458	arbitrator	-99
-5.22458	arc	-99
-5.22458	arcade	-99
-5.22458	arcam	-99
-4.525609	arch	-99
-4.747458	archaeological	-99
-5.22458	archaeologist	-99
-4.622519	archbishop	-99
-5.22458	archdeacon	-99
-5.22458	archduke	-99
-4.92355	arched	-99
-5.22458	archetypal	-99
-5.22458	architect	-99
-4.92355	architectural	-99
-4.747458	architecture	-99
-5.22458	archival	-99
-4.92355	archive	-99
-5.22458	archives	-99
-4.92355	archivist	-99
-4.379482	arctic	-99
-5.22458	arditti	-99
-5.22458	ardkinglas	-99
-5.22458	ards	-99
-3.20339	area	-99
-4.747458	arena	-99
-5.22458	argos	-99
-3.844368	argue	-99
-4.02046	argument	-99
-4.92355	argyll	-99
-5.22458	argyrophil	-99
-4.92355	ari	-99
-5.22458	ariccia	-99
-5.22458	aries	-99
-5.22458	aris	-99
-3.92355	arise	-99
-4.92355	arisings	-99
-4.92355	aristocracy	-99
-4.92355	aristocratic	-99
-5.22458	ariston	-99
-4.92355	arithmetic	-99
-5.22458	arius	-99
-3.809606	arm	-99
-5.22458	armadillo	-99
-4.92355	armani	-99
-5.22458	armchair	-99
-4.270337	armed	-99
-4.92355	armour	-99
-5.22458	armoured	-99
-3.969307	arms	-99
-4.078452	army	-99
-5.22458	arnaud	-99
-5.22458	arnki	-99
-5.22458	arno	-99
-5.22458	arnold	-99
-4.92355	aroma	-99
-5.22458	aromatherapy	-99
-5.22458	aromatics	-99
-3.32149	around	-99
-4.747458	arousal	-99
-5.22458	arouse	-99
-5.22458	arp	-99
-4.02046	arrange	-99
-4.92355	arranged	-99
-3.994131	arrangement	-99
-4.747458	array	-99
-5.22458	arrears	-99
-4.048489	arrest	-99
-4.379482	arrival	-99
-3.882157	arrive	-99
-5.22458	arrogance	-99
-4.747458	arrow	-99
-5.22458	arsa	-99
-5.22458	arse	-99
-4.747458	arsenal	-99
-5.22458	arson	-99
-5.22458	arsonist	-99
-3.945826	art	-99
-5.22458	artefact	-99
-4.92355	arterial	-99
-5.22458	artery	-99
-5.22458	artha	-99
-4.92355	arthritis	-99
-4.622519	arthur	-99
-3.90236	article	-99
-4.92355	articulate	-99
-5.22458	artificer	-99
-4.92355	artificial	-99
-5.22458	artillery	-99
-5.22458	artisan	-99
-4.145399	artist	-99
-4.525609	artistic	-99
-5.22458	artistically	-99
-5.22458	artlessness	-99
-5.22458	artnewsletter	-99
-4.32149	arts	-99
-4.92355	artwork	-99
-5.22458	arwyn	-99
-5.22458	aryan	-99
-2.210479	as	-99
-5.22458	asa	-99
-5.22458	asbestos	-99
-4.622519	ascertain	-99
-5.22458	ascii	-99
-5.22458	ascites	-99
-5.22458	ascitic	-99
-5.22458	ascot	-99
-4.92355	ascribe	-99
-4.92355	asda	-99
-5.22458	asean	-99
-5.22458	asexual	-99
-5.22458	asexuality	-99
-4.622519	ash	-99
-5.22458	ashamed	-99
-5.22458	ashdown	-99
-5.22458	ashenden	-99
-4.92355	ashley	-99
-4.92355	ashtray	-99
-5.22458	ashwell	-99
-4.379482	asia	-99
-4.446428	asian	-99
-5.22458	asics	-99
-4.446428	aside	-99
-3.290081	ask	-99
-4.747458	asleep	-99
-4.183187	aspect	-99
-5.22458	aspiration	-99
-4.92355	aspirin	-99
-5.22458	ass	-99
-4.92355	assail	-99
-4.92355	assassination	-99
-4.92355	assault	-99
-5.22458	assay	-99
-5.22458	assemblage	-99
-5.22458	assemble	-99
-4.02046	assembly	-99
-4.92355	assent	-99
-5.22458	assert	-99
-5.22458	assertion	-99
-4.92355	assertive	-99
-4.078452	assess	-99
-3.994131	assessment	-99
-5.22458	assessor	-99
-5.22458	asset	-99
-4.446428	assets	-99
-5.22458	asshole	-99
-5.22458	assign	-99
-4.622519	assignment	-99
-5.22458	assignor	-99
-4.92355	assimilate	-99
-5.22458	assimilatory	-99
-4.525609	assist	-99
-4.747458	assistance	-99
-4.379482	assistant	-99
-4.078452	associate	-99
-4.747458	associated	-99
-4.110636	association	-99
-5.22458	associational	-99
-5.22458	associative	-99
-5.22458	assorted	-99
-5.22458	assuage	-99
-3.994131	assume	-99
-4.145399	assumption	-99
-4.446428	assurance	-99
-4.92355	assure	-99
-5.22458	aster	-99
-5.22458	asterisk	-99
-5.22458	asteroid	-99
-4.622519	asthma	-99
-5.22458	astley	-99
-5.22458	aston	-99
-4.747458	astonished	-99
-4.622519	astonishing	-99
-4.92355	astonishment	-99
-5.22458	astounded	-99
-5.22458	astrological	-99
-5.22458	astronomer	-99
-5.22458	asturias	-99
-5.22458	asuryan	-99
-4.92355	asylum	-99
-5.22458	asymmetrical	-99
-2.277146	at	-99
-5.22458	at3	-99
-5.22458	ateriography	-99
-4.747458	athelstan	-99
-5.22458	athenian	-99
-4.747458	atkins	-99
-5.22458	atkinson	-99
-5.22458	atlanta	-99
-4.622519	atlantic	-99
-4.525609	atmosphere	-99
-4.92355	atmospheric	-99
-4.747458	atom	-99
-5.22458	atomic	-99
-5.22458	atomistic	-99
-5.22458	atonement	-99
-5.22458	atrium	-99
-5.22458	atrocity	-99
-4.32149	attach	-99
-4.92355	attachment	-99
-3.762182	attack	-99
-4.747458	attacker	-99
-4.92355	attainers	-99
-5.22458	attainment	-99
-3.60133	attempt	-99
-4.92355	attempted	-99
-3.809606	attend	-99
-5.22458	attendance	-99
-4.92355	attendant	-99
-5.22458	attender	-99
-3.862852	attention	-99
-5.22458	attenuation	-99
-3.969307	attitude	-99
-5.22458	attitudinal	-99
-5.22458	attlee	-99
-4.92355	attorney	-99
-4.183187	attract	-99
-5.22458	attraction	-99
-4.446428	attractive	-99
-5.22458	attributable	-99
-4.379482	attribute	-99
-5.22458	atubu	-99
-4.622519	atwell	-99
-4.92355	auburn	-99
-4.92355	auckland	-99
-4.525609	auction	-99
-5.22458	auctioneer	-99
-4.747458	audible	-99
-4.446428	audience	-99
-5.22458	audio.visual	-99
-4.622519	audit	-99
-5.22458	audited	-99
-5.22458	auditing	-99
-4.747458	auditor	-99
-5.22458	aug	-99
-5.22458	aug&ndash;18	-99
-4.446428	aug.	-99
-5.22458	augment	-99
-5.22458	augmentation	-99
-4.32149	august	-99
-5.22458	auguste	-99
-5.22458	augustine	-99
-4.92355	augustus	-99
-5.22458	auk	-99
-5.22458	aung	-99
-4.446428	aunt	-99
-5.22458	aurigny	-99
-5.22458	auschwitz	-99
-4.92355	auspex	-99
-5.22458	aust	-99
-5.22458	austere	-99
-5.22458	austin	-99
-4.525609	australia	-99
-5.22458	austria	-99
-5.22458	austrian	-99
-4.747458	authentic	-99
-5.22458	authentically	-99
-4.32149	author	-99
-5.22458	authorisation	-99
-4.747458	authorise	-99
-5.22458	authoritarian	-99
-4.747458	authoritative	-99
-3.71943	authorities	-99
-3.969307	authority	-99
-5.22458	authorization	-99
-5.22458	authorize	-99
-5.22458	autograph	-99
-5.22458	automated	-99
-4.446428	automatic	-99
-4.622519	automatically	-99
-5.22458	automobile	-99
-4.92355	autonomous	-99
-4.747458	autonomy	-99
-5.22458	autopilot	-99
-4.32149	autumn	-99
-5.22458	auxiliary	-99
-5.22458	av	-99
-5.22458	ava	-99
-3.581127	available	-99
-5.22458	avec	-99
-5.22458	avellana	-99
-5.22458	avenue	-99
-4.048489	average	-99
-5.22458	averaging	-99
-5.22458	averil	-99
-5.22458	avert	-99
-5.22458	avery	-99
-5.22458	avia	-99
-4.92355	aviation	-99
-5.22458	avidly	-99
-5.22458	aviions	-99
-5.22458	avium	-99
-5.22458	aviv	-99
-3.92355	avoid	-99
-5.22458	avoidable	-99
-5.22458	avon	-99
-4.446428	await	-99
-4.622519	awake	-99
-5.22458	awaken	-99
-3.71943	award	-99
-5.22458	award-winning	-99
-3.969307	aware	-99
-4.32149	awareness	-99
-3.32149	away	-99
-4.92355	awesome	-99
-4.379482	awful	-99
-4.747458	awkward	-99
-5.22458	awning	-99
-5.22458	axa	-99
-4.92355	axe	-99
-5.22458	axford	-99
-5.22458	axholme	-99
-5.22458	axiom	-99
-5.22458	axis	-99
-4.92355	axon	-99
-5.22458	ayaydin	-99
-5.22458	aycliffe	-99
-5.22458	aydid	-99
-4.145399	aye	-99
-5.22458	ayia	-99
-5.22458	aylwin	-99
-4.92355	azanian	-99
-5.22458	azapo	-99
-5.22458	azcu&eacute;	-99
-5.22458	azerbaijani	-99
-5.22458	azucena	-99
-3.693101	b	-99
-5.22458	b&eacute;roff	-99
-5.22458	b&flat;	-99
-5.22458	b's	-99
-5.22458	b-but	-99
-5.22458	b-films	-99
-5.22458	b.	-99
-5.22458	b1257	-99
-5.22458	ba	-99
-5.22458	babble	-99
-5.22458	babu-sahib	-99
-4.32149	baby	-99
-5.22458	babylonian	-99
-5.22458	babysitter	-99
-3.015065	back	-99
-5.22458	back-breaking	-99
-5.22458	back-if	-99
-5.22458	back-street	-99
-5.22458	back-tracked	-99
-4.92355	back-up	-99
-4.92355	backbench	-99
-5.22458	backbencher	-99
-4.379482	background	-99
-4.747458	backing	-99
-5.22458	backlash	-99
-5.22458	backside	-99
-5.22458	backup	-99
-4.92355	backward	-99
-5.22458	backwards	-99
-4.92355	bacon	-99
-5.22458	baconian	-99
-4.92355	bacteria	-99
-5.22458	bacterial	-99
-3.693101	bad	-99
-5.22458	baden	-99
-4.747458	badge	-99
-4.747458	badly	-99
-5.22458	badly-managed	-99
-5.22458	baffled	-99
-4.270337	bag	-99
-5.22458	baggins	-99
-5.22458	baghdad	-99
-5.22458	bagnall	-99
-5.22458	bahamas	-99
-4.525609	bail	-99
-5.22458	bailey	-99
-4.92355	baillie	-99
-5.22458	bain	-99
-5.22458	bains	-99
-4.92355	bait	-99
-5.22458	bakayoko	-99
-4.747458	bake	-99
-4.92355	baker	-99
-5.22458	baking	-99
-5.22458	baku	-99
-5.22458	bala	-99
-5.22458	balaguer	-99
-3.92355	balance	-99
-4.747458	balanced	-99
-4.92355	balancing	-99
-5.22458	balcony	-99
-5.22458	bald	-99
-5.22458	baldersdale	-99
-5.22458	bali	-99
-3.882157	ball	-99
-5.22458	ballerina	-99
-4.622519	ballet	-99
-4.92355	balliol	-99
-5.22458	ballistics	-99
-4.92355	balloon	-99
-5.22458	ballot	-99
-4.747458	ballroom	-99
-5.22458	ballymena	-99
-5.22458	balmy	-99
-5.22458	balsa-bomb	-99
-5.22458	balustrade	-99
-5.22458	bamberg	-99
-4.270337	ban	-99
-5.22458	banality	-99
-4.747458	banana	-99
-5.22458	banbury	-99
-4.078452	band	-99
-5.22458	banda	-99
-4.92355	bandage	-99
-5.22458	bandleader	-99
-5.22458	bang	-99
-4.92355	bangladesh	-99
-5.22458	bangladeshi	-99
-4.92355	banish	-99
-3.994131	bank	-99
-5.22458	banker	-99
-4.525609	banking	-99
-5.22458	bankruptcy	-99
-4.048489	banks	-99
-5.22458	bann	-99
-5.22458	banner	-99
-5.22458	banquet	-99
-5.22458	banquo	-99
-4.92355	banter	-99
-5.22458	baptise	-99
-5.22458	baquero	-99
-3.969307	bar	-99
-5.22458	bar-tabac	-99
-5.22458	baratieri	-99
-5.22458	barbara	-99
-4.92355	barbarossa	-99
-5.22458	barbecue	-99
-4.92355	barber	-99
-5.22458	barbra	-99
-5.22458	barcelona	-99
-4.92355	barclay	-99
-4.22458	bare	-99
-5.22458	barefoot	-99
-4.747458	barely	-99
-4.622519	bargain	-99
-5.22458	bargain-basement	-99
-4.379482	bargaining	-99
-5.22458	bargany	-99
-5.22458	barge	-99
-4.747458	bark	-99
-5.22458	barkley	-99
-5.22458	barlaston	-99
-5.22458	barlow/worcester	-99
-5.22458	barn	-99
-5.22458	barnes	-99
-4.92355	barnett	-99
-4.92355	barney	-99
-5.22458	barnsley	-99
-5.22458	barometer	-99
-4.622519	baron	-99
-4.92355	barrage	-99
-5.22458	barrel	-99
-4.92355	barrels	-99
-5.22458	barren	-99
-5.22458	barrie	-99
-4.525609	barrier	-99
-4.92355	barrister	-99
-4.747458	barrow	-99
-4.747458	barry	-99
-4.622519	bars	-99
-5.22458	bartholomew	-99
-4.92355	bartlett	-99
-4.92355	barton	-99
-5.22458	bartram	-99
-4.92355	basal	-99
-5.22458	basalt	-99
-3.633515	base	-99
-4.92355	baseball	-99
-4.92355	baseline	-99
-5.22458	basement	-99
-3.969307	basic	-99
-5.22458	basically	-99
-5.22458	basics	-99
-4.92355	basil	-99
-5.22458	basin	-99
-5.22458	basinwards	-99
-3.777422	basis	-99
-4.747458	basket	-99
-5.22458	basque	-99
-5.22458	bass	-99
-5.22458	bassman	-99
-4.92355	bastard	-99
-5.22458	basuki	-99
-4.747458	bat	-99
-5.22458	bat-uul	-99
-5.22458	batch	-99
-5.22458	bates	-99
-4.270337	bath	-99
-4.747458	bathe	-99
-5.22458	bathing	-99
-5.22458	bathonga	-99
-4.747458	bathroom	-99
-5.22458	batm&ouml;nh	-99
-5.22458	batsman	-99
-5.22458	battalion	-99
-5.22458	batter	-99
-5.22458	battered	-99
-4.92355	battery	-99
-5.22458	batteurs	-99
-3.92355	battle	-99
-5.22458	battling	-99
-5.22458	bauv	-99
-5.22458	bavadra	-99
-5.22458	baxter	-99
-4.92355	bay	-99
-5.22458	bayern	-99
-5.22458	bayfield	-99
-4.110636	bbc	-99
-5.22458	bcap	-99
-1.44383	be	-99
-3.994131	beach	-99
-4.92355	beacon	-99
-4.92355	beads	-99
-5.22458	beagle	-99
-4.379482	beam	-99
-4.92355	beamish	-99
-4.622519	bean	-99
-3.733218	bear	-99
-5.22458	bearded	-99
-5.22458	beardsley	-99
-4.747458	bearing	-99
-5.22458	bearish	-99
-5.22458	beast	-99
-4.22458	beat	-99
-5.22458	beaten	-99
-5.22458	beating	-99
-4.92355	beatrice	-99
-5.22458	beatrix	-99
-5.22458	beattie	-99
-5.22458	beaujolais	-99
-4.183187	beautiful	-99
-4.747458	beautifully	-99
-4.622519	beauty	-99
-5.22458	beaver	-99
-3.015065	because	-99
-5.22458	beckenham	-99
-5.22458	becker	-99
-5.22458	becket	-99
-5.22458	beckside	-99
-5.22458	becky	-99
-3.183187	become	-99
-3.809606	bed	-99
-5.22458	beddoes	-99
-5.22458	bedford	-99
-4.92355	bedfordshire	-99
-4.22458	bedroom	-99
-5.22458	bedroomed	-99
-4.92355	bedside	-99
-4.747458	bee	-99
-5.22458	bee-line	-99
-5.22458	beech	-99
-4.747458	beef	-99
-4.747458	beer	-99
-5.22458	beeswaxed	-99
-5.22458	beetle	-99
-3.120776	before	-99
-4.92355	beforehand	-99
-4.747458	beg	-99
-5.22458	beget	-99
-5.22458	beggar	-99
-3.343766	begin	-99
-4.747458	beginner	-99
-4.02046	beginning	-99
-4.92355	behalf	-99
-4.32149	behave	-99
-3.945826	behaviour	-99
-5.22458	behavioural	-99
-5.22458	behead	-99
-3.552482	behind	-99
-4.92355	beijing	-99
-4.446428	being	-99
-5.22458	bejasus	-99
-5.22458	belarus	-99
-4.92355	belated	-99
-5.22458	belau	-99
-5.22458	beldam	-99
-5.22458	beleaguered	-99
-4.145399	belfast	-99
-4.92355	belgian	-99
-5.22458	belgium	-99
-5.22458	belhadj	-99
-4.270337	belief	-99
-3.425239	believe	-99
-5.22458	believedly	-99
-4.622519	bell	-99
-4.747458	bella	-99
-4.92355	belle	-99
-5.22458	bellot	-99
-4.32149	belong	-99
-4.92355	belongings	-99
-4.92355	beloved	-99
-3.844368	below	-99
-4.379482	belt	-99
-5.22458	bemba	-99
-4.92355	bemused	-99
-4.92355	ben	-99
-5.22458	bence	-99
-4.92355	bench	-99
-4.622519	bend	-99
-4.622519	beneath	-99
-5.22458	benedetti	-99
-5.22458	benedict	-99
-5.22458	beneficent	-99
-4.622519	beneficial	-99
-3.90236	benefit	-99
-5.22458	beneift	-99
-4.92355	benign	-99
-5.22458	benjamin	-99
-5.22458	bennet	-99
-4.92355	bennett	-99
-5.22458	benny	-99
-5.22458	bent	-99
-4.747458	bentley	-99
-5.22458	benz	-99
-5.22458	benzene	-99
-5.22458	benzina	-99
-5.22458	beqa	-99
-5.22458	bequest	-99
-5.22458	bereiter	-99
-5.22458	berg	-99
-5.22458	berger	-99
-5.22458	bergg	-99
-5.22458	berisford	-99
-5.22458	berkeley	-99
-5.22458	berkshire	-99
-4.525609	berlin	-99
-5.22458	berlusconi	-99
-5.22458	bernama	-99
-4.622519	bernard	-99
-5.22458	bernie	-99
-5.22458	berret	-99
-4.92355	berry	-99
-4.92355	bert	-99
-4.92355	beryl	-99
-5.22458	beseech	-99
-4.622519	beside	-99
-4.32149	besides	-99
-5.22458	bessmertnykh	-99
-4.92355	best-known	-99
-5.22458	best-rule	-99
-4.92355	bestow	-99
-5.22458	bestseller	-99
-4.747458	bet	-99
-4.92355	beta	-99
-5.22458	beth	-99
-5.22458	bethlehem	-99
-5.22458	betide	-99
-4.622519	betray	-99
-5.22458	betsy	-99
-5.22458	better-off	-99
-5.22458	better-paid	-99
-5.22458	betteridge	-99
-4.92355	betting	-99
-4.622519	betty	-99
-3.091041	between	-99
-5.22458	beuningen	-99
-5.22458	beuys	-99
-4.92355	beverley	-99
-3.92355	beyond	-99
-5.22458	bhalla	-99
-5.22458	bhuide	-99
-5.22458	biagio	-99
-5.22458	bianchi	-99
-4.92355	bias	-99
-5.22458	biased	-99
-4.525609	bible	-99
-4.747458	biblical	-99
-5.22458	bibliographic	-99
-5.22458	bibliography	-99
-5.22458	bibliometric	-99
-4.92355	bicycle	-99
-4.446428	bid	-99
-5.22458	bidder	-99
-5.22458	biddles	-99
-5.22458	bide	-99
-3.405036	big	-99
-5.22458	bikini	-99
-5.22458	bilateral	-99
-4.92355	bilbo	-99
-5.22458	bilge	-99
-4.92355	bilingual	-99
-3.733218	bill	-99
-5.22458	billet	-99
-5.22458	billiards	-99
-4.22458	billion	-99
-4.622519	billy	-99
-4.92355	bimbo	-99
-5.22458	bimodal	-99
-5.22458	bin	-99
-4.92355	binary	-99
-4.622519	bind	-99
-5.22458	bindery	-99
-4.92355	binding	-99
-5.22458	bing	-99
-5.22458	binge	-99
-5.22458	bingeing/starving/vomiting	-99
-5.22458	bingham	-99
-5.22458	binoculars	-99
-4.92355	biochemistry	-99
-5.22458	biographical	-99
-4.92355	biography	-99
-4.92355	biological	-99
-5.22458	biologist	-99
-4.92355	biology	-99
-5.22458	bion	-99
-5.22458	biopsy	-99
-5.22458	biot-savart	-99
-5.22458	bipolar	-99
-4.048489	bird	-99
-5.22458	birkbeck	-99
-4.622519	birmingham	-99
-5.22458	biro	-99
-4.183187	birth	-99
-5.22458	birth'	-99
-5.22458	birth-rate	-99
-4.747458	birthday	-99
-4.92355	biscuit	-99
-5.22458	bisexual	-99
-4.145399	bishop	-99
-5.22458	bisset	-99
-3.82664	bit	-99
-4.32149	bite	-99
-5.22458	biting	-99
-4.446428	bitter	-99
-4.92355	bitterly	-99
-5.22458	bitty	-99
-5.22458	biven	-99
-4.747458	bizarre	-99
-5.22458	bizzerk	-99
-3.43925	black	-99
-5.22458	black-back	-99
-5.22458	black-cattle	-99
-5.22458	black-jacketed	-99
-5.22458	blackbird	-99
-5.22458	blackburn	-99
-5.22458	blackeyes	-99
-5.22458	blackfriar	-99
-5.22458	blackhurst	-99
-5.22458	blacking	-99
-4.92355	blackmail	-99
-5.22458	blackpool	-99
-4.747458	blacksmith	-99
-4.92355	blade	-99
-5.22458	blair	-99
-5.22458	blaise	-99
-4.92355	blake	-99
-5.22458	blakemore	-99
-4.183187	blame	-99
-5.22458	blanch	-99
-5.22458	blanche	-99
-5.22458	blanchflower	-99
-5.22458	blandly	-99
-4.92355	blank	-99
-4.747458	blanket	-99
-5.22458	blasphemous	-99
-5.22458	blasphemy	-99
-4.446428	blast	-99
-5.22458	blasted	-99
-5.22458	blatantly	-99
-4.92355	blaze	-99
-4.92355	bleak	-99
-4.92355	bleed	-99
-4.622519	bleeding	-99
-5.22458	bleep	-99
-4.747458	blend	-99
-5.22458	blended	-99
-4.747458	bless	-99
-4.92355	blessing	-99
-5.22458	blida	-99
-5.22458	blimey	-99
-4.622519	blind	-99
-5.22458	blindly	-99
-4.92355	blink	-99
-5.22458	blinker	-99
-5.22458	blisham	-99
-5.22458	blissful	-99
-5.22458	blister	-99
-5.22458	blitz	-99
-4.747458	blizzard	-99
-4.747458	bloc	-99
-4.02046	block	-99
-4.747458	blockade	-99
-5.22458	blocked	-99
-4.92355	blocking	-99
-4.92355	bloke	-99
-4.92355	blond	-99
-4.92355	blonde	-99
-3.90236	blood	-99
-5.22458	blood-vessels	-99
-5.22458	bloodstained	-99
-5.22458	bloodstock	-99
-5.22458	bloodstream	-99
-4.078452	bloody	-99
-5.22458	bloomfield	-99
-4.747458	blooming	-99
-5.22458	bloomsbury	-99
-5.22458	blotter	-99
-4.92355	blouse	-99
-4.145399	blow	-99
-5.22458	blowback	-99
-5.22458	bludgeon	-99
-4.145399	blue	-99
-5.22458	bluebell	-99
-4.92355	blueprint	-99
-4.92355	blunder	-99
-5.22458	blundering	-99
-5.22458	blunkett	-99
-4.92355	blur	-99
-4.92355	blurred	-99
-5.22458	blush	-99
-5.22458	bluth	-99
-5.22458	bmw	-99
-5.22458	bmws	-99
-4.92355	boar	-99
-3.882157	board	-99
-5.22458	boarding	-99
-5.22458	boardroom	-99
-4.622519	boards	-99
-4.92355	boast	-99
-4.22458	boat	-99
-5.22458	boathouse	-99
-5.22458	boatman	-99
-4.622519	bob	-99
-5.22458	bobbie	-99
-5.22458	bobby	-99
-5.22458	boboli	-99
-5.22458	bode	-99
-5.22458	bodenland	-99
-4.92355	bodie	-99
-5.22458	bodily	-99
-4.92355	bodo	-99
-3.680512	body	-99
-5.22458	boelcke	-99
-4.92355	boer	-99
-4.92355	bog	-99
-5.22458	boggle	-99
-5.22458	bognor	-99
-5.22458	bogomil	-99
-4.92355	bohuslav	-99
-5.22458	boiardo	-99
-4.622519	boil	-99
-4.747458	boiler	-99
-5.22458	boilie	-99
-5.22458	boiling	-99
-5.22458	bokassa	-99
-5.22458	bokhara	-99
-4.747458	bold	-99
-5.22458	boldly	-99
-5.22458	boleyn	-99
-4.92355	bolivia	-99
-5.22458	bollinger	-99
-5.22458	bollocking	-99
-5.22458	bolsover	-99
-4.525609	bolt	-99
-4.110636	bomb	-99
-5.22458	bomb-shell	-99
-5.22458	bombard	-99
-5.22458	bomber	-99
-5.22458	bombing	-99
-5.22458	bon	-99
-5.22458	bona	-99
-4.92355	bonanza	-99
-4.747458	bond	-99
-5.22458	bond-holders	-99
-5.22458	bondholder	-99
-5.22458	bondi	-99
-5.22458	bonding	-99
-4.747458	bone	-99
-5.22458	boned	-99
-5.22458	bonefield	-99
-5.22458	bones	-99
-5.22458	bonfire	-99
-5.22458	bong	-99
-5.22458	bonnie	-99
-4.747458	bonus	-99
-5.22458	bony	-99
-5.22458	boob	-99
-3.361257	book	-99
-5.22458	booking	-99
-4.622519	booklet	-99
-5.22458	bookseller	-99
-5.22458	bookshop	-99
-4.747458	boom	-99
-5.22458	boomerang	-99
-4.747458	boost	-99
-5.22458	booster	-99
-4.446428	boot	-99
-5.22458	boot-bindings	-99
-4.92355	booth	-99
-5.22458	booty	-99
-5.22458	booze	-99
-5.22458	boozer	-99
-4.379482	border	-99
-5.22458	bore	-99
-4.92355	bored	-99
-4.92355	boredom	-99
-5.22458	borehamwood	-99
-5.22458	boring	-99
-5.22458	boris	-99
-5.22458	borneo	-99
-5.22458	boro	-99
-4.747458	borough	-99
-4.379482	borrow	-99
-5.22458	borrowed	-99
-4.92355	borrower	-99
-4.92355	borrowing	-99
-5.22458	borstal	-99
-4.92355	bosnia	-99
-5.22458	bosnian	-99
-4.32149	boss	-99
-5.22458	bossidy	-99
-5.22458	boston	-99
-4.92355	boswell	-99
-5.22458	botanic	-99
-5.22458	botch	-99
-3.167675	both	-99
-4.622519	bother	-99
-5.22458	bothwell	-99
-5.22458	bott	-99
-5.22458	botters	-99
-4.525609	bottle	-99
-3.90236	bottom	-99
-5.22458	bottomley	-99
-5.22458	boudica	-99
-5.22458	boulangerie	-99
-4.92355	boulder	-99
-5.22458	boull&eacute;e	-99
-4.92355	bounce	-99
-5.22458	bound	-99
-4.110636	boundary	-99
-5.22458	bounds	-99
-5.22458	bouquet	-99
-5.22458	bourbon	-99
-4.747458	bourgeois	-99
-5.22458	bourgeoisie	-99
-5.22458	bourgeoisified	-99
-5.22458	bourges	-99
-5.22458	bournonville	-99
-4.92355	bousfield	-99
-4.747458	bout	-99
-4.92355	boutari	-99
-5.22458	bouteville	-99
-4.92355	bovine	-99
-5.22458	bow	-99
-5.22458	bowel	-99
-5.22458	bowels	-99
-4.92355	bowen	-99
-5.22458	bower	-99
-5.22458	bowes	-99
-4.92355	bowl	-99
-4.92355	bowler	-99
-5.22458	bowles	-99
-5.22458	bowling	-99
-4.048489	box	-99
-5.22458	box-office	-99
-5.22458	boxer	-99
-5.22458	boxers	-99
-4.747458	boxing	-99
-3.668277	boy	-99
-4.747458	boycott	-99
-4.92355	boyfriend	-99
-5.22458	boymans	-99
-5.22458	boyz	-99
-4.92355	boz	-99
-4.747458	bp	-99
-5.22458	bpf	-99
-5.22458	br	-99
-5.22458	bra	-99
-5.22458	brac	-99
-4.747458	bracelet	-99
-4.92355	braces	-99
-5.22458	brachiopod	-99
-5.22458	bracken	-99
-5.22458	brackish	-99
-4.747458	bradford	-99
-5.22458	brady-plan	-99
-5.22458	braemar	-99
-5.22458	brag	-99
-5.22458	bragg	-99
-5.22458	brahimi	-99
-5.22458	brahman	-99
-4.145399	brain	-99
-5.22458	brain-weak	-99
-5.22458	brainchild	-99
-5.22458	brainy	-99
-4.92355	brakes	-99
-5.22458	braking	-99
-5.22458	bramble	-99
-4.22458	branch	-99
-4.32149	brand	-99
-4.92355	brandt	-99
-5.22458	brandy	-99
-5.22458	branestawm	-99
-5.22458	branson	-99
-5.22458	brass	-99
-5.22458	brassicae	-99
-5.22458	brat	-99
-5.22458	bravely	-99
-4.92355	brawl	-99
-5.22458	brawny	-99
-4.92355	brazil	-99
-5.22458	bre	-99
-4.446428	breach	-99
-4.145399	bread	-99
-5.22458	breadcrumb	-99
-3.581127	break	-99
-5.22458	break-in	-99
-4.747458	breakdown	-99
-4.379482	breakfast	-99
-4.92355	breakthrough	-99
-4.32149	breast	-99
-5.22458	breastfeed	-99
-4.379482	breath	-99
-4.22458	breathe	-99
-5.22458	breathing	-99
-5.22458	breathlessly	-99
-5.22458	brecciate	-99
-5.22458	brecsu	-99
-4.270337	breed	-99
-4.747458	breeding	-99
-4.92355	breeze	-99
-4.92355	bremen	-99
-5.22458	bremner	-99
-4.92355	brenda	-99
-5.22458	brent	-99
-5.22458	bretonnian	-99
-5.22458	brewer	-99
-5.22458	brewery	-99
-5.22458	brewing	-99
-4.446428	brian	-99
-5.22458	bribe	-99
-4.525609	brick	-99
-5.22458	brickwork	-99
-5.22458	bride	-99
-5.22458	bride-to-be	-99
-5.22458	bridesmaid	-99
-4.048489	bridge	-99
-5.22458	bridgend	-99
-5.22458	bridget	-99
-5.22458	bridle	-99
-4.183187	brief	-99
-4.92355	briefcase	-99
-5.22458	briefing	-99
-4.525609	briefly	-99
-5.22458	briefs	-99
-5.22458	brieish	-99
-4.92355	brigade	-99
-5.22458	brigadier	-99
-5.22458	briggs/anthony	-99
-4.270337	bright	-99
-5.22458	brightening	-99
-4.92355	brightly	-99
-5.22458	brightness	-99
-4.622519	brighton	-99
-5.22458	brilliance	-99
-4.525609	brilliant	-99
-3.343766	bring	-99
-5.22458	bringeth	-99
-5.22458	brink	-99
-5.22458	bristle	-99
-4.525609	bristol	-99
-3.543339	britain	-99
-5.22458	britannia	-99
-3.517009	british	-99
-4.92355	brits	-99
-5.22458	brittan/race	-99
-5.22458	britten	-99
-5.22458	brittle	-99
-4.183187	broad	-99
-4.446428	broadcast	-99
-4.92355	broadcaster	-99
-4.747458	broadcasting	-99
-5.22458	broaden	-99
-5.22458	broadened	-99
-4.92355	broadly	-99
-5.22458	broadmoor	-99
-5.22458	broccoli	-99
-4.622519	brochure	-99
-5.22458	brodick	-99
-5.22458	broil	-99
-4.92355	broken	-99
-5.22458	broker	-99
-5.22458	brom	-99
-5.22458	bromham	-99
-5.22458	bromley	-99
-5.22458	bronchial	-99
-4.92355	bronze	-99
-5.22458	broody	-99
-4.747458	brook	-99
-4.92355	brooke	-99
-5.22458	brooklands	-99
-5.22458	brooklyn	-99
-5.22458	brose	-99
-5.22458	brossa	-99
-5.22458	brothel	-99
-3.92355	brother	-99
-5.22458	brother-in-law	-99
-5.22458	brougham	-99
-5.22458	broughton	-99
-4.92355	brow	-99
-4.078452	brown	-99
-5.22458	brown-field	-99
-4.92355	browne	-99
-5.22458	browne-wilkinson	-99
-4.92355	brownie	-99
-5.22458	brownlee	-99
-4.747458	bruce	-99
-5.22458	bruise	-99
-5.22458	brul	-99
-5.22458	brunell	-99
-5.22458	bruno	-99
-4.270337	brush	-99
-5.22458	brusque	-99
-4.92355	brussels	-99
-4.92355	brutal	-99
-4.622519	bryan	-99
-5.22458	bryant	-99
-5.22458	bryce	-99
-5.22458	bryncrug	-99
-5.22458	bs	-99
-5.22458	bsc	-99
-5.22458	bsd	-99
-5.22458	bse	-99
-5.22458	bsg	-99
-5.22458	bt	-99
-4.92355	bubble	-99
-5.22458	bucaille	-99
-5.22458	buccleuch	-99
-5.22458	buchan	-99
-4.747458	bucket	-99
-5.22458	buckminster	-99
-5.22458	bud	-99
-4.92355	budapest	-99
-5.22458	buddhism	-99
-3.969307	budget	-99
-4.92355	budgetary	-99
-5.22458	buenas	-99
-5.22458	buffalo	-99
-5.22458	buffer	-99
-4.92355	buffet	-99
-5.22458	bug	-99
-5.22458	bugey	-99
-4.92355	bugger	-99
-4.747458	buggy	-99
-4.92355	bugler	-99
-5.22458	buid	-99
-3.71943	build	-99
-5.22458	build-up	-99
-4.747458	builder	-99
-3.706066	building	-99
-5.22458	built-up	-99
-5.22458	buksh	-99
-5.22458	bulb	-99
-4.92355	bulgaria	-99
-5.22458	bulimic	-99
-4.92355	bulk	-99
-4.379482	bull	-99
-5.22458	bulldozer	-99
-5.22458	bullen	-99
-5.22458	bullet	-99
-5.22458	bullethole	-99
-5.22458	bulletin	-99
-5.22458	bullshit	-99
-4.92355	bully	-99
-5.22458	bully-boy	-99
-4.747458	bum	-99
-5.22458	bump	-99
-4.747458	bumper	-99
-4.92355	bun	-99
-4.622519	bunch	-99
-5.22458	bunche	-99
-5.22458	bundestag	-99
-4.525609	bundle	-99
-5.22458	bungle	-99
-4.747458	bunny	-99
-5.22458	bunting	-99
-5.22458	buon	-99
-4.92355	buoy	-99
-5.22458	buoyancy	-99
-5.22458	buoyant	-99
-4.747458	burden	-99
-4.92355	bureau	-99
-5.22458	bureaucracy	-99
-4.92355	bureaucrat	-99
-5.22458	bureaucratization	-99
-5.22458	burger	-99
-5.22458	burglar	-99
-5.22458	burglary	-99
-5.22458	burhs	-99
-5.22458	buried	-99
-5.22458	burke	-99
-5.22458	burlington	-99
-5.22458	burly	-99
-5.22458	burma	-99
-4.446428	burn	-99
-5.22458	burnard	-99
-4.92355	burner	-99
-5.22458	burnet	-99
-4.92355	burning	-99
-5.22458	burnishing	-99
-5.22458	burnt-out	-99
-5.22458	burrell	-99
-4.92355	burrow	-99
-4.525609	burst	-99
-5.22458	burton	-99
-4.22458	bury	-99
-4.145399	bus	-99
-4.183187	bush	-99
-3.43925	business	-99
-5.22458	business-critical	-99
-4.622519	businessman	-99
-4.92355	businessmen	-99
-5.22458	busker	-99
-5.22458	bust	-99
-5.22458	bust-length	-99
-5.22458	bust-up	-99
-5.22458	buster	-99
-5.22458	bustle	-99
-4.270337	busy	-99
-2.347208	but	-99
-4.747458	butcher	-99
-5.22458	butis	-99
-4.747458	butler	-99
-5.22458	butler-sloss	-99
-5.22458	butoxy	-99
-5.22458	butt	-99
-5.22458	butter	-99
-5.22458	butterfly	-99
-5.22458	butterworth	-99
-5.22458	buttocks	-99
-4.446428	button	-99
-5.22458	buttress	-99
-3.656378	buy	-99
-4.747458	buyer	-99
-5.22458	buying	-99
-5.22458	buyout	-99
-4.92355	buzz	-99
-2.295161	by	-99
-5.22458	by-election	-99
-5.22458	by-the-book	-99
-5.22458	by-way	-99
-5.22458	bye	-99
-5.22458	bye-law	-99
-5.22458	byelarus	-99
-5.22458	byron	-99
-5.22458	byword	-99
-3.71943	c	-99
-5.22458	c&amp;p	-99
-5.22458	c&eacute;sar	-99
-5.22458	c-anca	-99
-5.22458	c-in-c	-99
-5.22458	c-isam	-99
-4.379482	c.	-99
-5.22458	c/ebp	-99
-5.22458	c1	-99
-3.52561	ca	-99
-4.525609	cab	-99
-4.747458	cabbage	-99
-4.92355	cabin	-99
-4.747458	cabinet	-99
-4.446428	cable	-99
-5.22458	cabrera	-99
-5.22458	cadbury	-99
-5.22458	caddie	-99
-5.22458	caddis	-99
-5.22458	cadieux	-99
-5.22458	cadillac	-99
-5.22458	caernarfon	-99
-5.22458	caf	-99
-5.22458	caf&eacute;	-99
-5.22458	caf&eacute;s	-99
-5.22458	cafe	-99
-5.22458	cafeteria	-99
-4.747458	cage	-99
-4.22458	cake	-99
-5.22458	calamari	-99
-5.22458	calamitous	-99
-5.22458	calamity	-99
-5.22458	calapaez	-99
-5.22458	calcium	-99
-5.22458	calcium-loving	-99
-4.446428	calculate	-99
-5.22458	calculatedly	-99
-4.747458	calculation	-99
-5.22458	calcutta	-99
-5.22458	cale	-99
-5.22458	caledonia	-99
-4.92355	caledor	-99
-5.22458	calendar	-99
-5.22458	calendrical	-99
-5.22458	calero	-99
-5.22458	calf	-99
-5.22458	calibration	-99
-4.92355	calibre	-99
-4.747458	california	-99
-4.92355	california-based	-99
-5.22458	caliph	-99
-3.179257	call	-99
-5.22458	callaghan	-99
-5.22458	callejas	-99
-5.22458	caller	-99
-5.22458	callow	-99
-5.22458	calm	-99
-4.92355	calmly	-99
-5.22458	calmness	-99
-5.22458	calorie	-99
-5.22458	calverton	-99
-5.22458	calvin	-99
-5.22458	calvinism	-99
-5.22458	calvinistic	-99
-5.22458	camacho	-99
-5.22458	cambrian	-99
-4.622519	cambridge	-99
-4.92355	cambridgeshire	-99
-5.22458	cameo	-99
-4.379482	camera	-99
-4.92355	cameron	-99
-5.22458	camlab	-99
-4.622519	camp	-99
-3.945826	campaign	-99
-4.446428	campbell	-99
-5.22458	campbell-savours	-99
-4.92355	camper	-99
-5.22458	camping	-99
-5.22458	campos	-99
-5.22458	campus	-99
-2.652871	can	-99
-5.22458	canada	-99
-5.22458	canadian	-99
-5.22458	canadian-born	-99
-4.622519	canal	-99
-4.747458	cancel	-99
-5.22458	cancelled	-99
-4.270337	cancer	-99
-5.22458	cancer-causing	-99
-5.22458	candace	-99
-3.969307	candidate	-99
-4.622519	candle	-99
-5.22458	canister	-99
-5.22458	cannon	-99
-5.22458	cannulae	-99
-5.22458	canoeing	-99
-4.92355	canon	-99
-5.22458	canonize	-99
-4.622519	canterbury	-99
-5.22458	canvas/nylon	-99
-4.525609	capability	-99
-4.183187	capable	-99
-5.22458	capacitance	-99
-4.379482	capacity	-99
-5.22458	cape	-99
-5.22458	capetian	-99
-3.969307	capital	-99
-4.446428	capitalism	-99
-4.446428	capitalist	-99
-5.22458	capping	-99
-5.22458	capriccio	-99
-5.22458	capricious	-99
-4.32149	captain	-99
-5.22458	captaincy	-99
-5.22458	caption	-99
-4.446428	capture	-99
-5.22458	capture.richard	-99
-3.446429	car	-99
-5.22458	cara	-99
-5.22458	carabineri	-99
-5.22458	caracas	-99
-5.22458	caracciolo	-99
-4.622519	carat	-99
-4.92355	caravan	-99
-4.92355	carbohydrate	-99
-4.92355	carbon	-99
-5.22458	carbonate	-99
-4.92355	carburettor	-99
-5.22458	carcase	-99
-5.22458	carcass	-99
-4.078452	card	-99
-5.22458	card-playing	-99
-4.92355	cardboard	-99
-5.22458	cardiac	-99
-4.92355	cardiff	-99
-5.22458	cardigan	-99
-5.22458	cardinal	-99
-4.270337	cards	-99
-5.22458	carduus	-99
-3.581127	care	-99
-5.22458	care/education	-99
-3.969307	career	-99
-5.22458	carefree	-99
-4.32149	careful	-99
-4.110636	carefully	-99
-4.92355	careless	-99
-5.22458	carer	-99
-4.747458	carers	-99
-5.22458	carfax	-99
-5.22458	carib	-99
-4.92355	caribbean	-99
-4.747458	caring	-99
-4.92355	carl	-99
-5.22458	carlioz	-99
-4.92355	carlo	-99
-4.92355	carlos	-99
-5.22458	carlotta	-99
-4.747458	carlton	-99
-5.22458	carmelite	-99
-4.747458	carnivore	-99
-4.622519	carol	-99
-5.22458	carole	-99
-4.622519	caroline	-99
-5.22458	carpenter	-99
-4.525609	carpet	-99
-5.22458	carpeting	-99
-4.622519	carriage	-99
-5.22458	carrick	-99
-4.622519	carrie	-99
-5.22458	carried-out	-99
-4.446428	carrier	-99
-5.22458	carrington	-99
-3.492186	carry	-99
-5.22458	carrying	-99
-5.22458	carson	-99
-4.747458	cart	-99
-5.22458	cartagena	-99
-5.22458	cartel	-99
-4.622519	carter	-99
-5.22458	cartoon	-99
-5.22458	caruso	-99
-4.525609	carve	-99
-4.92355	carved	-99
-5.22458	carving	-99
-5.22458	casanova	-99
-5.22458	cascade	-99
-3.171501	case	-99
-4.270337	cash	-99
-5.22458	caspar	-99
-5.22458	casserole	-99
-4.747458	cassette	-99
-5.22458	cassie	-99
-4.048489	cast	-99
-5.22458	caste	-99
-5.22458	caster	-99
-5.22458	castilian	-99
-5.22458	casting	-99
-4.747458	castle	-99
-5.22458	castling	-99
-5.22458	castries	-99
-4.622519	casual	-99
-4.446428	casualty	-99
-5.22458	casualty-list	-99
-5.22458	casuistry	-99
-4.32149	cat	-99
-4.32149	catalogue	-99
-5.22458	cataloguing	-99
-5.22458	catalonia	-99
-5.22458	catalytic	-99
-5.22458	catastrophism	-99
-3.969307	catch	-99
-5.22458	catchy	-99
-5.22458	categorical	-99
-5.22458	categorised	-99
-5.22458	categorize	-99
-4.078452	category	-99
-5.22458	cater	-99
-5.22458	caterham	-99
-5.22458	catering	-99
-5.22458	catesby	-99
-4.92355	cathedral	-99
-4.446428	catherine	-99
-4.92355	cathexis	-99
-5.22458	cathode	-99
-4.446428	catholic	-99
-5.22458	catholicism	-99
-5.22458	cathy	-99
-4.747458	cattle	-99
-4.92355	catwalk	-99
-5.22458	causation	-99
-3.633515	cause	-99
-4.92355	caustic	-99
-4.747458	caution	-99
-4.92355	cautious	-99
-5.22458	cav	-99
-5.22458	cavalcade	-99
-5.22458	cavalry	-99
-5.22458	cave	-99
-5.22458	cave-like	-99
-5.22458	cavendish	-99
-5.22458	cavil	-99
-5.22458	caw	-99
-4.92355	cbi	-99
-5.22458	ccg	-99
-4.622519	cd	-99
-4.92355	cd2	-99
-4.92355	cd4	-99
-5.22458	cdp	-99
-4.92355	cdu	-99
-4.525609	cease	-99
-4.525609	ceasefire	-99
-5.22458	ceaseless	-99
-5.22458	ceau&scedil;escu	-99
-4.622519	ceausescu	-99
-5.22458	cecil	-99
-5.22458	cecilia	-99
-4.92355	cees	-99
-5.22458	cegb	-99
-4.525609	ceiling	-99
-4.446428	celebrate	-99
-4.92355	celebration	-99
-5.22458	celebratory	-99
-5.22458	celebrity	-99
-4.747458	celia	-99
-3.668277	cell	-99
-4.622519	cellar	-99
-5.22458	cellulite	-99
-4.92355	celluloid	-99
-4.92355	celtic	-99
-5.22458	cemaleddin	-99
-4.622519	cemetery	-99
-5.22458	censer	-99
-4.92355	censorship	-99
-5.22458	census	-99
-5.22458	centaur	-99
-5.22458	centaurea	-99
-5.22458	centaurus	-99
-5.22458	centigrade	-99
-5.22458	centimetre	-99
-3.82664	central	-99
-4.92355	centralise	-99
-3.60133	centre	-99
-5.22458	centrifugal-compressor	-99
-5.22458	centrifuge	-99
-3.644796	century	-99
-5.22458	century-fox	-99
-5.22458	ceramics	-99
-5.22458	cercle	-99
-5.22458	cerebral	-99
-5.22458	ceremonial	-99
-4.92355	ceremony	-99
-3.534384	certain	-99
-3.844368	certainly	-99
-5.22458	certainty	-99
-4.446428	certificate	-99
-4.92355	certify	-99
-5.22458	ceruloplasmin	-99
-5.22458	cg3	-99
-4.622519	ch	-99
-5.22458	chadburn	-99
-4.183187	chain	-99
-4.747458	chains	-99
-3.90236	chair	-99
-3.882157	chairman	-99
-4.747458	chalk	-99
-5.22458	chalker	-99
-4.048489	challenge	-99
-5.22458	challenging	-99
-5.22458	chaloner	-99
-4.92355	chamber	-99
-5.22458	chamberlain	-99
-5.22458	chambermaid	-99
-4.92355	chambers	-99
-4.622519	champion	-99
-5.22458	championship	-99
-4.02046	chance	-99
-5.22458	chancellery	-99
-4.32149	chancellor	-99
-5.22458	chandelier	-99
-3.220258	change	-99
-4.379482	changing	-99
-4.270337	channel	-99
-5.22458	channel/getting	-99
-4.92355	channels	-99
-5.22458	chantal	-99
-4.622519	chaos	-99
-4.525609	chap	-99
-4.747458	chapel	-99
-4.92355	chaplain	-99
-5.22458	chaplin	-99
-4.92355	chapman	-99
-3.733218	chapter	-99
-3.809606	character	-99
-4.622519	characterise	-99
-4.446428	characteristic	-99
-5.22458	characteristically	-99
-4.525609	characterize	-99
-5.22458	charcoal	-99
-5.22458	charcuterie	-99
-3.82664	charge	-99
-5.22458	chariot	-99
-5.22458	charitable	-99
-4.110636	charity	-99
-5.22458	charkiewicz	-99
-5.22458	charlemagne	-99
-3.777422	charles	-99
-5.22458	charlesworth	-99
-5.22458	charley	-99
-4.747458	charlie	-99
-4.747458	charlotte	-99
-5.22458	charm	-99
-4.747458	charming	-99
-5.22458	charmingly	-99
-5.22458	charolais	-99
-5.22458	charon	-99
-5.22458	charred	-99
-4.525609	chart	-99
-5.22458	charted	-99
-4.622519	charter	-99
-5.22458	chartered	-99
-5.22458	chary	-99
-5.22458	chas	-99
-4.525609	chase	-99
-5.22458	chaste	-99
-5.22458	chastened	-99
-4.32149	chat	-99
-5.22458	chatichai	-99
-4.92355	chatter	-99
-5.22458	chaucer	-99
-5.22458	chauffeur	-99
-5.22458	chea	-99
-4.183187	cheap	-99
-5.22458	cheat	-99
-3.82664	check	-99
-4.92355	checklist	-99
-4.446428	cheek	-99
-5.22458	cheekbone	-99
-4.747458	cheer	-99
-4.92355	cheerful	-99
-5.22458	cheerfully	-99
-4.379482	cheese	-99
-5.22458	cheesemaking	-99
-5.22458	cheesy	-99
-5.22458	cheetah	-99
-5.22458	chef	-99
-4.747458	cheltenham	-99
-5.22458	chem	-99
-4.22458	chemical	-99
-5.22458	chemically	-99
-5.22458	chemist	-99
-4.92355	chemistry	-99
-5.22458	chemotherapy	-99
-5.22458	chen	-99
-4.747458	cheque	-99
-4.747458	cherish	-99
-5.22458	chernobyl	-99
-5.22458	cherub	-99
-5.22458	cherwell	-99
-5.22458	cheshire	-99
-4.747458	chest	-99
-5.22458	chest-register	-99
-5.22458	chester	-99
-5.22458	chesterman	-99
-5.22458	chestnut	-99
-5.22458	chevallier	-99
-4.747458	chewing	-99
-5.22458	chewong	-99
-5.22458	chiang	-99
-4.622519	chicago	-99
-5.22458	chichester	-99
-4.92355	chick	-99
-4.622519	chicken	-99
-3.844368	chief	-99
-4.92355	chiefly	-99
-4.92355	chieftain	-99
-5.22458	chiffon	-99
-3.163882	child	-99
-5.22458	child-care	-99
-5.22458	childbearing	-99
-5.22458	childebert	-99
-4.379482	childhood	-99
-5.22458	childrens	-99
-5.22458	chile	-99
-5.22458	chilean	-99
-4.525609	chill	-99
-4.92355	chilled	-99
-5.22458	chilperic	-99
-5.22458	chimp	-99
-5.22458	chimpanzee	-99
-4.22458	china	-99
-4.92355	chinese	-99
-5.22458	chink	-99
-5.22458	chinoiserie	-99
-4.747458	chip	-99
-5.22458	chip-based	-99
-4.446428	chips	-99
-5.22458	chisel	-99
-5.22458	chisel-faced	-99
-5.22458	chiswick	-99
-5.22458	chitinous	-99
-5.22458	chittagong	-99
-5.22458	chitumukulu	-99
-5.22458	chlor-alkali	-99
-5.22458	chloride	-99
-5.22458	chlorinated	-99
-5.22458	chloros	-99
-5.22458	chlothar	-99
-4.747458	chocolate	-99
-3.862852	choice	-99
-5.22458	choice(s)	-99
-4.92355	choir	-99
-5.22458	cholecystokinin	-99
-5.22458	cholsey	-99
-5.22458	choonhaven	-99
-3.706066	choose	-99
-5.22458	chop	-99
-4.747458	chord	-99
-5.22458	chordal	-99
-4.92355	chore	-99
-5.22458	choreograph	-99
-5.22458	choreographer	-99
-4.525609	chosen	-99
-4.32149	chris	-99
-5.22458	chrissie	-99
-4.622519	christ	-99
-5.22458	christen	-99
-4.32149	christian	-99
-4.92355	christianity	-99
-4.92355	christie	-99
-4.92355	christine	-99
-5.22458	christine&mdash;	-99
-4.02046	christmas	-99
-5.22458	christophe	-99
-4.92355	christopher	-99
-5.22458	chrome	-99
-4.747458	chromosome	-99
-4.622519	chronic	-99
-4.92355	chronically	-99
-5.22458	chrono	-99
-5.22458	chub	-99
-4.92355	chuck	-99
-5.22458	chuckle	-99
-4.92355	chunk	-99
-3.680512	church	-99
-5.22458	church/synagogue/register	-99
-4.92355	churchman	-99
-5.22458	churn	-99
-4.92355	chute	-99
-5.22458	ci	-99
-5.22458	ciba-geigy	-99
-5.22458	cichlid	-99
-5.22458	cics/6000	-99
-5.22458	cid	-99
-5.22458	cider	-99
-5.22458	cigar	-99
-4.525609	cigarette	-99
-5.22458	cigognes	-99
-5.22458	cimabue	-99
-4.622519	cinema	-99
-5.22458	cintre	-99
-5.22458	cinzia	-99
-5.22458	cipher	-99
-5.22458	circeo	-99
-4.145399	circle	-99
-4.22458	circuit	-99
-4.747458	circular	-99
-4.747458	circulate	-99
-4.92355	circulation	-99
-3.969307	circumstances	-99
-5.22458	circumstantial	-99
-4.622519	circus	-99
-5.22458	cirencester	-99
-5.22458	citalia	-99
-4.32149	cite	-99
-4.379482	citizen	-99
-5.22458	citizenship	-99
-5.22458	citro&euml;n	-99
-3.591111	city	-99
-5.22458	cityscape	-99
-5.22458	civic	-99
-4.02046	civil	-99
-4.446428	civilian	-99
-4.92355	civilised	-99
-3.52561	claim	-99
-4.92355	claimant	-99
-4.92355	claire	-99
-5.22458	clairvoyant	-99
-5.22458	clammy	-99
-4.92355	clamp	-99
-5.22458	clams	-99
-4.747458	clap	-99
-4.92355	clare	-99
-5.22458	claremont	-99
-5.22458	clarence	-99
-4.92355	clarify	-99
-4.747458	clarity	-99
-4.622519	clark	-99
-4.622519	clarke	-99
-4.525609	clash	-99
-5.22458	clasp	-99
-3.762182	class	-99
-5.22458	class/es/	-99
-5.22458	class/race	-99
-4.92355	classic	-99
-5.22458	classic+	-99
-4.622519	classical	-99
-5.22458	classicism	-99
-5.22458	classics	-99
-4.747458	classification	-99
-4.446428	classify	-99
-4.22458	classroom	-99
-5.22458	clatter	-99
-5.22458	claudia	-99
-4.183187	clause	-99
-5.22458	clawback	-99
-4.525609	clay	-99
-5.22458	cle-i	-99
-3.862852	clean	-99
-5.22458	cleaner	-99
-4.747458	cleaning	-99
-5.22458	cleansing	-99
-5.22458	cleanup	-99
-3.500304	clear	-99
-4.747458	clearance	-99
-4.92355	clearing	-99
-4.92355	clearinghouses	-99
-3.945826	clearly	-99
-5.22458	cleavage	-99
-5.22458	cleave	-99
-5.22458	clement	-99
-5.22458	clench	-99
-5.22458	clergy	-99
-4.747458	clerical	-99
-4.622519	clerk	-99
-5.22458	clery	-99
-5.22458	cleveland	-99
-4.32149	clever	-99
-5.22458	clever-dick	-99
-4.92355	cleverly	-99
-5.22458	cli	-99
-5.22458	click	-99
-3.862852	client	-99
-5.22458	client/server	-99
-5.22458	clientele	-99
-5.22458	cliff	-99
-4.622519	climate	-99
-4.525609	climb	-99
-4.92355	climber	-99
-4.622519	climbing	-99
-4.92355	clinch	-99
-4.747458	cling	-99
-5.22458	clingy	-99
-4.92355	clinic	-99
-5.22458	clinical	-99
-4.92355	clinician	-99
-5.22458	clinkham	-99
-4.92355	clinton	-99
-5.22458	clipboard	-99
-5.22458	clipping	-99
-4.92355	clive	-99
-4.747458	cloak	-99
-4.92355	cloakroom	-99
-4.22458	clock	-99
-4.92355	clog	-99
-5.22458	cloister-pump	-99
-5.22458	cloned	-99
-3.517009	close	-99
-4.92355	close-up	-99
-4.446428	closed	-99
-4.32149	closely	-99
-4.32149	closer	-99
-5.22458	closet	-99
-4.92355	closing	-99
-4.525609	closure	-99
-4.92355	cloth	-99
-4.92355	clothe	-99
-4.379482	clothes	-99
-5.22458	clothing	-99
-4.22458	cloud	-99
-4.92355	clough	-99
-5.22458	clout	-99
-4.92355	clown	-99
-3.680512	club	-99
-4.92355	clubhead	-99
-4.747458	clue	-99
-5.22458	clump	-99
-5.22458	clumsily	-99
-4.92355	clumsy	-99
-4.747458	cluster	-99
-4.92355	clutch	-99
-5.22458	clwyd	-99
-4.92355	clyde	-99
-4.92355	cm	-99
-5.22458	cmmd	-99
-4.92355	cmo	-99
-4.92355	cnd	-99
-5.22458	cnut	-99
-4.379482	co	-99
-5.22458	co-chairman	-99
-5.22458	co-defendant	-99
-5.22458	co-operating	-99
-4.525609	co-operation	-99
-4.622519	co-operative	-99
-5.22458	co-operatives	-99
-5.22458	co-ordinated	-99
-5.22458	co-ordinator	-99
-5.22458	co-transporter	-99
-5.22458	co-worker	-99
-4.525609	coach	-99
-4.270337	coal	-99
-5.22458	coal-effect	-99
-5.22458	coal-fired	-99
-5.22458	coalfield	-99
-4.622519	coalition	-99
-5.22458	coase	-99
-4.32149	coast	-99
-4.747458	coastal	-99
-4.446428	coat	-99
-5.22458	coates	-99
-5.22458	cobalt	-99
-5.22458	cobbled	-99
-5.22458	coburg	-99
-4.92355	cocaine	-99
-4.622519	cock	-99
-5.22458	cockeram	-99
-5.22458	cockney	-99
-4.92355	cockpit	-99
-4.446428	code	-99
-5.22458	coefficient	-99
-5.22458	coelenterate	-99
-5.22458	coeliac	-99
-5.22458	coerce	-99
-5.22458	coercion	-99
-5.22458	coercive	-99
-5.22458	coeur	-99
-5.22458	cofamilial	-99
-4.270337	coffee	-99
-4.622519	coffin	-99
-5.22458	cog	-99
-4.92355	cogent	-99
-5.22458	coghill	-99
-5.22458	cognisance	-99
-4.622519	cognitive	-99
-5.22458	cohabitants	-99
-4.92355	cohen	-99
-5.22458	coherent	-99
-4.92355	cohesion	-99
-5.22458	cohn	-99
-5.22458	cohort	-99
-5.22458	coil	-99
-5.22458	coil-tap	-99
-4.622519	coin	-99
-4.525609	coincide	-99
-4.92355	coincidence	-99
-3.994131	cold	-99
-5.22458	coldly	-99
-4.92355	coldwatch	-99
-5.22458	coldwater	-99
-5.22458	cole	-99
-4.92355	coleridge	-99
-5.22458	colitis	-99
-5.22458	collaboration	-99
-5.22458	collaborator	-99
-4.183187	collapse	-99
-5.22458	collar	-99
-5.22458	collarbone	-99
-4.145399	colleague	-99
-4.270337	collect	-99
-5.22458	collectable	-99
-3.92355	collection	-99
-4.747458	collective	-99
-5.22458	collectively	-99
-4.92355	collector	-99
-3.90236	college	-99
-5.22458	collide	-99
-4.747458	collier	-99
-5.22458	collin	-99
-5.22458	collins	-99
-5.22458	collins-howgill/medical	-99
-4.747458	collision	-99
-5.22458	collor	-99
-5.22458	colnaghi	-99
-4.92355	colombia	-99
-5.22458	colon	-99
-4.747458	colonel	-99
-4.747458	colonial	-99
-5.22458	colonic	-99
-4.92355	colonist	-99
-4.622519	colony	-99
-5.22458	colostomy	-99
-5.22458	colostrum	-99
-3.994131	colour	-99
-4.622519	coloured	-99
-4.747458	colouring	-99
-5.22458	colourists	-99
-4.747458	colours	-99
-4.22458	column	-99
-4.747458	comb	-99
-5.22458	combat	-99
-5.22458	combative	-99
-4.145399	combination	-99
-4.22458	combine	-99
-5.22458	combo	-99
-2.82664	come	-99
-5.22458	comeback	-99
-5.22458	comecon	-99
-4.92355	comedy	-99
-4.92355	comer	-99
-5.22458	comerford	-99
-4.622519	comfort	-99
-4.92355	comfortable	-99
-5.22458	comfortably	-99
-5.22458	comforting	-99
-5.22458	comic	-99
-4.92355	comical	-99
-4.92355	coming	-99
-5.22458	comm.	-99
-4.92355	comma	-99
-4.078452	command	-99
-4.747458	commander	-99
-5.22458	commander-in-chief	-99
-4.92355	commando	-99
-5.22458	commence	-99
-4.92355	commencement	-99
-5.22458	commend	-99
-4.02046	comment	-99
-4.622519	commentator	-99
-4.747458	commerce	-99
-4.270337	commercial	-99
-5.22458	commercialization	-99
-3.762182	commission	-99
-4.22458	commissioner	-99
-4.078452	commit	-99
-4.02046	commitment	-99
-3.644796	committee	-99
-3.793216	common	-99
-5.22458	common-sense	-99
-5.22458	commonality	-99
-5.22458	commong	-99
-4.446428	commonly	-99
-5.22458	commonplace	-99
-4.32149	commons	-99
-5.22458	commonwealth	-99
-4.92355	communal	-99
-4.92355	communicate	-99
-4.270337	communication	-99
-4.525609	communications	-99
-5.22458	communicative	-99
-4.92355	communion	-99
-5.22458	communiqu&eacute;	-99
-5.22458	communism	-99
-4.22458	communist	-99
-3.644796	community	-99
-5.22458	community-acquired	-99
-5.22458	commute	-99
-5.22458	commuter	-99
-5.22458	compact	-99
-5.22458	compadres	-99
-5.22458	compagnie	-99
-5.22458	compak	-99
-4.622519	companion	-99
-3.32149	company	-99
-5.22458	compaor&eacute;	-99
-4.747458	comparable	-99
-4.525609	comparative	-99
-5.22458	comparatively	-99
-3.777422	compare	-99
-4.145399	comparison	-99
-4.92355	compass	-99
-5.22458	compassion	-99
-5.22458	compatible	-99
-5.22458	compatriot	-99
-4.747458	compensate	-99
-4.622519	compensation	-99
-4.525609	compete	-99
-4.747458	competence	-99
-4.747458	competent	-99
-5.22458	competing	-99
-4.078452	competition	-99
-4.270337	competitive	-99
-4.747458	competitor	-99
-5.22458	compilation	-99
-5.22458	compile	-99
-4.32149	complain	-99
-4.379482	complaint	-99
-4.92355	complement	-99
-5.22458	complementary	-99
-3.793216	complete	-99
-4.747458	completed	-99
-4.110636	completely	-99
-4.525609	completion	-99
-3.882157	complex	-99
-4.379482	complexity	-99
-4.92355	complexly	-99
-4.92355	compliance	-99
-4.379482	complicated	-99
-4.747458	complication	-99
-4.525609	comply	-99
-4.270337	component	-99
-5.22458	compose	-99
-4.747458	composer	-99
-4.446428	composition	-99
-5.22458	compost	-99
-5.22458	composure	-99
-4.92355	compound	-99
-5.22458	comprehension	-99
-4.747458	comprehensive	-99
-4.92355	compress	-99
-5.22458	compression	-99
-4.379482	comprise	-99
-4.446428	compromise	-99
-4.92355	compton-burnett	-99
-5.22458	compulsively	-99
-4.747458	compulsory	-99
-5.22458	computational	-99
-5.22458	compute	-99
-3.747458	computer	-99
-5.22458	computer-aided	-99
-5.22458	computer-based	-99
-5.22458	computer-related	-99
-5.22458	computerised	-99
-5.22458	computerwoche	-99
-4.525609	computing	-99
-4.747458	comrade	-99
-5.22458	comset	-99
-5.22458	comunale	-99
-4.92355	con	-99
-5.22458	concatenation	-99
-4.92355	conceal	-99
-4.92355	concealed	-99
-4.747458	concede	-99
-5.22458	conceivably	-99
-4.747458	conceive	-99
-4.446428	concentrate	-99
-4.446428	concentration	-99
-4.110636	concept	-99
-4.525609	conception	-99
-3.777422	concern	-99
-3.862852	concerned	-99
-4.92355	concerning	-99
-4.446428	concert	-99
-5.22458	concertantes	-99
-4.747458	concerto	-99
-5.22458	concession	-99
-5.22458	conciliar	-99
-4.92355	conciliation	-99
-5.22458	conciliatory	-99
-5.22458	concise	-99
-4.145399	conclude	-99
-4.110636	conclusion	-99
-4.747458	conclusive	-99
-5.22458	concocting	-99
-5.22458	concoction	-99
-5.22458	concomitance	-99
-5.22458	concomitant	-99
-5.22458	concommitant	-99
-5.22458	concordance	-99
-5.22458	concrete	-99
-5.22458	concurrent	-99
-4.446428	condemn	-99
-5.22458	condensation	-99
-3.994131	condition	-99
-5.22458	conditioner	-99
-3.777422	conditions	-99
-4.145399	conduct	-99
-5.22458	conductance	-99
-5.22458	conducting	-99
-5.22458	conductor	-99
-5.22458	conduit	-99
-5.22458	condylomas	-99
-4.92355	cone	-99
-5.22458	confederative	-99
-5.22458	confer	-99
-4.048489	conference	-99
-5.22458	conferment	-99
-4.446428	confess	-99
-4.92355	confession	-99
-5.22458	confide	-99
-3.92355	confidence	-99
-4.747458	confident	-99
-5.22458	confidental	-99
-4.92355	confidential	-99
-5.22458	confidentially	-99
-5.22458	confidently	-99
-4.92355	configuration	-99
-4.446428	confine	-99
-5.22458	confinement	-99
-3.994131	confirm	-99
-4.622519	confirmation	-99
-5.22458	confirmatory	-99
-5.22458	confiscatted	-99
-4.22458	conflict	-99
-4.92355	conform	-99
-5.22458	conformity	-99
-4.92355	confront	-99
-4.747458	confrontation	-99
-4.622519	confuse	-99
-4.747458	confused	-99
-5.22458	confusing	-99
-4.747458	confusion	-99
-5.22458	congeneric	-99
-5.22458	congenial	-99
-5.22458	conglomerate	-99
-5.22458	congolese	-99
-4.379482	congratulations	-99
-5.22458	congratulatory	-99
-4.92355	congregate	-99
-4.622519	congregation	-99
-4.110636	congress	-99
-5.22458	congressional	-99
-5.22458	conical	-99
-5.22458	coniston	-99
-4.92355	conjunction	-99
-4.22458	connect	-99
-4.92355	connection	-99
-5.22458	connectionist	-99
-5.22458	connectivity	-99
-5.22458	connector	-99
-5.22458	connelly	-99
-5.22458	connexion	-99
-5.22458	connolly	-99
-4.747458	connon	-99
-4.92355	connors	-99
-5.22458	connotation	-99
-4.747458	conquer	-99
-5.22458	conquered	-99
-5.22458	conqueror	-99
-5.22458	conquest	-99
-5.22458	conran	-99
-5.22458	conscience	-99
-5.22458	conscientious	-99
-4.747458	conscious	-99
-5.22458	consciously	-99
-4.747458	consciousness	-99
-5.22458	conscript	-99
-5.22458	conscription	-99
-5.22458	consecutive	-99
-4.747458	consensus	-99
-4.379482	consent	-99
-3.945826	consequence	-99
-4.92355	consequently	-99
-4.525609	conservation	-99
-5.22458	conservatism	-99
-4.110636	conservative	-99
-5.22458	conservatively	-99
-5.22458	conservatory	-99
-4.92355	conserve	-99
-3.581127	consider	-99
-3.92355	considerable	-99
-4.270337	considerably	-99
-5.22458	considerate	-99
-4.078452	consideration	-99
-4.92355	considering	-99
-5.22458	consignment	-99
-4.22458	consist	-99
-4.92355	consistency	-99
-4.270337	consistent	-99
-4.92355	consistently	-99
-5.22458	consistory	-99
-5.22458	consolation	-99
-4.622519	consolidate	-99
-5.22458	consolidated	-99
-4.525609	consolidation	-99
-5.22458	consoling	-99
-5.22458	consonant	-99
-5.22458	consort	-99
-4.747458	consortium	-99
-5.22458	conspicuous	-99
-5.22458	conspiracy	-99
-4.525609	constable	-99
-4.747458	constance	-99
-4.270337	constant	-99
-4.622519	constantly	-99
-5.22458	constanza	-99
-5.22458	constellation	-99
-5.22458	consternation	-99
-5.22458	constipation	-99
-4.32149	constituency	-99
-4.525609	constituent	-99
-4.525609	constitute	-99
-5.22458	constituted	-99
-4.270337	constitution	-99
-4.622519	constitutional	-99
-5.22458	constitutionally	-99
-5.22458	constitutive	-99
-4.92355	constrain	-99
-4.32149	constraint	-99
-4.525609	construct	-99
-4.22458	construction	-99
-4.92355	construe	-99
-5.22458	consulate	-99
-4.622519	consult	-99
-5.22458	consultancy	-99
-4.92355	consultant	-99
-4.622519	consultation	-99
-5.22458	consulting	-99
-4.446428	consume	-99
-4.110636	consumer	-99
-4.379482	consumption	-99
-4.048489	contact	-99
-3.793216	contain	-99
-5.22458	container	-99
-5.22458	contaminate	-99
-4.92355	contamination	-99
-4.622519	contemplate	-99
-4.446428	contemporary	-99
-4.92355	contempt	-99
-5.22458	contemptible	-99
-5.22458	contemptuous	-99
-5.22458	contend	-99
-4.270337	content	-99
-4.92355	contention	-99
-5.22458	contentious	-99
-4.446428	contents	-99
-4.92355	contest	-99
-4.02046	context	-99
-5.22458	context-specification	-99
-5.22458	contiguous	-99
-4.446428	continent	-99
-5.22458	contingency	-99
-5.22458	contingently	-99
-4.622519	continually	-99
-5.22458	continuance	-99
-4.92355	continuation	-99
-3.561822	continue	-99
-4.622519	continued	-99
-4.525609	continuing	-99
-4.747458	continuity	-99
-4.446428	continuous	-99
-4.747458	continuously	-99
-5.22458	contorta	-99
-5.22458	contraception	-99
-4.92355	contraceptive	-99
-3.862852	contract	-99
-4.92355	contradict	-99
-4.622519	contradiction	-99
-4.622519	contrary	-99
-4.110636	contrast	-99
-5.22458	contrasting	-99
-5.22458	contravention	-99
-4.22458	contribute	-99
-4.048489	contribution	-99
-5.22458	contributor	-99
-4.92355	contributory	-99
-5.22458	contrition	-99
-5.22458	contrive	-99
-3.446429	control	-99
-5.22458	controllable	-99
-4.747458	controlled	-99
-4.92355	controversial	-99
-5.22458	controversially	-99
-4.92355	controversy	-99
-5.22458	convection	-99
-5.22458	convene	-99
-5.22458	convenience-	-99
-4.622519	convenient	-99
-4.747458	convent	-99
-4.379482	convention	-99
-4.446428	conventional	-99
-5.22458	conventionally	-99
-4.92355	converge	-99
-4.92355	convergence	-99
-4.446428	conversation	-99
-5.22458	conversationalist	-99
-4.92355	conversely	-99
-4.622519	conversion	-99
-4.446428	convert	-99
-4.622519	converted	-99
-4.92355	converter	-99
-4.525609	convey	-99
-5.22458	conveyancing	-99
-4.92355	convict	-99
-5.22458	conviction	-99
-4.525609	convince	-99
-4.747458	convinced	-99
-5.22458	convincing	-99
-5.22458	convocation	-99
-4.622519	convoy	-99
-5.22458	conway	-99
-4.270337	cook	-99
-5.22458	cooke	-99
-5.22458	cooker	-99
-5.22458	cookery	-99
-5.22458	cookie	-99
-4.379482	cooking	-99
-4.183187	cool	-99
-5.22458	cooler	-99
-4.92355	cooling	-99
-5.22458	coolly	-99
-5.22458	cooped	-99
-4.92355	cooper	-99
-4.747458	cooperation	-99
-4.92355	coopt	-99
-4.32149	coordinate	-99
-5.22458	coordinated	-99
-5.22458	coordinator	-99
-4.92355	cop	-99
-4.270337	cope	-99
-5.22458	copenhagen	-99
-4.525609	copper	-99
-5.22458	copperfield	-99
-4.078452	copy	-99
-5.22458	copying	-99
-5.22458	copyright	-99
-4.92355	cor	-99
-5.22458	cora-beth	-99
-4.92355	coral	-99
-5.22458	corba	-99
-5.22458	corbett	-99
-5.22458	cord	-99
-5.22458	cordless	-99
-5.22458	cordoba	-99
-4.270337	core	-99
-5.22458	coresellis	-99
-5.22458	coriander	-99
-4.92355	cork	-99
-5.22458	corkscrew	-99
-4.92355	cormorant	-99
-5.22458	corn	-99
-4.525609	cornelius	-99
-3.994131	corner	-99
-5.22458	corner-seldom	-99
-5.22458	cornflour	-99
-5.22458	cornhill	-99
-4.92355	cornish	-99
-4.92355	cornwall	-99
-5.22458	corny	-99
-5.22458	corona.	-99
-4.622519	coronary	-99
-4.92355	coronation	-99
-5.22458	coroner	-99
-5.22458	coronet	-99
-4.379482	corp	-99
-4.32149	corporate	-99
-4.32149	corporation	-99
-4.92355	corps	-99
-4.92355	corpse	-99
-5.22458	corpus	-99
-3.844368	correct	-99
-5.22458	correcting	-99
-4.747458	correction	-99
-4.622519	correctly	-99
-5.22458	correlate	-99
-4.622519	correlation	-99
-5.22458	correlational	-99
-5.22458	correlatory	-99
-4.747458	correspond	-99
-4.92355	correspondence	-99
-4.92355	correspondent	-99
-4.92355	corresponding	-99
-5.22458	corridor	-99
-4.92355	corrie	-99
-4.747458	corrupt	-99
-5.22458	corruption	-99
-5.22458	corsica	-99
-4.92355	cortex	-99
-5.22458	corticosteroid	-99
-5.22458	coruisk	-99
-5.22458	corylus	-99
-3.882157	cos	-99
-4.92355	cosmopolitan	-99
-3.571367	cost	-99
-5.22458	costa	-99
-5.22458	costing	-99
-5.22458	costner	-99
-3.92355	costs	-99
-5.22458	cosy	-99
-5.22458	cotherstone	-99
-4.446428	cottage	-99
-4.92355	cotton	-99
-5.22458	cotwold	-99
-4.92355	couch	-99
-5.22458	cougar	-99
-5.22458	cough	-99
-2.79161	could	-99
-3.552482	council	-99
-5.22458	council/channel	-99
-4.446428	councillor	-99
-5.22458	counsel	-99
-5.22458	counselling	-99
-4.747458	counsellor	-99
-3.994131	count	-99
-4.525609	counter	-99
-5.22458	counter-attacked	-99
-5.22458	counter-critique	-99
-5.22458	counter-offer	-99
-4.92355	counterpart	-99
-5.22458	counterpose	-99
-4.92355	countess	-99
-3.246856	country	-99
-5.22458	country-	-99
-5.22458	country-house	-99
-4.183187	countryside	-99
-3.92355	county	-99
-4.525609	coup	-99
-3.82664	couple	-99
-4.92355	coupling	-99
-4.747458	coupon	-99
-4.525609	courage	-99
-5.22458	courgette	-99
-3.52561	course	-99
-3.425239	court	-99
-5.22458	courtaulds	-99
-5.22458	courteous	-99
-5.22458	courtes	-99
-5.22458	courtesy	-99
-5.22458	courtney	-99
-5.22458	courtyard	-99
-4.525609	cousin	-99
-5.22458	cov	-99
-5.22458	covariance	-99
-5.22458	cove	-99
-4.92355	coven	-99
-5.22458	covenant	-99
-4.622519	coventry	-99
-3.762182	cover	-99
-5.22458	coverage	-99
-5.22458	covered	-99
-5.22458	covertly	-99
-5.22458	coveted	-99
-5.22458	covets	-99
-4.747458	cow	-99
-5.22458	cowardice	-99
-5.22458	cower	-99
-5.22458	cowley	-99
-4.747458	cows	-99
-5.22458	coxswain	-99
-5.22458	cpm	-99
-4.92355	cpr	-99
-5.22458	cprw	-99
-4.92355	cps	-99
-5.22458	cr	-99
-4.379482	crack	-99
-5.22458	crackdown	-99
-5.22458	cracker	-99
-5.22458	crackle	-99
-4.92355	cradle	-99
-4.622519	craft	-99
-5.22458	craftsman	-99
-5.22458	crafty	-99
-5.22458	crag	-99
-5.22458	craggy	-99
-5.22458	craghoppers	-99
-5.22458	craig	-99
-5.22458	craigavon	-99
-5.22458	cram	-99
-5.22458	cramlington	-99
-5.22458	crane	-99
-5.22458	cranmer	-99
-5.22458	cranston	-99
-5.22458	craon	-99
-5.22458	crap	-99
-4.270337	crash	-99
-5.22458	crate	-99
-4.92355	crater	-99
-5.22458	cratered	-99
-4.747458	craven	-99
-5.22458	cravenly	-99
-4.92355	crawl	-99
-4.92355	crawley	-99
-5.22458	crawshaw	-99
-4.622519	crazy	-99
-5.22458	creaking	-99
-4.22458	cream	-99
-3.644796	create	-99
-5.22458	created	-99
-4.048489	creation	-99
-4.747458	creative	-99
-5.22458	creativity	-99
-5.22458	creator	-99
-4.747458	creature	-99
-5.22458	credence	-99
-4.02046	credit	-99
-4.446428	creditor	-99
-5.22458	credulity	-99
-5.22458	creed	-99
-5.22458	creek	-99
-4.525609	creep	-99
-5.22458	creeping	-99
-5.22458	crenellation	-99
-4.747458	crescent	-99
-4.446428	crew	-99
-5.22458	crick	-99
-4.525609	cricket	-99
-5.22458	crikey	-99
-5.22458	crilly	-99
-3.945826	crime	-99
-5.22458	crimean	-99
-4.32149	criminal	-99
-4.92355	crimson	-99
-5.22458	cripple	-99
-5.22458	crippling	-99
-4.183187	crisis	-99
-5.22458	crisp	-99
-5.22458	crisply	-99
-5.22458	crispness	-99
-5.22458	cristofori	-99
-4.078452	criterion	-99
-4.379482	critic	-99
-4.446428	critical	-99
-5.22458	critically	-99
-4.92355	criticise	-99
-4.110636	criticism	-99
-4.92355	criticize	-99
-4.747458	critique	-99
-4.92355	croatia	-99
-5.22458	croatian	-99
-5.22458	croesyceiliog	-99
-4.92355	crofter	-99
-5.22458	crofting	-99
-4.92355	crohn	-99
-5.22458	crombet	-99
-5.22458	crome	-99
-5.22458	cromwell	-99
-5.22458	cronus	-99
-5.22458	crook	-99
-4.92355	crooked	-99
-5.22458	croon	-99
-4.747458	crop	-99
-5.22458	cropping	-99
-5.22458	croquet	-99
-4.92355	crosby	-99
-5.22458	crosland	-99
-3.90236	cross	-99
-5.22458	cross-bred	-99
-5.22458	cross-channel	-99
-5.22458	cross-country	-99
-5.22458	cross-courses	-99
-5.22458	cross-cultural	-99
-5.22458	cross-examined	-99
-5.22458	cross-validity	-99
-5.22458	crossbred	-99
-5.22458	crosse	-99
-5.22458	crossed	-99
-5.22458	crossing	-99
-5.22458	crosslinks	-99
-5.22458	crossroads	-99
-5.22458	crosswise	-99
-5.22458	crossword	-99
-5.22458	crotch	-99
-5.22458	croton	-99
-4.622519	crouch	-99
-5.22458	crouched	-99
-4.32149	crowd	-99
-5.22458	crowded	-99
-3.90236	crown	-99
-4.747458	croydon	-99
-5.22458	crozier	-99
-4.379482	crucial	-99
-4.747458	crude	-99
-5.22458	cruel	-99
-5.22458	cruellest	-99
-4.92355	cruelty	-99
-4.379482	cruise	-99
-5.22458	cruiserweight	-99
-4.92355	crumble	-99
-5.22458	crumpet	-99
-5.22458	crumwallis	-99
-5.22458	crunchy	-99
-5.22458	crus	-99
-4.92355	cruse	-99
-4.92355	crush	-99
-5.22458	crushingly	-99
-5.22458	crustacean	-99
-4.747458	crux	-99
-5.22458	cruz	-99
-4.145399	cry	-99
-5.22458	crybaby	-99
-5.22458	cryptic	-99
-4.747458	crystal	-99
-5.22458	crystallization	-99
-5.22458	crystallize	-99
-5.22458	cs	-99
-5.22458	cs-3	-99
-5.22458	csa	-99
-4.92355	csce	-99
-5.22458	csd	-99
-5.22458	csu	-99
-5.22458	ct-133	-99
-5.22458	cub	-99
-4.92355	cuban	-99
-5.22458	cube	-99
-5.22458	cubed	-99
-5.22458	cubist	-99
-5.22458	cuc	-99
-5.22458	cucumber	-99
-5.22458	cue	-99
-5.22458	cuff	-99
-5.22458	cul-de-sac	-99
-5.22458	culloden	-99
-5.22458	culminate	-99
-5.22458	culprit	-99
-4.92355	cult	-99
-5.22458	cultivate	-99
-4.270337	cultural	-99
-5.22458	culturally	-99
-3.945826	culture	-99
-5.22458	cultured	-99
-5.22458	cumberland	-99
-5.22458	cumbria	-99
-5.22458	cumin	-99
-5.22458	cumulative	-99
-4.92355	cunt	-99
-4.02046	cup	-99
-5.22458	cup-shaped	-99
-4.446428	cupboard	-99
-5.22458	curative	-99
-5.22458	curator	-99
-5.22458	curb	-99
-4.622519	cure	-99
-4.92355	curfew	-99
-4.747458	curiosity	-99
-4.92355	curious	-99
-5.22458	curiously	-99
-4.92355	curly	-99
-4.446428	currency	-99
-3.90236	current	-99
-4.110636	currently	-99
-4.379482	curriculum	-99
-5.22458	currie	-99
-5.22458	curry	-99
-4.92355	curse	-99
-5.22458	cursor	-99
-5.22458	cursory	-99
-5.22458	curtailed	-99
-4.622519	curtain	-99
-5.22458	curtisii	-99
-5.22458	curtness	-99
-5.22458	curvature	-99
-4.622519	curve	-99
-4.92355	curved	-99
-4.747458	cushion	-99
-5.22458	cushion-shaped	-99
-5.22458	custard	-99
-5.22458	custody	-99
-4.525609	custom	-99
-5.22458	customarily	-99
-4.622519	customary	-99
-4.048489	customer	-99
-5.22458	customerq	-99
-5.22458	customise	-99
-4.525609	customs	-99
-3.591111	cut	-99
-5.22458	cut-out-and-keep	-99
-5.22458	cutback	-99
-5.22458	cuthbertson	-99
-5.22458	cutlery	-99
-5.22458	cutter	-99
-4.747458	cutting	-99
-5.22458	cuttlefish	-99
-5.22458	cutumnatis	-99
-5.22458	cwm	-99
-5.22458	cyaneus	-99
-4.92355	cycle	-99
-4.622519	cyclist	-99
-5.22458	cyclophilin	-99
-5.22458	cylindrical	-99
-5.22458	cymmrodorion	-99
-5.22458	cymreig	-99
-5.22458	cynddylan	-99
-5.22458	cyndrwyn	-99
-5.22458	cynical	-99
-5.22458	cyprus	-99
-5.22458	cyrenaican	-99
-5.22458	cytoplasm	-99
-4.92355	cytoplasmic	-99
-4.92355	czech	-99
-5.22458	czechoslovak	-99
-4.525609	czechoslovakia	-99
-5.22458	czechoslovakian	-99
-3.862852	d	-99
-5.22458	d&eacute;but	-99
-5.22458	d&eacute;j&agrave;	-99
-4.92355	d'	-99
-5.22458	d'agostino	-99
-5.22458	d'arcy	-99
-5.22458	d'arquebus	-99
-5.22458	d'aubuisson	-99
-5.22458	d'epinay	-99
-5.22458	d'estime	-99
-5.22458	d'italia	-99
-5.22458	d'offay	-99
-5.22458	d'sa	-99
-5.22458	d'urberville	-99
-5.22458	d-marks	-99
-4.622519	d.	-99
-5.22458	d.c.	-99
-4.92355	d.litt.	-99
-5.22458	d.s.o.	-99
-5.22458	d/a	-99
-5.22458	d519	-99
-4.92355	da	-99
-5.22458	daak	-99
-5.22458	dabble	-99
-3.945826	dad	-99
-5.22458	daddy	-99
-5.22458	daft	-99
-5.22458	dagenham	-99
-5.22458	dailly	-99
-4.145399	daily	-99
-4.747458	dairy	-99
-5.22458	daisy	-99
-5.22458	daiwa	-99
-5.22458	dal	-99
-4.92355	dale	-99
-5.22458	dalek	-99
-4.92355	daley	-99
-5.22458	dalkamoni	-99
-5.22458	dallas	-99
-4.747458	dalton	-99
-5.22458	dam	-99
-4.02046	damage	-99
-5.22458	damaged	-99
-4.446428	damages	-99
-4.92355	damaging	-99
-5.22458	damascus	-99
-5.22458	damian	-99
-4.622519	damn	-99
-5.22458	damnation	-99
-5.22458	damned	-99
-4.92355	damp	-99
-5.22458	dampen	-99
-5.22458	damper	-99
-4.92355	dana	-99
-5.22458	danby	-99
-4.078452	dance	-99
-5.22458	dance-floor	-99
-5.22458	dance-like	-99
-5.22458	dancer	-99
-5.22458	dandelion	-99
-4.02046	danger	-99
-4.22458	dangerous	-99
-4.92355	daniel	-99
-5.22458	danish	-99
-5.22458	danny	-99
-5.22458	danses	-99
-5.22458	danube	-99
-4.747458	danzig	-99
-5.22458	dapper	-99
-5.22458	dappled	-99
-5.22458	darcy	-99
-4.622519	dare	-99
-5.22458	daresay	-99
-5.22458	daring	-99
-4.270337	dark	-99
-5.22458	darkly	-99
-4.379482	darkness	-99
-5.22458	darley	-99
-4.446428	darling	-99
-4.110636	darlington	-99
-4.622519	darren	-99
-5.22458	dartmoor	-99
-5.22458	darvel	-99
-4.525609	darwin	-99
-4.92355	dash	-99
-5.22458	dashing	-99
-4.446428	database	-99
-5.22458	datasets	-99
-3.90236	date	-99
-5.22458	dating	-99
-3.62252	datum	-99
-4.078452	daughter	-99
-5.22458	daunbey	-99
-4.92355	dave	-99
-5.22458	davenport	-99
-3.733218	david	-99
-5.22458	davide	-99
-5.22458	davidson	-99
-5.22458	davies/national	-99
