hen	-0.165199	-0.092185	-0.453668	0.025388	-0.196106	0.374690	0.086901	-0.847011	0.208702	0.310338	0.818664	-0.492186	0.151443	0.479353	0.779713	0.007749	-0.318638	0.042335	0.099485	-0.319921	0.377759	-0.301989	-0.613874	0.205255	0.475232	0.338935	-0.346577	-0.178531	0.118109	0.003849	0.425548	0.033926	-0.132639	-0.425542	0.403862	-0.267006	-0.114260	-0.110300	0.182248	0.552410	-0.155537	0.141669	0.107387	0.473745	0.247961	-0.261624	0.355154	0.470717	0.099635	0.107981	-0.032409	-0.066290	-0.698601	-0.560464	0.150297	-0.115581	-0.644921	0.094643	0.385149	0.232464	-0.379633	-0.027857	0.584155	-0.268408	-0.020423	0.348839	-0.204452	-0.300227	-0.381720	0.367848	-0.297496	-0.005100	0.126338	0.549686	0.713682	0.169306	-0.316444	-0.477387	0.307215	0.490086	-0.008745	0.719307	-0.454709	0.440690	-0.219493	0.033727	-0.228833	0.525725	-0.152428	0.001363	-0.622168	0.019712	-0.289193	0.086046	-0.148441	-0.299832	-0.112743	0.040764	0.718815	0.025608	0.392035	0.371073	0.198422	-0.627605	-0.068766	-0.558111	-0.484755	0.012012	0.406701	-0.449493	0.420814	0.497991	0.556935	0.155628	-0.540656	-0.241294	1.003548	0.141611	-0.033487	0.300294	0.002689	0.349254	0.137349	-0.181757	-0.239484	0.304019	-0.285792	0.556732	0.253487	0.529407	-0.011659	-0.185025	-0.274765	0.025883	0.765594	0.280894	-0.656645	0.255766	-0.801499	0.237448	0.534961	-0.116616	0.489124	-0.086045	0.093967	0.063996	-0.208395	-0.139259	-0.413196	-0.184601	0.341872	-0.825886	0.292564	-0.235366	-0.036536	0.182051	0.476186	-0.207637	-0.144726	0.176162	0.256892	0.011519	0.074138	0.111486	0.336504	0.451664	-0.412088	-0.164847	0.294855	-0.221362	0.041695	0.547263	0.237030	0.093394	0.213499	0.043667	0.160233	-0.344874	-0.264907	0.054757	0.003535	0.639648	-0.371285	-0.220964	0.009075	0.441053	0.089734	0.354819	0.530422	0.224624	-0.092272	0.520837	0.388644	-0.460934	0.000299	0.580281	0.060921	-0.194734	-0.534961	-0.037426	-0.320498	0.381786	0.203021	-0.124242	0.511432	-0.548136	-0.091666	-0.027101	0.367816	-0.397005	0.446060	-0.534953	-0.060903	0.423915	0.090475	-0.491169	0.009081	0.119997	-0.384711	0.378808	-0.417935	0.295255	-0.435426	-0.166889	-0.201064	0.571854	0.677162	0.179541	-0.570480	-0.821115	0.313592	0.420211	-0.265367	-0.170068	0.242727	0.537372	-0.052541	0.118198	0.148123	-0.250275	-0.573704	-0.070171	-0.492385	0.420727	0.451458	0.446000	0.317852	-0.170296	-0.076332	0.123082	0.131812	-0.535635	0.074488	-0.322953	-0.247191	-0.246205	0.533282	0.155110	-0.747705	0.049204	0.193904	0.409045	-0.231921	-0.704115	-0.102357	0.020787	-0.399265	-0.431699	0.535929	0.123971	-0.726723	0.315743	0.160062	-0.328041	0.065237	0.146327	-0.598066	-0.264632	0.757280	-0.612129	0.089540	0.170861	-0.594884	-0.876736	0.204946	-0.156565	-0.114158	0.310710	-0.668829	-0.632847	-0.492568	0.056181	-0.752619	0.112576	0.427019	0.511105	0.118157	0.242565	0.432726	-0.302388
rabbit	-0.052789	0.112379	-0.151618	0.406235	0.418946	0.243681	-0.160005	-0.241356	0.150800	0.202022	0.723178	-0.147626	-0.295167	0.270645	0.017350	-0.003731	-0.014977	0.008642	-0.007119	-0.253044	0.328917	0.431741	0.403391	0.204436	0.459972	0.553534	-0.185260	0.381981	0.424065	-0.029555	1.048198	0.034004	-0.230649	0.078496	0.229964	-0.253382	0.623391	0.061167	0.567063	0.395554	-0.448858	-0.199644	-0.191966	0.359887	0.224609	-0.101886	0.503249	0.545395	-0.076124	0.034969	0.349826	0.026852	-0.301428	0.024393	-0.111610	-0.263950	0.070535	-0.107973	-0.172380	-0.055914	-0.632605	0.041160	0.264755	-0.248751	0.432488	-0.893488	0.789117	-0.452969	-0.033922	0.063794	-0.275137	0.337987	0.541318	0.750415	0.226684	0.738132	-0.250258	-0.054993	0.624766	-0.446608	-0.286196	0.058629	0.016999	0.001531	-0.376770	0.509420	0.321443	0.805982	0.010072	0.002287	-0.277739	0.502150	-0.484270	-0.023401	0.083305	-0.799044	0.163695	0.452750	-0.238455	0.829339	-0.121412	0.552370	0.170325	0.067357	-0.352253	-0.468679	-0.510367	-0.137122	0.004601	-0.618170	0.880410	0.426891	-0.089914	0.116939	-0.225925	-0.200130	0.312791	-0.130663	-0.072456	-0.021972	0.294335	0.448799	0.149326	-0.888696	-0.568519	0.162729	-0.154390	0.289475	0.791738	1.052504	0.281298	0.335530	-0.083082	-0.076945	0.485811	0.685068	0.037921	0.309153	-0.210731	0.207333	0.038100	0.548263	0.230542	0.306284	0.369396	0.620568	0.432630	-0.119498	-0.351374	-0.372390	0.008158	-0.413466	0.533441	-0.264868	0.009221	0.104035	0.435307	-0.181176	0.168888	0.190645	0.171643	-0.341913	0.097385	-0.553498	-0.173486	-0.253741	-0.335113	0.197519	0.526335	-0.033240	-0.084295	0.452698	0.153437	-0.004281	-0.118834	0.422781	0.216930	-0.371014	0.177515	-0.119951	0.074614	0.483577	-0.165769	-0.117031	0.115132	-0.614016	0.390542	0.342517	-0.086865	-0.083603	0.193653	-0.162453	0.591344	-0.422826	0.146637	0.365569	0.158154	0.289283	0.136742	0.027259	-0.177969	0.048315	0.396383	-0.160268	0.677831	0.074619	-0.237164	0.204006	0.153396	0.266276	0.110626	-0.369646	0.343262	0.555408	0.209661	0.062633	-0.500781	0.542555	-0.327258	0.134518	-0.587199	0.178383	0.203053	0.012430	0.233084	-0.100164	0.433874	-0.464173	-0.063724	-0.083287	-0.390597	0.076647	0.201312	0.286586	0.191070	-0.396924	0.302361	-0.129624	-0.368243	-0.182822	-0.820029	0.254859	0.301474	-0.287262	0.145735	0.804986	-0.240504	0.275813	0.454808	-0.313492	0.423431	-0.503621	-0.822679	0.049185	-0.236097	-0.696063	0.573999	-0.667250	-0.090799	0.411411	-0.130139	-0.056986	-0.432419	-0.077661	0.586630	-0.821636	-0.051158	0.497796	-0.321029	0.019967	-0.170265	0.317446	-0.231413	-0.266271	0.585423	-0.220986	-0.714879	-0.481362	-0.475857	-0.182520	0.304012	-0.313867	0.018626	-0.364413	-0.317629	-0.208197	-0.240166	0.335539	-0.164754	-0.584627	0.131729	-0.326431	-0.639613	0.249887	0.638306	0.619957	0.409429	0.099321	-0.004039	-0.036358
rat	0.140925	0.128711	0.015463	-0.064726	0.880362	0.432810	-0.327906	-0.215922	0.548340	0.053716	0.357723	-0.683904	-0.661237	0.236720	0.123215	0.163803	0.113915	-0.185460	-0.498399	-0.332567	0.306940	-0.067913	0.396068	-0.235604	0.326260	0.150402	-0.708834	-0.213053	0.174728	0.036377	0.633508	-0.517898	-0.074737	-0.350864	-0.026249	-0.147939	0.606455	0.515648	0.160699	0.263555	-0.512322	-0.272199	-0.233529	0.362063	0.244888	-0.193545	-0.266866	0.537266	0.064731	0.029343	0.243726	-0.153682	-0.628005	-0.348340	-0.090282	-0.057045	-0.155428	-0.370521	-0.530970	-0.192479	-0.192940	0.017833	-0.059341	-0.117547	0.052849	-0.362691	0.866756	-0.864959	-0.094594	0.229111	-0.540816	0.148443	0.366029	0.582467	0.272673	0.076475	-0.051725	-0.098444	0.601910	-0.262733	-0.051801	-0.057532	0.111923	-0.201040	-0.144173	0.000029	0.127615	0.921983	-0.144574	-0.007706	-0.189401	0.910904	-0.394432	0.242372	-0.284190	-0.850247	0.297303	0.341888	-0.253455	0.147182	0.291394	0.314282	-0.435214	-0.040141	-0.229403	-0.163126	-0.517215	-0.054867	0.138832	0.056530	0.614715	0.686594	-0.638195	-0.142897	-0.184710	-0.056209	0.523455	0.120708	-0.340367	0.428405	-0.383503	-0.054514	0.122069	-0.323958	-0.260928	-0.206867	0.133661	0.351803	0.537376	0.518811	0.112914	0.631824	0.011719	-0.262333	0.132992	0.670062	-0.298736	0.620534	-0.097129	0.245427	0.171718	0.710366	-0.295065	-0.009225	0.565412	1.032625	0.449087	-0.233570	0.202515	0.548117	-0.028769	-0.704676	0.050037	-0.179106	0.463609	0.411707	0.379638	0.284440	0.407936	0.032268	0.089297	-0.263332	0.008904	-1.060484	-0.320545	-0.449653	0.250583	0.545459	0.201244	0.517745	-0.294009	0.846952	0.228866	-0.526564	-0.274260	0.185821	-0.130347	-0.071618	-0.031863	0.062404	-0.045907	0.365261	-0.499250	0.367775	0.302389	0.095259	0.202827	0.180051	-0.247014	0.358827	-0.051312	-0.092114	0.548665	0.270700	0.108477	-0.021676	0.150062	-0.018373	-0.575314	0.411112	-0.655427	-0.460541	0.368247	0.073124	0.521338	-0.493939	-0.619017	-0.433534	0.459385	0.249814	0.110513	0.044531	0.522632	0.498663	0.477862	-0.236248	0.290473	0.038487	0.229495	0.420368	0.025582	0.016295	0.060629	-0.888102	0.062190	-0.505580	0.582891	0.234515	0.164057	0.377858	-0.380637	-0.033083	-0.215616	-0.035447	-0.273574	-0.673125	0.346590	-0.099616	0.266482	-0.156185	-0.980831	0.855635	0.091386	-0.073640	0.253541	-0.089528	0.134437	0.565372	0.440910	-0.685909	0.212966	-0.202252	-0.234341	-0.254225	0.027350	-0.252772	0.283372	-0.618855	0.171362	0.234465	-0.376984	-0.011152	0.077318	-0.249322	0.152397	-0.549836	0.481355	0.636821	-0.297340	-0.455762	-0.041146	-0.125467	-0.079563	-0.291650	-0.063704	-0.248171	-1.101425	0.030594	-0.596447	-0.343547	0.356737	-0.303891	-0.078715	0.006520	-0.131441	-0.331040	-0.448396	0.562726	0.367432	-0.467965	-0.069065	-0.223505	-0.218680	-0.069586	0.563669	0.333229	0.014334	-0.157186	-0.165888	-0.078503
lamb	-0.164081	-0.473207	-0.523070	0.707757	0.006263	-0.448659	0.073529	-0.832156	-0.308396	0.405710	0.675539	0.167410	0.428745	-0.389115	0.413407	0.691471	-0.034460	-0.702344	-0.246441	-0.416129	0.104973	-0.331969	0.694850	0.052933	-0.240802	0.245188	0.027196	-0.389965	0.933623	-0.402309	0.653520	0.417456	-0.326973	-0.780751	-0.019224	0.006403	-0.234816	-0.601512	0.466250	-0.337825	-0.139007	0.322961	-0.553161	0.923065	-0.175258	0.390204	0.630724	0.314167	0.271698	0.484992	0.175074	0.658440	-0.094673	0.420119	-0.098503	-0.220784	-0.706932	-0.112743	-0.180938	0.032592	-0.589497	0.241253	0.152019	-0.113532	0.375927	-0.392821	0.084212	-0.459781	0.051983	-0.402439	-0.417685	0.386212	0.110295	0.642302	-0.051084	0.496621	-0.629887	-0.518596	-0.101475	-0.357149	0.187445	0.049932	-0.022633	0.269526	-0.187313	0.847172	0.018205	0.303290	-0.350682	0.046224	-0.377858	0.469218	0.246698	0.220675	-0.235528	-0.721584	0.316594	0.794595	0.006273	0.501734	-0.359949	-0.016834	0.767084	-0.844696	-0.843104	-0.434950	-0.004369	-0.500023	0.002960	-0.702797	1.125456	0.333842	0.180139	0.193799	0.135923	-0.108472	0.348452	0.097939	0.124309	0.016951	1.228839	0.150252	-0.407640	-0.139414	-0.222731	0.455211	0.077734	0.760388	0.140685	0.327674	-0.442057	-0.450355	0.112582	-0.298613	0.163907	0.009722	-0.309061	0.289830	0.061580	0.188374	0.462439	0.749238	0.205653	0.163549	0.165049	0.057347	0.335881	0.009745	0.136732	0.051079	-0.355094	-0.029121	0.393084	0.341409	-0.587492	0.337520	0.558814	0.583883	0.046563	0.670213	-0.124766	-0.375117	0.062470	-0.569971	-0.306446	0.805197	-0.449039	0.331968	0.260135	-0.104670	-0.529649	0.432879	-0.391803	1.013353	0.654891	0.156846	0.052022	-0.834434	-0.055851	0.020052	-0.356068	0.134709	-0.493713	-0.152622	-0.256500	-0.070217	0.126584	-0.145897	-0.069821	0.215054	0.073922	0.277820	0.182690	-0.161614	0.409547	0.530899	0.011080	-0.201575	0.189771	-0.829314	0.422795	0.248383	-0.057734	-0.156829	0.417992	-0.525912	0.296035	-0.281697	-0.504000	-0.047639	0.019417	-0.419227	0.253177	0.403436	-0.329423	0.658139	-0.708570	0.640711	-0.253888	-0.420263	-0.525088	0.126912	0.176390	-0.106497	1.066200	-0.446331	0.188949	-0.596478	0.235660	-0.755863	-0.267536	0.557106	-0.186463	0.203423	0.465756	0.466451	0.678254	0.143962	-0.511653	-0.268547	-0.200839	0.433770	0.013467	0.278964	0.065235	0.372700	0.484772	-0.188572	0.145179	-0.262178	-0.260127	0.630753	-0.863630	-0.547900	-0.231700	-0.405618	0.357930	0.212570	-0.428400	-0.749813	0.076404	-0.104595	-0.207043	-0.806448	-0.004400	-0.069997	0.502298	0.279150	-0.545956	-0.176888	-0.198617	0.837826	-0.613155	0.122773	0.591545	0.119789	0.110724	0.132327	-0.075175	-0.249524	0.174804	0.190530	0.055036	-0.215167	-0.657321	-0.490267	-0.028202	0.072339	-0.690839	0.195963	-0.523064	0.219822	-1.217186	0.181777	-0.662634	0.173525	-0.148489	0.066032	-0.038372	0.010717
colt	-0.477817	0.170268	0.124676	-0.176928	0.262438	-0.414010	-0.155392	0.443411	-0.319353	0.114342	0.093914	0.313865	-0.132989	0.312726	0.008643	0.438908	0.430182	0.272136	0.455706	0.458717	0.393046	-0.343635	0.547006	0.053053	0.063046	-0.452853	0.158006	-0.521356	-0.200973	0.585736	-0.468904	0.127270	-0.062356	-0.338832	0.564886	-0.293757	-0.526130	-0.265653	0.322200	0.051998	0.146246	-0.156081	0.258516	0.350193	0.378152	-0.336992	-0.988403	0.463125	0.374354	0.109485	-0.272771	-0.273626	-0.533923	0.187608	-0.501782	0.030747	0.064228	-0.113629	-0.289828	0.426809	0.227336	-0.167842	0.152502	0.107601	0.398664	-0.692477	0.860567	0.007393	-0.418751	-0.737212	-0.128188	0.178271	0.221568	-0.179766	0.758376	0.160877	0.137757	-0.597310	0.311723	-0.243852	-0.447465	0.335929	-0.324210	0.552618	-0.442685	-0.140515	-0.035623	0.121713	-0.174922	0.156608	0.544742	0.204584	-0.578815	-0.653995	-0.561377	-0.195339	1.101663	0.011498	0.472916	0.210288	0.091772	-0.169729	0.463971	-0.516752	0.063180	-0.126116	0.054252	0.014992	-0.096736	0.585015	-0.100578	0.500688	-0.457975	0.102121	-0.550754	0.466191	0.334949	-0.259174	-0.797892	-0.264354	0.068151	-0.076505	0.470115	0.218117	-0.442757	0.367063	-0.071287	-0.505025	-0.030247	-0.306607	0.153906	0.164324	-0.107383	0.393475	-0.374221	0.721690	-0.019477	0.291911	-0.230530	0.536050	0.424330	0.133120	-0.621533	-0.524990	-0.542234	-0.436065	-0.062308	0.035776	-0.172652	0.188231	-0.275736	-0.149503	0.529210	-0.099683	-0.120985	-0.421132	0.844533	-0.287180	0.050699	0.149065	0.801659	-0.149867	0.204176	-0.041239	-0.262667	0.339880	-0.278864	0.011524	0.030976	0.085633	0.704056	0.055921	0.502311	-0.047391	0.547944	-0.323907	-0.580996	-0.177708	0.552541	-0.134042	-0.361806	0.345784	-0.220925	-0.690554	-0.709311	-0.217502	0.102012	-0.402852	0.763661	0.256940	0.033071	0.459863	-0.290952	-0.017070	0.545282	0.145231	0.150617	-0.550527	-0.125386	-0.163930	0.144404	-0.269419	0.287716	-0.170497	0.215475	0.417808	-0.270583	-0.200324	0.246530	0.741493	0.055797	-0.742998	0.639375	0.421927	0.462111	0.121983	0.354507	0.371942	0.175027	0.292451	0.068033	0.176059	-0.239293	-0.339698	0.201885	0.046294	0.700203	0.222257	-0.888634	-0.314750	0.041319	0.552972	-0.408306	0.283735	-0.108795	-0.530380	0.116952	0.209910	-0.499962	0.411906	-0.261640	-0.435359	-0.336000	0.168535	0.029010	-0.060078	0.199066	-0.125159	0.267113	0.055367	0.510149	0.283739	-0.075092	0.252224	-0.045540	0.131087	0.936336	-0.488003	0.101982	-0.951109	0.637934	-0.707960	-0.546381	-0.559727	0.001056	-0.103280	0.289719	0.584896	-0.293550	-0.543586	0.402890	-0.216754	-0.620502	-0.271143	0.374942	-0.148309	0.240145	0.211209	-0.713292	-0.068732	-0.446115	0.326697	-0.376939	-0.599456	-0.061235	-0.303338	0.054985	-0.047531	-0.068402	-0.526326	-0.806631	-0.489991	-0.175469	0.249383	-0.682317	0.329577	0.309268	-0.281454	-0.030805	0.297026
turkey	0.267088	-0.242565	-0.346232	0.336495	0.022827	-0.189197	-0.549198	-0.653780	-0.059833	0.792651	0.466206	-0.330702	-0.142476	0.311704	0.421842	-0.220548	-0.732764	-0.383735	-0.388626	-0.241467	0.272349	-0.218603	0.227741	-0.144426	0.006701	0.031906	-0.857639	-0.007645	0.456410	0.282767	0.552588	0.252877	-0.177021	-0.795868	0.194281	0.403074	0.413955	0.421372	-0.169318	0.463645	-0.703669	0.084605	-0.580804	0.476281	-0.572443	0.283848	-0.027023	0.091903	-0.063812	0.235339	-0.287093	0.058899	-0.263089	0.566433	-0.216518	-0.220914	-0.546999	-0.141126	-0.279717	-0.654500	-0.202656	0.355181	-0.148081	-0.457772	0.702586	-0.356746	0.097772	-0.430718	-0.580376	-0.047402	-0.620731	-0.079637	0.123907	0.657224	0.364636	0.118380	-0.521464	-0.151677	0.143161	-0.297578	0.116219	0.256184	-0.451459	0.097046	-0.192291	0.432743	-0.295136	0.330440	-0.572304	-0.154075	-0.818763	0.076146	-0.099536	-0.110852	-0.197303	-1.001559	0.245573	-0.107118	0.000148	0.690287	0.200699	0.472022	0.787855	-0.384454	-0.407744	-0.378116	0.075695	0.140064	0.352277	0.063352	1.227765	0.074896	0.183181	0.067589	-0.161206	0.202846	0.634971	0.066571	0.061391	-0.056914	-0.354068	0.527651	-0.246358	-0.124593	0.206437	0.358718	-0.838236	0.585792	0.069185	0.239001	0.388867	-0.539333	-0.458189	-0.493618	0.249926	0.015635	0.333102	-0.175805	-0.755638	0.013657	0.492234	-0.084748	0.280856	-0.543450	0.619803	0.384267	0.354243	-0.132598	0.086820	0.248712	-0.505704	-0.342574	0.510756	-0.162705	0.240139	0.291294	-0.461629	0.052397	-0.243236	0.389951	-0.046911	-0.560415	-0.496314	-0.402774	0.003185	0.151099	-0.205553	0.105351	0.223566	0.159610	-0.302238	1.145594	0.376627	0.248815	0.866891	-0.028131	0.508550	-0.959538	-0.130478	0.180276	-0.056497	1.060571	-0.515984	-0.072220	-0.577018	-0.567737	0.152492	-0.746438	-0.369008	-0.119208	0.444438	0.549389	0.253766	0.284709	-0.070458	0.871992	-0.002333	-0.300243	-0.273304	-0.171666	0.014989	0.443097	-0.064140	-0.311705	0.093597	-0.157028	0.013702	-0.771630	0.095419	-0.331022	0.015881	0.153705	-1.047816	-0.372757	0.341439	0.416870	-0.095158	0.203594	-0.658791	0.080021	-0.173467	-0.186368	-0.186983	-0.408565	0.139830	-0.186138	0.735497	-0.234941	-0.571978	-0.265841	-0.685203	0.605555	-0.153318	0.027727	0.161199	-0.112656	1.128926	0.348037	-0.136747	0.402083	-0.439440	-0.225516	-0.306168	0.360783	0.067059	0.711266	0.208583	-0.133245	0.052400	-0.015606	-0.355332	-0.418698	-1.091132	0.040471	-0.494646	-0.768665	0.478301	0.198170	-0.321086	0.279374	-0.237807	-0.002997	-0.422974	-0.437321	0.665934	-0.400170	-0.107307	0.410067	-0.320587	0.051685	-1.195304	0.175015	0.291148	-0.070830	0.854355	0.221127	0.511136	0.199353	0.532654	-0.451700	0.667992	-0.719762	0.159212	-0.001534	-0.894525	-0.424268	-0.055231	0.106010	-0.348881	-0.109395	-0.101918	0.147675	-1.046482	-0.398707	-0.275274	0.783982	-0.386616	-0.072258	-0.283489	-0.467560
hound	-0.222185	-0.344003	-0.025294	-0.073387	-0.578571	0.583376	0.562338	0.527874	-0.018033	0.199333	0.385921	-0.201627	-0.512335	0.498955	-0.213973	-0.008851	0.307242	0.007493	-0.135268	-0.618441	-0.028136	-0.137907	0.236738	-0.075463	-0.526232	0.159436	-0.274323	-0.450190	0.296210	0.122261	-0.047333	0.412679	0.198664	-0.200389	-0.247546	-0.216569	0.146920	-0.234742	0.119650	0.157692	-0.691849	-0.475525	0.001715	0.104572	-0.003672	0.226190	-0.546469	0.005644	-0.002910	0.046622	0.467499	0.006483	-0.660352	-0.051956	0.167287	-0.009806	0.247226	-0.200582	0.257840	0.291344	0.056492	0.576349	-0.082299	-0.496182	0.537914	0.980450	0.438154	-0.425484	-0.125704	-0.234654	-0.347137	-0.519705	0.420477	0.386446	0.163500	-0.009274	-0.352012	-0.093289	0.490844	0.341102	-0.086313	-0.205726	-0.261291	-0.260240	-0.072091	0.233324	-0.087143	0.050183	0.195693	-0.066965	0.347421	0.457493	-0.052602	0.063509	-0.182572	-0.299251	0.309058	0.041521	-0.180161	0.338307	0.240884	-0.394135	-0.080119	-0.182595	-0.622348	-0.060016	0.021710	0.227148	-0.475887	0.055824	-0.190978	-0.074575	-0.029668	0.171102	-0.495019	-0.126202	0.314751	-0.188640	-0.257902	0.003116	-0.281118	0.262882	0.258851	-0.054821	-0.228661	-0.460320	0.002386	0.205169	0.433411	-0.167794	0.318681	0.144584	-0.068914	-0.048311	-0.198551	0.573401	-0.316797	0.334524	0.155028	0.332365	-0.180951	0.262330	0.153505	-0.453078	0.422281	-0.021706	-0.001130	0.274400	-0.177002	0.269251	-0.078854	-0.501751	0.747154	0.012289	0.331311	-0.169468	-0.133783	0.348678	0.257314	0.541998	0.360748	0.065224	0.285731	-0.185948	-0.074603	0.230648	-0.493135	-0.165421	0.024825	-0.126991	0.320363	0.291461	-0.463467	0.309950	-0.444021	0.222836	0.358413	-0.254585	0.325293	0.422515	0.137943	0.047026	-0.360989	0.058141	0.244257	-0.569463	-0.008295	-0.475820	0.113304	-0.008096	-0.231323	0.440187	-0.314964	0.164211	-0.104367	0.147857	-0.054351	-0.645842	-0.209480	0.257525	-0.927177	-0.013008	0.397343	-0.222096	0.137224	-0.058104	-0.410156	0.219659	0.090813	-0.093468	0.256578	-0.166477	0.181550	0.671172	0.377489	-0.261779	-0.114480	0.154223	-0.112792	0.383949	-0.278092	-0.143588	0.082557	-0.748664	-0.073559	-0.326157	-0.057496	-0.188274	-0.230714	-0.195960	-0.045906	0.169008	0.293426	-0.035089	-0.098347	0.306508	-0.171291	-0.071369	-0.319704	0.346288	-0.700001	0.422223	0.255660	-0.746314	0.291158	-0.490873	-0.059740	0.029940	-0.027540	0.244103	0.002531	0.179240	-0.395859	0.044072	-0.447178	0.042365	-0.141061	-0.434079	-0.295908	-0.328977	0.104201	-0.742432	-0.045564	-0.735411	-0.152947	-0.819318	-0.065487	-0.042344	0.227875	-0.174440	0.116176	0.270477	0.024197	-0.039057	0.080723	0.347009	-0.802351	-0.657443	0.048034	0.010099	-0.192392	-0.527791	-0.259137	-0.320710	0.054730	-0.508305	-0.301280	0.064836	-0.024192	-0.064036	0.215046	-0.381724	-0.122627	0.474076	0.418669	-0.066597	0.238243	-0.280638	0.187076	0.246445
pet	-0.203138	-0.154438	0.466268	0.323968	0.119047	0.235080	0.959178	-0.512910	-0.202411	0.350310	0.400955	-0.116378	-0.444675	-0.215123	-0.014662	1.029052	-0.614944	-0.603970	-0.147711	-0.411051	0.529792	0.606607	-0.249807	0.458967	0.244587	-0.192395	-0.145573	-0.338559	0.869534	-0.113103	-0.149982	0.339677	-0.209260	-0.732584	0.223669	0.685746	0.532645	0.352471	0.326796	-0.044709	-0.779722	-0.442334	0.164125	0.161779	0.667157	-0.407842	-0.344250	0.860645	-0.062387	0.307231	0.206115	-0.061728	-0.449397	0.043379	-0.131854	-0.365340	-0.623684	0.208966	-0.448637	0.015008	-0.067053	0.432366	-0.278728	-0.037860	0.504844	-0.187679	0.789976	-0.567831	-0.451242	0.425718	-0.111322	0.251587	0.620677	0.246870	-0.101013	-0.282902	-0.005729	-0.235820	0.154930	-0.553993	-0.333959	-0.166299	-0.413227	0.248626	-0.366271	0.765644	-0.352848	0.478451	0.082079	-0.152128	0.647017	0.320764	0.104397	0.060800	-0.444902	-0.620011	-0.227864	0.003194	-0.120872	1.186591	-0.163966	-0.000794	-0.014828	0.205429	-0.361916	-0.140193	-0.142855	0.048525	0.014536	0.111812	-0.185648	-0.129395	0.113862	0.056489	0.313273	0.505143	0.385576	0.181312	-0.125922	0.284615	0.213017	0.292347	0.416592	-0.101990	0.110579	-0.105286	-0.249050	0.037618	0.719569	0.554331	0.585109	0.430451	-0.422561	0.608161	0.247377	0.033570	0.126764	0.379350	0.008019	-0.243057	-0.107080	0.345841	0.218559	-0.051415	0.076834	0.389711	-0.080649	0.106180	-0.004932	-0.427241	0.028327	-0.263336	0.280326	-0.010445	0.591203	0.507323	0.354731	0.230606	0.421608	0.534891	-0.189377	0.095141	0.489284	-0.228529	-0.180873	-0.417366	-0.203705	-0.141953	0.245764	0.466500	0.217693	0.207338	0.235558	-0.170195	0.461987	0.564225	0.244411	0.573183	-0.787554	-0.161851	0.037933	0.186148	-0.518341	0.192549	0.092059	0.478466	0.319256	-0.327812	-0.169945	0.073978	0.590030	0.330213	0.385590	0.060899	0.267996	-0.103290	-0.268771	-0.370533	-0.661256	-0.058732	-0.328193	0.319419	0.244682	-0.316166	0.171269	-0.693880	-0.057072	-0.451650	0.167445	0.292933	-0.120216	0.003027	0.017641	0.217405	0.427361	-0.235036	-0.441864	0.297922	-0.377186	0.093694	0.114804	0.301665	-0.068896	-0.332915	-0.146204	0.066008	0.773740	-0.250430	-0.138522	-0.898581	-0.515902	0.233554	-0.249727	-0.289124	0.338994	-0.617971	0.291231	0.405292	-0.013599	0.261957	-0.774961	0.715428	-0.891670	-0.564382	-0.046468	0.225003	-0.351420	0.979219	0.452681	-0.055048	0.610060	0.110803	-0.565424	0.022734	-0.297844	-0.451513	0.366170	-0.835735	-0.107467	0.159441	-0.284094	-0.347342	0.268967	-0.082610	0.174478	-0.864696	0.469554	0.441608	0.282499	-0.224270	-0.127405	0.875511	-0.134541	-0.156474	-0.271621	0.066738	-0.641219	-0.226642	0.003444	-0.443350	-0.077259	-0.252035	0.302884	-0.017224	-0.426710	0.027179	-0.622654	0.430223	-0.388788	-0.057992	0.575609	-0.380234	-0.630351	0.090149	-0.031053	0.178903	0.594949	0.103619	0.459201	-0.344219
chicken	-0.197381	-0.106650	0.120080	0.710779	0.524764	-0.281632	-0.158883	-0.746737	0.122985	0.197315	1.147885	0.093777	-0.149086	0.364590	0.290938	0.601179	-0.571068	-0.746129	-0.581316	-0.075958	0.394231	-0.421498	-0.156612	0.535089	0.014017	0.245450	-0.571598	-0.452013	1.084605	0.278095	0.737895	0.217919	-0.005858	-1.144646	0.177556	0.829762	0.348050	0.302866	0.084040	0.289212	-0.382741	0.051649	-0.425238	0.442676	0.420449	0.098218	0.225719	0.375566	0.630747	0.095281	-0.110673	-0.040539	-0.134193	0.052843	-0.165860	-0.235585	-0.302226	-0.085695	-0.613240	-0.671504	-0.120656	0.181486	0.077598	-0.280274	0.684998	-0.564184	0.141279	-0.495419	-0.441966	-0.155380	-0.380470	0.297466	-0.056992	0.457647	0.575334	0.443411	-0.146153	-0.390346	-0.335232	-0.278490	0.484024	-0.019307	-0.278876	-0.252557	-0.989077	0.611923	-0.347803	0.610495	-0.014197	0.215123	-0.294130	0.314389	0.232512	0.014904	-0.223078	-0.767666	-0.303573	0.476200	0.435185	0.393697	-0.058931	0.229126	0.191604	-0.611682	-0.445098	-0.059033	0.022672	-0.141348	0.496426	-0.528305	0.962639	0.596574	0.492308	0.028583	-0.036204	0.439275	0.298849	0.113428	-0.246806	0.319338	0.263779	0.035060	0.038657	-0.728398	-0.560392	-0.013266	-0.530515	1.196477	0.379947	0.334611	-0.107528	-0.539210	-0.008419	-0.326748	0.211810	0.317620	-0.254232	0.901048	-0.743782	0.818214	0.622026	-0.076194	-0.192554	0.092466	0.436354	0.141177	0.457694	-0.446044	-0.052071	-0.203468	-0.401992	-0.567583	0.535840	-0.093205	-0.091137	0.768244	-0.076716	-0.312632	-0.126823	0.691782	0.219083	-0.156027	0.421512	-0.361152	-0.406134	0.185689	-0.173454	0.049081	-0.451837	-0.029983	-0.487690	1.032344	0.515572	0.649007	0.956452	0.179835	0.788651	-0.669298	-0.071679	0.068736	0.153996	1.112264	-0.304840	-0.022703	-0.543259	-0.225282	0.283540	-0.105858	-0.046897	0.270531	0.073157	0.662273	0.639832	0.369408	0.003602	0.646121	0.133082	0.084641	-0.535665	-0.401256	-0.108295	0.083179	0.018772	-0.158457	0.472792	-0.385756	0.108416	-0.750278	0.373951	-0.512095	-0.311155	-0.444799	-0.320878	0.216121	0.112912	0.424910	-0.176482	-0.308184	-0.470383	-0.234249	-0.521469	-0.101794	-0.597451	-0.348706	-0.149311	0.311199	0.754192	-0.418570	-0.148895	-0.442377	-0.297379	0.593427	-0.760235	0.029274	0.180172	-0.305940	0.935513	0.677971	0.022075	0.526141	-0.519802	0.186031	-0.118615	0.147433	0.286229	0.559634	0.245004	-0.644003	-0.047994	0.160602	-0.461851	-0.298424	-1.043425	-0.405090	-0.735902	-0.335365	0.539096	0.173392	-0.706236	-0.035381	-0.124990	0.179327	-0.077695	-0.326385	0.442443	-0.534215	0.305503	-0.083725	-0.340317	-0.104565	-1.194983	0.608698	-0.041366	-0.504115	0.495296	0.100803	-0.167576	0.369277	0.247834	-0.953899	0.111408	-0.771272	-0.688726	-0.001594	-1.217929	0.116995	-0.141198	0.478031	-0.312581	0.251618	-0.143971	0.156434	-1.145689	0.142499	-0.081365	0.548369	-0.236038	0.279049	-0.253032	-0.809562
kid	0.275392	0.035158	0.455754	0.394904	-0.155266	0.323347	0.228490	-0.676921	0.032296	0.636171	0.438310	0.145858	-0.356836	0.062323	0.028121	0.650867	-0.344851	-0.350282	0.288541	-0.217522	0.119832	0.332870	0.375227	-0.555454	0.042173	-0.057166	-0.042739	-0.327178	0.064006	0.487401	0.582162	0.240251	-0.191405	-0.678545	0.413071	0.857434	-0.042201	0.556513	-0.034322	0.059809	-0.181543	-0.429033	0.299699	0.052358	0.010252	-0.716564	-0.437194	0.731476	-0.385532	0.155676	0.651030	-0.637822	-0.599654	-0.309472	-0.380743	0.845709	0.197345	0.200418	-0.420795	0.554882	0.237438	-0.374640	0.001699	-0.524202	-0.572941	0.068360	0.105985	0.080706	-0.178054	0.230165	-0.044273	0.228463	0.654901	-0.257633	0.052138	-0.410289	0.230708	0.085101	-0.072237	-0.683584	-0.404549	-0.676447	0.286693	0.249350	-0.181585	0.618538	0.047108	0.215787	-0.068446	0.153968	0.132877	-0.248448	-0.207401	-0.064363	-0.795132	-0.453808	0.111556	0.504373	0.879150	0.498287	0.212241	0.169229	0.433969	0.105453	0.130790	0.169437	0.138006	0.286724	-0.121098	0.394487	0.098577	0.663001	-0.943013	-0.265838	-0.257190	-0.201214	-0.126289	0.860437	-0.247151	0.444240	-0.381745	0.179518	-0.274875	-0.165259	-0.458285	0.099684	0.035294	-0.421042	-0.176561	0.085697	-0.358035	-0.030521	-0.417742	0.139702	0.173946	0.515363	0.191575	-0.043339	-0.319392	0.068529	-0.624036	-0.166762	0.145831	0.354672	-0.427695	0.017623	0.099050	0.093503	-0.205908	0.127616	-0.353929	-0.223984	0.083250	0.189238	-0.426159	0.373685	0.684714	0.613244	0.607020	1.113020	0.538745	-0.601573	0.269872	-0.539767	-0.123623	0.369029	-0.107796	0.592054	0.325968	0.389722	0.239875	-0.001603	-0.033802	0.261473	-0.020628	0.286970	0.122969	-0.146212	0.014687	0.433874	0.004151	0.540579	-0.020704	-0.349367	-0.195488	-0.457766	0.096014	-0.523059	-0.614871	-0.050025	0.631871	0.000893	0.687551	-0.353763	0.093031	-0.202803	-0.080759	0.044003	-0.913697	0.237500	-0.720752	0.073904	-0.166107	0.243941	0.080048	-0.530793	0.427820	0.145342	0.786307	0.081011	-0.037356	-0.055845	-0.310286	0.394895	0.752842	-0.144298	-0.087154	0.428959	0.385460	0.557320	-0.134001	-0.248314	0.758714	0.030725	-0.227593	0.037723	0.518525	0.575204	-0.212265	-0.104946	-0.552687	-0.469198	-0.546240	-0.605005	-0.259630	0.316551	0.531462	0.316727	0.365253	0.580298	-0.613535	0.496270	0.159246	-0.045164	-0.932242	-0.435676	0.400432	0.242926	0.359142	-0.157486	0.821809	0.414881	-0.575690	-0.603486	-0.164085	-0.229819	0.380082	-0.606537	0.233054	0.234197	-0.634304	0.306775	0.400470	-0.029109	0.449077	-0.384900	0.124290	0.457277	0.371147	-0.104721	-0.516498	0.399657	0.252578	-0.385273	-0.003798	0.063894	-0.165617	-0.494022	-0.532651	-0.159832	-0.876561	-0.891436	-0.041014	-0.600650	-0.502781	0.076144	-0.226688	0.394353	-0.306790	0.106918	-0.015191	-0.199148	-1.104332	-0.560471	0.106992	0.568692	0.569041	-0.166809	-0.228430	0.476027
bird	0.301633	0.298676	0.021643	1.031316	0.201886	0.168948	-0.282710	-0.562947	0.674635	0.081089	0.101383	-0.325981	-0.898098	0.244946	0.293095	0.272907	-0.412431	-0.071842	-0.103265	0.057167	0.345726	0.737009	-0.357912	0.610434	0.169256	0.336674	-0.585839	-0.518765	0.249267	0.558807	0.202018	0.572584	-0.039573	-1.267621	0.666472	0.467396	0.027841	0.635838	0.337289	-0.136915	-0.402184	-0.187962	-0.404050	-0.253239	0.688887	-0.254180	-0.205670	0.330427	0.556645	0.463852	-0.300461	0.047594	0.127858	0.362845	0.219491	0.515360	-0.132524	-0.118040	-0.549645	-0.857296	-0.320069	-0.140977	0.163638	-0.118636	0.713822	-0.370403	0.396098	-0.810239	-0.304260	0.104094	-0.074171	0.239835	0.641647	0.388727	1.017577	-0.020434	-0.640034	-0.383079	0.503533	-0.894324	-0.103828	-0.305090	-0.362075	0.097111	-0.485531	0.172443	-0.253415	0.381473	-0.010669	0.344119	-0.007726	1.070639	0.551790	-0.389594	-0.343885	-0.601381	0.360497	0.297039	-0.362238	0.075664	0.271405	0.264808	0.110805	-0.098535	0.284489	0.112585	-0.106118	-0.110773	0.685445	-0.287440	-0.011082	0.488194	0.566319	-0.374625	0.246578	-0.372693	0.765083	0.107448	0.383935	0.197007	-0.443909	0.242867	0.441842	-0.212170	0.325318	-0.021437	-0.556734	0.914995	0.094110	0.652990	0.514502	-0.290521	0.073972	-0.346695	0.323990	-0.043157	0.039996	0.932031	-0.077899	0.142952	0.183833	-0.164495	0.187311	-0.054473	0.530463	0.066043	-0.584639	-0.563685	0.027832	-0.347148	0.273355	-0.204487	0.321533	-0.132418	0.208675	1.047764	0.568332	-0.073958	-0.551466	0.224805	-0.009225	-0.047334	0.477482	-0.555512	-0.138060	-0.656867	-0.503150	0.124797	0.455367	0.040209	0.364579	0.496079	0.131257	0.084439	0.462748	0.516337	-0.046683	-0.490767	-0.169130	-0.615663	-0.132544	0.758882	0.031799	0.334047	0.039568	-0.111987	0.151548	0.255955	0.296984	0.610724	0.241710	-0.034036	0.615114	0.183303	0.314389	0.829823	0.025727	0.655771	-0.391427	-0.298644	-0.539463	0.356954	-0.327148	-0.056065	0.461898	0.030029	-0.401819	-0.450495	0.468300	0.107541	-0.054806	-0.719254	-0.413416	-0.485138	0.781478	0.022130	-0.224505	-0.779673	-0.684364	-0.278321	-0.041550	-0.478735	-0.464957	-0.370075	-0.429720	-0.065466	0.480746	-0.363587	-0.821727	-0.411550	-0.882748	0.182660	-0.834574	0.302812	0.069250	0.122037	0.844952	0.311581	0.450783	0.772666	-1.063560	0.151211	-0.548456	0.490777	0.208236	0.900447	0.107886	-0.109463	0.946484	0.139954	-0.046897	0.706806	-1.264355	-0.157833	-0.055973	-0.400916	0.278152	-0.097832	-0.244525	0.443243	0.087563	0.394491	0.123047	-0.270412	0.388160	-1.096165	-0.325820	0.007987	0.093432	0.064190	-0.538684	1.077698	0.249459	-0.405288	-0.021536	-0.015953	-0.392663	0.263747	-0.129920	-0.755648	0.324091	-0.676602	0.305802	-0.169515	-0.063954	-0.203268	-0.351087	0.116198	-0.977720	-0.026969	0.168252	-0.341640	-0.760739	-0.293515	0.489234	0.728405	-0.390134	-0.124977	-0.021840	-0.181063
oil	-0.142131	0.127789	0.194488	0.259837	-0.224100	-0.800363	0.062591	0.398281	-0.759269	-0.693866	0.589725	0.104574	-0.011430	0.677279	-0.891922	0.736729	-0.051286	-1.093950	-0.084951	-0.281210	0.592530	0.141843	0.293925	-0.235839	0.187138	-0.083927	-0.972741	-0.208544	-0.378199	-0.550702	0.191043	0.098322	0.069935	-0.931673	0.919343	0.626987	0.069442	1.380586	-0.265002	-1.327148	-0.290407	-0.135341	-0.216340	0.199106	-0.773697	0.445741	-0.320918	-0.454672	-0.271798	0.654743	-0.884149	0.664183	0.445150	1.341385	0.373281	-0.010802	-0.277569	0.382679	-0.959511	0.258254	-0.291618	-1.094684	0.054193	0.887592	1.779092	0.067109	0.225383	-0.916116	-0.014182	0.397016	-0.203869	-0.035355	0.039859	0.589041	0.436516	0.407571	-0.559073	0.333403	-0.443653	-0.886752	-0.094630	-0.520856	-1.194701	-0.259197	-0.026985	0.180076	-0.180001	-0.150756	-0.372651	-0.240377	0.158343	-0.368841	-0.484539	0.058218	-1.248759	0.655419	-0.605746	0.744821	-0.637347	-0.154101	-0.887250	-0.012692	-0.178365	0.321511	-0.105101	-0.054576	-0.179741	-0.666258	-0.035374	-0.699293	0.477327	0.029187	0.598534	0.157491	0.065442	0.150378	0.098444	0.212498	-0.228149	-0.444832	-0.483389	0.243339	-0.335588	0.010476	0.430719	-0.134402	-0.258463	0.339697	-0.226464	0.042775	-0.889972	0.324835	-0.451950	-0.050416	0.327212	0.036689	0.061136	-0.537888	-0.541549	0.384219	0.051341	-0.330930	0.104837	0.805156	-0.009427	0.012185	0.053060	-0.251786	-0.716233	0.984098	-0.002188	0.212781	-0.227066	1.111997	0.250075	0.934486	0.598530	-0.015067	-0.186638	1.499295	-0.763149	-0.349614	-0.299141	1.273690	0.169069	0.730257	0.439203	0.004509	-0.047357	0.266463	-0.452234	-0.330376	0.320128	0.194868	0.292384	0.214658	-0.054352	0.560509	0.035072	0.872263	-0.020312	0.503450	-0.279961	0.357960	-0.504906	0.333472	-0.700933	0.117069	0.246530	0.529507	-0.775756	-0.056812	0.371581	0.372499	-0.099349	-0.280897	0.092437	-0.566680	-0.083912	-0.342918	-0.374301	0.976899	-0.501485	0.294371	0.413958	0.333603	0.479095	-0.128457	0.292740	-0.488839	-1.061215	-0.848659	0.486817	-0.214553	-1.115778	-0.000303	-0.022604	-0.500209	-0.248437	-0.589886	-0.160951	-0.846983	-0.122982	0.193398	-0.464013	-0.153675	0.571982	-0.591460	-0.107539	0.200102	-0.251936	0.173898	-1.565535	0.164486	-0.337061	-0.410316	0.472107	-0.075172	0.992337	1.008111	-0.501003	0.312764	0.006536	0.160470	-0.312357	0.557656	0.045491	-0.003784	0.282845	0.561284	-0.787927	1.228079	-0.810801	0.206758	0.238612	0.316715	0.099955	0.227531	-0.327362	-1.163500	-0.100271	-0.414900	0.893741	0.358293	0.126049	-1.340257	0.217393	-0.038905	-0.234152	-0.255441	0.209371	0.271058	0.207280	0.194224	0.984661	-0.511276	0.272100	-0.192058	0.214176	-0.439257	0.183793	-0.588705	-0.939360	-0.643127	-1.072416	0.083148	-0.093949	0.243750	-0.175077	0.071011	0.524427	0.758298	0.285753	-0.765182	-0.484983	0.051431	-0.393239	-0.230295	-0.114931	0.094581
steak	0.378775	0.030869	0.081748	0.044847	0.257905	-0.423382	0.212612	-0.612632	0.055441	-0.179996	0.822293	-0.020432	0.213705	0.005194	-0.147710	0.792706	-0.889789	-1.246140	-0.096901	0.016749	-0.258845	-0.311622	0.650443	0.159783	-0.267949	-0.091597	-0.388340	0.033945	0.745247	0.099674	0.376257	-0.023860	-0.270717	-0.422691	-0.044196	0.571929	0.134811	0.009408	-0.218640	0.583695	-0.599205	0.884740	-0.318303	0.147221	-0.132486	-0.019853	0.135523	-0.125227	0.301361	-0.238457	0.379882	0.332014	0.127981	0.282965	-0.747141	-0.167573	-0.027275	-0.129931	-0.408280	-0.529032	-0.620881	-0.155057	-0.048902	-0.078804	0.490544	-0.546609	-0.099910	-0.458305	-0.048663	-0.325744	-0.578907	0.221394	-0.202535	0.192497	-0.148562	0.744479	-0.042262	-0.287174	0.265839	0.502444	0.171978	-0.105050	-0.267079	0.131801	-0.443498	0.133750	0.027302	0.453164	-0.262831	-0.452291	-0.253664	-0.288999	0.320810	-0.168550	-0.130744	-0.972338	0.486351	0.485947	0.522246	0.779324	-1.005550	-0.656094	0.555340	-0.378085	-0.846890	-0.153602	-0.180825	0.007985	-0.056814	-0.672310	0.925165	0.201437	0.210001	0.647507	0.325323	0.268769	-0.129104	0.394328	0.255121	-0.194805	0.269045	0.377424	-0.365278	0.016279	-0.452085	0.002149	0.184645	0.542501	0.414225	0.371064	-0.165758	-0.655379	-0.178871	0.103406	0.167258	-0.210514	-0.599552	0.096326	-0.028180	-0.287866	0.444065	-0.349578	0.539429	-0.150327	-0.283317	-0.453541	0.101764	-0.097269	0.491035	0.284593	-0.413070	0.571333	0.724431	0.246445	0.046668	0.479774	-0.284998	0.182032	0.905281	1.313271	0.294918	0.211933	0.596826	-0.409003	0.273825	0.703357	-0.198681	0.091479	-0.474237	-0.143957	-0.146422	0.965608	0.069987	0.283598	1.248636	-0.134883	-0.070929	-0.595776	-0.169098	0.382736	0.573135	0.198236	0.079796	-0.197938	-0.504916	-0.233507	0.363123	-0.102019	-0.262006	-0.205965	0.743754	0.414143	0.142009	0.236329	1.021473	0.447698	0.292789	0.004714	-0.264425	-0.367701	0.222810	0.173975	0.261387	-0.443980	-0.023251	-0.540701	0.233212	-0.566942	-0.485724	0.022026	0.206802	-0.388460	-0.618309	0.304186	-0.187577	0.245300	-0.719964	0.354486	-0.208309	-0.570791	-0.433080	0.092121	-0.148310	-0.221305	0.134410	-0.000337	0.007978	0.190370	-0.320492	-0.466461	-0.353849	0.671027	-0.107924	0.292968	0.400890	0.078244	0.266718	0.358034	-0.725385	-0.840225	0.015799	0.640469	0.261815	0.609327	-0.507580	0.553734	0.316194	-0.365309	-0.486933	0.174563	0.106918	0.028498	-0.567652	0.216079	0.224107	-0.586040	0.498061	0.594150	0.097584	-0.392038	0.176034	-0.168123	-0.576878	-0.318451	0.451273	0.010037	-0.032975	0.480683	-0.828672	-0.201141	-0.427507	0.709856	0.429550	-0.714158	0.202865	0.315419	-0.076296	-0.127921	0.340636	-0.670503	-0.644091	-0.677856	-0.815238	-0.059122	-1.092935	-0.265117	0.154529	0.157687	-0.242927	0.186692	-0.697009	0.669098	-0.105272	-0.363466	-0.506120	0.809072	-0.547489	0.143643	-0.062811	-0.336809
bull	-0.493939	0.435713	-0.600722	-0.333590	0.126972	0.037032	0.307276	-0.349521	-0.495858	0.302675	0.648125	-0.461661	0.330873	-0.201516	-0.272281	0.080700	-0.198826	-0.427511	0.608447	-0.038783	0.208569	-0.591625	0.199377	-0.195019	-0.085525	0.604185	0.106568	-0.483729	-0.410408	0.176697	-0.029358	0.673335	-0.192430	-0.458742	0.467324	-0.260908	0.241127	-0.498970	0.076665	-0.108414	-0.072423	-0.271834	-0.161801	-0.013282	0.487387	0.149759	-0.214654	0.431073	0.412534	0.040569	0.004974	-0.446492	0.812395	0.105937	-0.054914	-0.052036	-0.739043	-0.042521	-0.373383	-0.181548	0.574451	-0.206664	0.507071	0.362318	0.569374	-0.378987	0.605423	0.463829	-0.252768	-0.368595	-0.040818	0.497092	-0.353746	0.331195	-0.116918	0.521068	-0.664260	-0.346667	0.137966	-0.056179	-0.602030	-0.047724	-0.252104	0.215343	-0.024897	0.128791	0.023125	-0.205587	-0.476109	0.350524	-0.059842	-0.153665	-0.534646	-0.340644	-0.228826	-0.722717	0.851380	0.219239	-0.198819	-0.032582	-0.277672	0.151697	-0.204957	-0.115670	-0.553746	-0.109680	-0.341957	0.319918	-0.116071	-0.288428	0.426349	0.591371	0.404076	0.305337	-0.120713	0.055442	0.346076	-0.376173	-0.534302	-0.118757	-0.058313	0.330121	0.431628	-0.216598	-0.040164	-0.207517	0.104760	0.396998	0.299975	0.763168	-0.416691	-0.108820	-0.116798	0.524530	0.155317	0.031619	0.010075	-0.199421	-0.689425	-0.059574	-0.479866	0.529240	-0.328914	0.075844	-0.425711	-0.002553	-0.486653	0.071027	0.333899	0.623376	0.339356	-0.491817	-0.059443	0.061908	-0.029548	0.347268	0.588059	0.138989	0.248844	1.731443	0.145659	0.332528	0.193353	0.037748	0.077533	0.035840	-0.496530	0.264908	0.864404	0.335266	0.110201	0.099866	0.119233	0.650948	0.334060	-0.136355	-0.092981	-0.481668	0.251240	0.350012	0.814024	0.388362	0.127741	-0.221104	0.150036	-0.437656	0.372766	-0.253217	-0.373871	-0.110958	-1.017605	0.362558	-0.137536	0.219980	-0.409388	-0.305650	0.274492	-0.248379	-0.327431	0.202405	-0.655741	-0.179263	0.143453	0.052625	0.258696	-0.099478	0.357070	0.137518	-0.009026	0.465352	0.600227	-0.351872	0.562502	0.542473	0.334380	-0.537863	-0.331476	0.428394	-0.522809	-0.310843	-0.314907	-0.067591	-0.331591	-0.739807	0.211495	-0.683270	0.387949	-0.044457	-1.175295	-0.972804	-0.363016	1.112549	0.011042	-0.405186	-0.466591	-0.569675	0.137415	-0.117828	-0.279152	0.069327	-0.766400	0.599168	-0.165813	-0.775124	0.427885	0.255089	0.245155	0.274789	0.601074	-0.023706	0.561662	0.503467	-0.169852	0.062021	-0.046047	0.015753	0.207229	0.352651	0.358155	-0.152400	-0.142252	-0.275839	-0.031063	0.014990	0.251710	-0.786516	0.332822	0.419766	-0.273417	-0.434677	0.469561	0.799393	0.104072	0.278123	-0.223751	-0.021398	-0.285516	-0.506882	-0.018233	-0.072780	0.282573	0.014345	0.504147	-0.333549	-0.300752	-0.474270	-0.415559	0.588350	0.189506	-0.427464	-0.184090	-0.340299	-0.323307	0.089240	-0.242370	0.715733	0.213325	-0.124332	0.114238	0.065272
fox	-0.013457	-0.218189	-0.401130	0.069955	-0.221745	0.725125	0.174795	0.041592	0.294114	0.161685	0.993458	-0.145209	-0.107946	0.356767	-0.026589	-0.036306	-0.135260	0.099006	-0.289969	-0.552070	0.068295	0.144116	0.190151	0.187660	-0.244889	0.110372	-0.232206	0.216477	0.074175	-0.436325	0.099706	0.161660	0.121210	-0.328969	0.286034	-0.413058	-0.218798	-0.112146	-0.117193	0.538315	-0.366429	0.178094	0.193268	0.586355	-0.424672	0.454039	-0.422643	0.412385	0.506879	0.186711	-0.016207	-0.343069	-0.676917	0.366364	-0.494882	0.758951	0.196616	-0.337844	0.474509	0.213877	-0.295357	0.319063	0.256806	-0.288638	0.153053	-0.030234	0.645818	-0.240828	-0.289954	0.055435	-0.386114	-0.079829	0.770486	0.584070	0.597770	-0.188142	-0.426322	-0.256703	0.652712	-0.298926	0.195779	0.323897	-0.317233	-0.047969	-0.508975	0.442822	-0.588679	0.452411	-0.436938	-0.538811	0.239915	0.336412	-0.665415	-0.333663	-0.096041	-0.739319	0.089739	0.523294	-0.665871	0.705416	-0.162885	0.098173	0.334013	-0.492264	-0.232157	0.567108	-0.069717	-0.821525	-0.370843	-0.427696	0.382381	0.028171	0.531222	0.369667	-0.314688	-0.364575	0.238113	0.380651	0.145120	-0.319193	0.219769	0.833578	-0.081310	0.060510	-0.617938	-0.151025	0.313083	0.487920	0.476590	0.644019	0.224717	-0.226315	0.064310	-0.565107	0.403142	0.414702	-0.105363	-0.030410	-0.414495	0.228040	-0.189460	0.197249	-0.020614	-0.313427	0.468306	0.021179	-0.192671	0.178751	-0.797429	0.003306	-0.080365	-0.196881	0.895110	-0.363095	-0.138007	-0.098530	0.169560	-0.132001	-0.241761	0.503563	0.647509	-0.514262	0.204716	-0.106809	-0.190074	0.014307	-0.126318	-0.026574	0.279354	-0.634613	0.068769	0.845457	0.155458	0.098803	-0.326932	0.188086	-0.261846	-0.587417	0.198510	0.351408	0.550372	-0.473907	-0.449970	0.031291	0.020795	-0.666496	-0.042498	0.213397	0.202435	-0.025373	-0.681782	0.403107	0.417595	0.224288	0.369226	0.441159	-0.169290	0.034196	-0.287076	0.248317	-0.222625	-0.634470	0.058250	-0.553072	0.588583	-0.279215	-0.670786	-0.056331	0.071616	-0.063201	0.440522	-0.300780	-0.087358	0.541787	0.296714	-0.391564	0.205982	0.131559	-0.208962	0.051902	-0.203861	-0.291645	0.042693	-0.491072	-0.537179	-0.186565	0.128568	0.267818	-0.219332	0.304596	0.143423	0.537162	0.189646	-0.141299	0.042978	0.285383	-0.065546	-0.502009	0.179827	-0.092666	-0.435689	0.201006	-0.165336	-0.438798	0.543599	0.823492	-0.448858	0.535091	0.468842	0.195123	0.372950	0.062022	-0.842656	0.111761	0.161010	-0.559815	0.257194	-0.578334	-0.178040	0.081319	-0.418066	0.195703	-0.113481	-0.541209	0.539185	-0.808763	0.475835	-0.045208	0.597944	-0.335419	-0.217854	0.359717	-0.368806	-0.647338	0.199473	0.426483	-0.691573	-0.043590	-0.330885	-0.293966	-0.327017	-0.219363	0.222024	-0.651393	-0.026107	-0.727295	-0.398530	0.070163	-0.018775	-0.485340	-0.240733	-0.276890	-0.472142	0.489900	0.429456	0.036552	-0.077088	-0.140814	-0.005625	-0.026083
mare	-0.157349	0.341553	0.132450	0.143464	0.701783	-0.160497	-0.114921	0.156661	-0.034672	-0.455053	0.385711	0.159884	0.022923	-0.028362	-0.032370	-0.020533	0.308782	-0.098470	0.389082	-0.037731	0.101865	-0.450281	0.588371	-0.224864	0.215195	-0.449323	0.097238	0.105632	-0.430804	0.814249	-0.151081	0.235354	-0.323384	0.186846	0.414769	-0.120819	-0.086893	-0.294955	0.909466	-0.445153	0.395924	-0.040463	-0.167035	0.507398	0.436093	0.301723	-0.406268	0.204486	-0.209103	0.416697	-0.064354	-0.492539	-0.476111	0.784680	0.237551	0.126047	-0.322702	-0.229587	-0.530047	0.165612	-0.242522	-0.161825	0.585522	0.206982	0.129419	-0.343614	0.135050	0.140076	-0.080773	-0.178233	0.174098	-0.016570	-0.219191	0.471311	0.090957	0.167768	0.543110	-0.352828	-0.103726	-0.199937	-0.585455	0.431243	-0.094174	0.356531	-0.571293	-0.358406	0.262855	0.135694	-0.045828	0.297784	0.334963	0.409082	-0.768621	-0.227564	-0.155227	-0.162196	0.929410	-0.609414	0.026208	0.403682	0.301308	0.862552	0.179351	-0.213923	-0.003253	-0.023870	-0.000158	0.207056	-0.019838	-0.026310	0.532061	0.726676	-0.335212	0.026222	-0.208999	0.706973	0.658038	0.031428	-1.131322	0.149891	0.154069	0.341103	0.347491	-0.069771	0.046070	-0.267518	0.187247	-0.075385	-0.097311	-0.446146	-0.005371	0.675346	0.167181	-0.221594	-0.106503	0.318922	-0.448837	0.309424	-0.361262	0.515525	0.148362	0.697832	-0.159436	-0.531040	-0.422351	-0.639959	-0.036772	0.138432	-0.537335	-0.115436	0.385414	-0.035727	0.729355	0.155160	-0.467190	0.263538	0.853294	-0.404191	0.252946	0.373889	0.060616	0.222744	-0.079387	-0.804721	-0.149234	0.576143	-0.587645	0.033251	0.052809	-0.052665	0.941136	0.171700	0.034263	0.191489	0.223755	0.372010	-0.255449	-0.402415	0.566831	0.111935	-0.083045	0.488272	0.097575	0.072465	0.067948	0.003840	0.467263	-0.536122	0.708070	0.011157	0.130564	0.553184	-0.206293	-0.672873	0.175443	0.003778	-0.327844	-0.754984	-0.243037	-0.582629	-0.275210	-0.293537	-0.071120	0.633093	0.164661	-0.244124	-0.464655	0.368311	0.046409	0.435319	0.246774	-0.459789	0.284579	0.289354	0.304104	-0.039847	0.109771	0.077799	-0.234764	0.109679	-0.095402	-0.266065	-0.474467	-0.347926	-0.031028	0.212694	0.428364	0.052588	-0.384117	0.111127	0.571243	0.519623	-0.516555	0.136750	-0.077004	-0.220821	0.071811	0.350359	-0.378124	0.284024	-0.790256	-0.338351	-0.453757	-0.304814	0.235100	-0.631582	0.361143	-0.004530	0.134531	0.151562	-0.255925	-0.145891	0.450131	-0.215511	0.265840	0.450871	-0.024877	0.034765	-0.241111	-0.389411	0.136325	-0.116132	-0.243188	-0.562742	0.234563	0.325495	0.243202	0.292066	0.044682	-0.405363	0.291291	0.106889	-0.392913	-0.531446	0.203017	0.046386	0.375464	0.041373	-0.331411	0.107252	0.017673	0.247389	-0.168991	-0.162960	0.198303	-0.294781	-0.321063	-0.245644	-0.030426	-0.028917	-0.281991	-0.206988	-0.289768	0.508288	-0.055350	0.658510	0.180481	-0.571837	0.589398	-0.087247
insect	0.132943	0.113868	-0.023797	0.440576	0.468350	0.247537	-0.620832	-1.231174	0.565639	0.004376	-0.068455	-0.271282	-0.916182	-0.222827	0.422174	0.367517	0.067144	0.151229	0.025598	-0.654022	0.394057	0.553150	0.146042	0.007674	-0.055898	0.188701	-0.266207	-0.034327	0.122648	0.389207	0.304859	-0.485357	-0.437338	-0.563510	0.104326	-0.140773	0.792924	0.262575	-0.318623	0.293438	-0.040752	-0.379085	-0.632714	-0.014887	-0.192262	-0.384331	0.029914	0.953376	0.053152	0.571785	-0.342326	0.103735	-0.311304	-0.531594	0.071990	-0.001139	-0.382117	-0.319954	-0.433879	-0.344610	-0.669548	-0.098819	-0.072312	0.041823	-0.409129	-0.323511	0.470342	-0.544274	-0.101007	-0.010622	-0.735950	0.449675	0.248017	-0.323294	0.653127	0.026599	-0.510074	0.065663	1.025782	-1.109320	0.072587	-0.238939	0.019221	-0.194197	0.074981	-0.752447	0.069256	0.824514	-0.148434	-0.090863	-0.061559	0.913037	0.022909	0.068855	-0.673988	-0.117877	0.008834	0.508485	-0.402545	-0.024924	0.286913	0.410162	-0.223118	-0.135118	-0.052953	0.438509	-0.664010	-0.376863	0.214366	-0.209437	0.491747	0.290617	-0.184411	0.053316	0.263226	-0.583296	0.174090	-0.170919	0.576915	0.429020	0.233215	0.582382	0.060542	0.195161	0.495506	-0.266740	-0.096299	0.472047	0.440195	0.603563	0.195684	0.072397	0.077780	-1.028828	0.093677	-0.142620	-0.313142	0.939248	0.450890	0.137544	-0.323320	0.417798	0.263826	0.244459	0.439746	0.097698	-0.021054	0.304320	0.449359	-0.406188	0.097852	0.291224	-0.075107	0.060274	0.765156	0.899990	0.277014	0.255613	-0.379944	0.145969	0.293723	0.319082	0.312716	-0.487523	0.140171	-0.115887	0.453449	0.274017	-0.293344	-0.144872	0.039429	0.671627	-0.512625	-0.324322	0.034146	0.628957	-0.653623	-0.045495	-0.247286	0.204177	-0.112449	0.105705	0.083174	-0.392750	0.170228	0.424693	0.479437	0.516089	-0.067929	-0.211853	-0.207431	0.198721	0.033512	-0.313940	0.316394	0.606883	-0.537323	-0.001239	-0.890725	-0.014814	-0.621057	-0.155167	-0.242844	0.110448	-0.072549	0.245611	-0.041765	0.134229	-0.244878	0.302415	0.029555	-0.222057	0.156862	0.426781	0.726202	-0.004269	-0.183938	-0.344061	0.115175	0.098123	-0.753930	-0.568831	0.372296	-0.065664	-0.499754	0.070037	-0.007208	0.185062	-0.517878	-0.080599	-0.560626	-0.383805	-0.331295	-0.082973	0.249871	-0.515002	0.778087	-0.050000	0.194508	-0.041188	-0.803083	0.387583	-0.400718	-0.000457	1.040477	-0.060995	0.179423	0.461343	0.503144	-0.237452	-0.243785	0.767538	0.071776	-0.060526	0.030368	-0.355603	-0.019316	-0.588320	0.370218	-0.091880	-0.007732	0.660885	0.173921	-0.186620	-0.275800	-0.674178	0.180284	0.469634	-0.132761	0.030207	-0.035996	0.930761	0.180404	-0.727139	0.206386	-0.292468	-0.886150	0.055313	-0.745229	-0.333292	0.234243	-0.589286	0.063289	0.459893	0.327346	-0.439161	0.097011	0.681736	-0.469398	-0.927964	-0.185256	0.460874	-0.117930	-0.265711	0.345591	0.500945	-0.552375	-0.121094	0.179425	-0.096670
beef	-0.686521	-0.102283	-0.437984	0.398654	0.254294	-0.455623	-0.083237	-0.526710	-0.616670	0.206405	1.024644	0.062973	0.555594	-0.363640	-0.429827	0.867036	-0.122025	-0.596456	-0.827606	0.009637	0.347190	-0.632967	-0.293925	0.063761	-0.540426	-0.070871	-0.620499	-0.365319	1.370075	0.150812	0.137555	0.279598	-0.389017	-1.189338	-0.256129	0.598585	0.068173	0.436896	-0.108784	0.419246	-0.161998	0.075495	-0.372200	0.204333	0.166143	0.422586	0.475936	-0.193933	-0.201551	0.114588	-0.086134	-0.153898	-0.037790	0.184444	-0.315425	-0.756066	0.285501	0.065098	-0.196621	-0.706975	-0.229512	-0.308088	0.172209	-0.230279	0.715276	-0.229008	-0.311311	-0.258196	0.507147	0.159882	-0.159894	-0.079314	0.580069	-0.056658	-0.246091	0.710214	0.132813	-0.607466	-0.469105	0.278588	1.091704	-0.334108	-0.322536	0.254410	-0.965496	0.371298	0.086371	0.075089	-0.049550	-0.347439	0.255260	0.288775	0.533692	-0.241472	-0.453326	-0.820177	0.026295	0.211698	0.429965	0.586815	-0.961747	0.151317	-0.137529	-0.280109	-0.505148	0.273515	-0.089514	-0.053165	0.021417	-0.258932	0.762492	-0.404804	0.639482	0.604605	0.624461	0.340302	0.412241	-0.089103	-0.082817	0.043921	0.525629	-0.000634	-0.576878	-0.737888	-0.162887	0.374766	0.288746	0.477450	0.448157	0.391274	-0.447856	-0.116005	-0.142122	0.091446	0.119013	-0.361475	-0.116586	0.663080	-0.471511	0.309894	1.128214	0.132654	-0.544155	0.392862	-0.064388	0.266874	-0.058036	0.152817	0.018392	0.296932	-0.187236	-0.519005	0.297250	-0.138044	-0.138860	0.999403	0.107698	-0.275464	0.074694	1.041755	0.313776	0.071346	0.182076	0.057824	0.022931	0.109901	-0.141898	0.429881	-0.352651	-0.373051	-0.321272	0.502340	-0.566419	0.994086	0.642174	0.131698	-0.293108	-1.030197	-0.241505	0.400884	0.104643	-0.003486	-0.386562	0.238304	-0.020723	-0.071096	0.283937	0.005233	-0.622731	0.259285	0.103166	0.709898	0.883548	0.193260	0.143144	0.225275	0.512949	-0.550924	-0.332363	-0.095451	0.035350	1.007770	-0.078374	0.023008	0.202812	-0.446017	1.087719	-0.520833	-0.285588	-0.149290	-0.118085	-0.012395	-0.776122	0.029939	0.201250	-0.429155	-0.075040	-0.020211	-0.507130	-0.002997	0.261233	0.537416	0.151940	-0.345195	-0.058699	0.063438	-0.012013	-0.095851	-0.449534	-0.085451	-0.178416	0.535632	-0.503925	-0.000507	-0.354311	-0.299184	0.813091	0.657710	-0.431250	0.281344	-0.255296	0.017452	0.266427	0.451125	0.090268	0.174683	0.010942	-0.236834	-0.220448	0.122317	-0.079867	0.817076	-0.873911	-0.108570	-0.523408	-0.045550	0.327811	0.609616	-0.180538	-0.380518	-0.265843	-0.288150	-0.013914	0.380397	0.748856	-0.509281	0.728835	0.190480	-0.054751	-0.303129	-0.704081	0.106392	-0.298306	0.135304	0.280171	-0.254690	0.162393	0.089639	0.323846	-0.635358	0.069169	-0.861725	-0.508372	0.166325	-0.635996	-0.471299	-0.331997	0.468817	-0.386228	0.380671	-0.515988	0.309119	-1.045830	0.050767	-0.219737	0.334828	0.001817	0.023295	-0.225869	0.220852
sheep	-0.386687	-0.261303	-0.451129	0.540211	-0.199162	-0.057043	0.169126	-0.563075	0.103150	0.479301	0.681574	0.617413	-0.064607	-0.376775	-0.022462	0.853220	-0.018134	-0.035885	-0.113265	-0.335258	0.119134	-0.281335	-0.230443	-0.131855	-0.078204	-0.340801	-0.222652	0.323418	0.775583	-0.400891	0.125652	0.234510	-0.234201	-0.880421	0.459589	-0.031422	0.055620	-0.355529	0.332966	-0.776324	-0.273941	0.153784	-0.468269	0.726771	0.180172	0.227054	-0.074131	0.807819	-0.074532	0.598161	0.424884	-0.255306	-0.434032	0.515828	-0.247198	-0.580394	-0.979434	0.023076	-0.385083	0.110860	-0.156195	0.395052	0.443520	0.412143	0.404235	-0.596847	0.033670	-0.554403	-0.369214	-0.049614	-0.864877	0.359490	0.375529	0.516007	0.249914	0.173458	-0.495759	-0.224666	-0.107579	0.454237	-0.312785	0.210244	-0.045337	-0.001937	-0.320773	0.327629	0.732909	0.310945	-0.489969	0.799175	0.577785	0.407836	-0.352007	-0.143992	-0.366139	-0.153717	0.688984	0.409654	-0.887176	0.406966	0.556427	0.697552	-0.144928	0.014878	-0.414597	0.241898	-0.166364	-0.510731	-0.076776	-0.670097	0.714939	0.103123	0.558777	0.083167	-0.108234	-0.074053	0.984787	0.063521	-0.564468	0.005118	-0.016583	0.092388	-0.013872	0.270756	0.225962	-0.086539	0.125641	0.299269	0.184256	1.331363	0.154139	-0.533797	0.176748	-0.505118	0.239166	0.237094	-0.113999	0.797421	-0.130201	0.536912	0.364544	0.429081	-0.572085	0.136160	0.955880	0.942834	0.024829	0.416514	-0.501920	-0.239049	0.080469	-0.410646	0.354283	-0.353283	-0.131647	0.307531	0.041546	0.236437	0.047529	0.622134	0.000907	0.065173	0.290986	-0.682022	-0.052403	0.092898	-0.407950	0.410052	-0.171093	0.108609	-0.124153	0.533405	-0.137431	0.573561	0.689728	0.480701	0.155716	-0.965031	-0.160273	0.317470	-0.287710	-0.158801	0.036225	0.436643	0.123195	-0.296899	0.094166	-0.131311	0.071887	0.082210	-0.000538	0.352269	0.629563	0.297504	0.239163	0.082853	0.406514	0.045222	-0.131794	-0.721796	-0.051827	-0.310298	0.319075	-0.097093	0.219642	-0.087999	0.067837	-0.160039	-0.422150	-0.047886	0.117629	-0.636834	-0.046031	0.379402	0.816633	-0.304018	-0.445605	0.085525	-0.046304	-0.179799	0.261651	0.001104	-0.100366	-0.559984	0.319904	-0.277752	0.410410	-0.427761	0.297494	-0.580469	-0.551766	0.251612	-0.116718	-0.106244	0.352947	-0.164221	0.290165	0.399854	0.130558	0.074890	-0.940677	0.536146	0.032442	-0.684977	-0.128881	0.260190	-0.126803	0.332653	0.780804	-0.041873	0.174006	0.424281	-0.451934	-0.148347	-0.641167	0.222584	0.777193	0.405699	0.125658	-0.173273	-0.211388	-0.245381	-0.535000	0.140286	0.164167	-0.558108	-0.067918	0.467631	-0.025895	0.207021	-0.519839	0.588093	-0.225483	0.171693	0.383987	-0.564148	-0.335645	0.007378	0.124304	0.178723	0.770228	-0.332310	0.355316	-0.376563	-0.456419	-0.286765	-0.133979	0.203183	-0.650371	0.030968	-0.584099	-0.284649	-0.665387	0.029161	-0.034237	0.670376	0.277569	-0.664336	-0.033943	-0.042123
hawk	-0.269093	0.009212	-0.119614	0.544798	0.428517	0.595826	-0.287199	-0.326221	0.498931	0.701424	-0.342718	0.244747	-0.206133	-0.342703	0.110758	0.392814	-0.278039	-0.125883	0.619787	0.168982	0.638045	0.021664	0.320066	0.339120	0.008048	0.258647	-0.582490	-0.579766	0.435867	0.326016	0.503638	0.660149	-0.014725	-0.157568	0.407852	0.491715	-0.122679	0.212153	0.025911	0.465824	0.611540	-0.305872	-0.285033	-0.261762	0.367818	0.187934	-0.218485	0.081936	0.242737	0.517290	-0.102729	-0.014335	-0.214508	0.072126	0.342059	0.655716	-0.003894	-0.208302	0.085606	-0.084819	0.341104	-0.157111	-0.117841	-0.324222	0.301445	-0.133296	-0.019182	-0.505048	-0.274703	0.110357	0.120882	0.403119	0.809684	-0.034547	0.188599	-0.013834	-0.665908	-0.256125	-0.188938	0.229814	-0.762759	0.111406	-0.222437	-0.581542	-0.179946	0.063243	-0.456252	0.303746	-0.065247	0.116667	0.198935	0.606561	0.393457	-0.405389	-0.209230	-0.060845	-0.255463	0.699865	-1.111345	0.531421	0.000397	0.140980	-0.496692	-0.040196	-0.352019	-0.141914	0.397274	-0.692433	0.228119	0.181095	-0.180655	0.112629	0.000743	0.057923	-0.139902	-0.650918	0.098990	-0.658213	-0.479355	-0.364327	-0.590472	-0.145531	-0.833361	0.000392	0.180558	-0.166086	-0.179852	-0.257618	0.736420	0.192377	-0.363792	-0.106660	-0.716152	-0.237511	0.407401	-0.374791	-0.103298	0.217993	-0.163337	0.418289	-0.201889	0.506633	0.334825	-0.221405	-0.095749	-0.306674	-0.466869	-0.436723	0.123840	0.155300	0.118759	-0.203424	0.300635	0.297643	-0.159929	-0.251414	-0.073459	0.256505	-0.320787	0.873211	0.754726	0.187774	0.155961	-0.711109	0.343558	0.366050	-0.208817	0.023360	-0.034925	-0.074348	0.353833	1.070594	0.634547	0.359193	0.199239	0.521395	0.318254	-0.004624	-0.110184	-0.379199	0.634129	0.315178	-0.142452	0.455996	0.542526	0.010435	-0.334619	-0.151116	-0.140522	-0.409551	0.219593	0.331187	0.102520	-0.152463	-0.012524	-0.230314	-0.466527	0.225384	-0.103206	0.027735	0.177091	0.543312	-0.739611	-0.260914	0.492493	0.114035	-0.008571	-0.372394	0.065435	-0.162478	-0.435257	0.341443	0.080874	-0.170640	0.126444	-0.254112	-0.084827	0.008702	0.280981	0.692502	-0.213644	0.180291	-0.471442	-0.283915	-0.088983	-0.102333	0.057795	-0.480467	-0.441188	-0.238930	-0.163038	0.124753	0.104927	0.326702	0.364028	-0.529172	0.857523	-0.180056	-0.103486	0.466795	-0.169631	0.275230	0.524585	0.446168	0.158033	0.069336	-0.405917	-0.094695	0.139565	0.241574	-0.539673	0.381500	-0.238534	0.275141	-0.187029	-0.248137	0.221192	0.036506	0.490069	-0.362590	-0.383302	-0.270922	0.020555	-0.072010	0.047024	-0.532999	0.363357	-0.417931	0.292355	0.416556	0.579564	0.042007	-0.136519	-0.570181	-0.106449	0.023894	0.177084	0.021524	-0.201681	-0.402084	-0.540657	-0.713901	0.493783	-0.093935	0.422023	0.551011	-0.581568	-0.348905	-0.130973	0.136744	-0.081708	0.264191	-0.446640	-0.104471	-0.004041	0.116696	0.329767	-0.325213	-0.315258	0.202388
deck	-0.000232	-0.177320	0.723031	0.433034	0.296655	-0.296062	0.428116	0.016156	0.285183	-0.145829	-0.323562	0.204006	-0.247963	0.412521	-0.065026	0.301686	-0.254083	-0.151253	-0.077158	0.601016	-0.080896	-0.196833	0.511241	1.023957	0.357099	-0.204873	-0.117258	-0.685654	-0.066582	0.346291	0.139400	0.029580	0.033627	0.003483	0.113915	-0.153283	-0.312892	0.893315	0.071923	-0.199325	0.192696	-0.087368	-0.238695	-0.358865	-0.488472	0.003171	0.206327	-0.000439	0.345477	0.005598	0.069302	-0.265483	0.086560	0.181777	-0.135248	0.056861	-0.290499	-0.041598	-0.641783	0.003244	0.319399	-0.327819	0.110852	-0.553484	-0.335908	0.111567	0.038104	-0.712925	-0.347342	-0.225431	0.310765	-0.263717	-0.157489	-0.295290	-0.121996	-0.047366	0.286483	0.467125	0.415491	-0.380766	0.199037	0.032402	-0.511207	-0.335383	0.227478	-0.110862	-0.531778	0.269282	-0.094447	0.080086	-0.112914	0.082476	-0.367595	-0.141945	-0.436697	-0.679506	0.386407	0.006767	-0.206931	0.367868	-0.526447	0.235090	-0.620074	0.186691	-0.483829	-0.081837	0.019972	-0.179705	0.827791	-0.506654	0.289788	0.081504	-0.352532	0.589693	-0.025545	0.301168	0.039795	0.094829	0.028270	-0.331624	-0.477907	0.603495	-0.562812	0.600396	0.339153	0.122457	0.104297	0.121184	0.177958	0.255560	0.121090	-0.609278	-0.167820	-0.067071	0.075977	0.102499	-0.121534	-0.370177	0.053661	-0.345973	0.028535	0.219111	0.445038	-0.164836	-0.080233	-0.156464	-0.779400	-0.349079	-0.192116	0.256939	0.291080	0.631204	-0.246201	0.739440	-0.192289	0.130364	0.532261	0.095765	0.244269	0.349015	0.302935	-0.525232	0.669481	0.102986	-0.126437	0.283822	0.432888	0.514382	0.290339	0.067846	0.565758	0.500284	-0.007941	-0.060227	0.126109	0.066653	-0.180663	0.638948	0.060119	0.126261	-0.660514	-0.046314	0.390752	-0.305609	-0.258216	-0.901187	-0.734228	-0.014746	-0.318859	-0.296334	0.643929	-0.428070	0.770776	-0.170247	0.328173	0.180591	-0.483535	0.428889	-0.559229	-0.299313	0.018343	-0.349594	-0.423921	0.139136	-0.029261	-1.352137	-0.117433	-0.156039	0.152405	0.111031	0.213935	-0.716079	-0.264582	-0.179326	-0.228648	0.430048	-0.384015	-0.459839	0.704657	0.537116	-0.093663	0.157694	-0.009992	0.227431	0.113164	-0.164862	0.001216	0.043742	-0.238443	-0.422389	0.428532	-0.020800	-0.096554	-0.031200	-0.315905	0.018486	-0.073595	-0.015638	0.188184	0.257103	0.090387	-0.128058	-0.002056	-0.113892	-0.348625	0.572948	0.674388	0.012150	0.197705	-0.427299	0.326171	0.408517	0.176116	0.178077	-1.029657	-0.166800	0.458359	-0.085780	0.089236	0.039605	-0.279922	0.182022	-0.095776	-0.064968	0.218183	-1.087320	0.056885	0.648590	0.412327	0.083555	0.272655	-0.024625	0.110903	-0.868814	0.389080	-0.405592	-0.006724	-0.633251	-0.458853	-0.396730	-0.007317	-0.442448	0.208327	0.321832	0.126111	-0.348445	0.139748	0.069492	-0.177065	0.057696	-0.156810	-0.541955	-0.065579	-0.745125	-0.318068	-0.203817	-0.019561	-0.049635	-0.500831	-0.377506
fur	-0.001974	-0.265477	-0.264033	0.641719	0.095604	0.664711	0.581933	0.448308	-0.106017	-0.194770	0.463498	0.267959	-0.222176	-0.351210	0.051527	0.595871	-0.515492	-0.610665	0.395694	-0.652039	0.306508	0.134781	0.474078	-0.194702	-0.184978	0.040549	-0.468391	0.297769	0.057852	-0.294067	0.233156	0.130704	0.117566	0.225886	0.947852	-0.356467	0.312538	0.576572	0.368676	-0.389003	-1.241531	0.269577	0.107000	0.733250	-0.080469	0.601673	0.303036	0.407640	-0.359217	0.573795	0.003984	0.417702	-0.256794	-0.171512	-0.123311	-0.505635	-0.165941	-0.136012	-0.359151	-0.376715	0.212316	-0.162310	0.193583	-0.294025	0.282319	-0.077802	0.890581	-0.398212	0.380197	0.075584	0.107297	-0.119771	0.128891	0.387689	0.368257	-0.328826	-0.077656	-0.166985	0.102438	-0.137526	-0.292199	0.423501	-0.072993	-0.465151	-0.072991	-0.110189	0.420466	0.393425	-0.319559	-0.340940	0.336375	0.422240	-0.017431	0.069876	-0.416769	-0.350660	0.214639	0.547081	-0.820950	0.873045	-0.514686	0.128901	-0.175167	-0.844989	0.166861	-0.094057	-0.058299	-0.623202	-0.108361	-0.222324	-0.085948	0.388946	0.736833	0.239909	0.206110	-0.284839	-0.121766	-0.144593	-0.008701	-0.254182	0.081509	0.457162	-0.187690	-0.276620	-0.408662	0.011642	-0.352339	0.814036	0.722084	0.790050	0.222665	-0.534908	0.399188	-0.172338	0.573905	0.179742	0.203129	0.295846	-0.150843	-0.010827	-0.078886	0.066553	0.323662	-0.007836	-0.362352	0.138608	-0.136078	-0.136991	-0.590917	0.483385	-0.244455	-0.017755	0.204724	-0.103455	-0.277390	0.633418	-0.356388	0.089440	-0.258600	0.707035	-0.305542	-0.848159	0.419563	-0.287013	0.293793	0.137923	0.232437	-0.339728	0.335382	-0.288581	0.470463	0.498964	0.093491	0.031494	-0.293038	0.226855	-0.545930	-0.215454	0.133807	-0.158399	0.424723	-0.661863	0.106201	0.245060	0.343323	0.230542	0.747661	-0.579118	0.585412	0.019045	0.240674	0.113584	-0.150430	-0.089566	0.694082	0.519035	0.191486	0.023732	-0.881243	0.703104	0.571715	-0.187104	0.374682	-0.237819	0.465833	-0.810916	0.006468	-0.164389	-0.567817	0.117768	-0.118646	-0.072159	0.606531	0.236985	0.368686	0.104911	0.078590	0.182185	-0.015136	-0.149234	0.220995	-0.100260	-0.134856	-0.381223	0.366057	-0.177950	0.265805	-0.717998	-0.457441	-0.213292	-0.601537	-0.089098	-0.083501	-0.365298	0.849401	-0.166404	0.099313	-0.256609	-0.238690	-0.418806	-0.491596	0.384103	-0.135271	-0.310023	0.291280	1.148314	0.056622	0.489859	-0.018570	0.349253	0.335727	0.060746	-0.898551	-0.103376	-0.182033	-0.144539	0.774474	-0.590131	-0.981767	0.184412	-0.456991	-0.210607	-0.864637	-0.207141	-0.155781	-0.891070	0.283190	0.604296	-0.202670	-0.315847	-0.269095	0.570084	-0.256893	-0.340717	-0.183413	-0.416179	-0.046600	-0.575405	-0.205356	0.292147	-0.172079	-0.466538	-0.099098	0.300271	-0.223214	-0.946906	-0.199940	-0.072639	-0.182020	-0.230437	0.466685	-0.343264	-0.709869	0.644487	-0.509283	-0.096094	0.056841	-0.058796	-0.009939	-0.202325
daughter	0.414535	0.153122	0.381408	0.353386	-0.096105	0.369785	0.904721	0.180597	0.376454	-0.421562	0.516532	-0.022472	-0.405871	-0.178468	-0.014346	0.571231	-0.206629	-0.113206	0.262078	-0.166632	0.144934	-0.027964	-0.140617	-0.407826	0.492415	0.306895	-0.617462	-0.038861	0.178822	-0.219273	-0.228314	-0.251764	-0.043830	-0.455536	-0.229649	0.866972	0.114804	0.153189	0.938678	-0.577147	0.322741	0.022906	0.357659	-0.749566	0.023898	-0.176639	-0.143598	0.386630	-0.500883	-0.073861	0.233213	-0.510214	-0.440245	-0.209893	0.683439	0.311216	0.399629	-0.000891	-0.428135	1.106502	0.322013	-0.171138	-0.007759	0.167521	-0.071144	0.581685	0.067503	-0.401605	0.141309	0.136783	0.349611	0.490078	0.531430	0.183579	0.584959	-0.738929	0.109945	0.053520	0.108141	-0.111973	-0.962393	-0.539710	0.587202	-0.175203	-0.253412	1.016373	0.112097	0.596396	-0.190794	0.147472	-0.110232	0.695822	0.219759	-0.154077	-0.168926	-0.190286	0.147579	-0.185680	0.307986	0.321303	1.014519	0.313308	0.881126	-0.185517	0.366603	0.200454	0.117838	0.299896	0.227613	0.119507	-0.154648	0.494423	-0.305112	-0.240872	-0.528559	0.581615	0.262344	0.309994	-0.561061	0.564318	-0.231311	0.237639	0.111132	0.321705	-0.166587	0.016088	-0.009219	-0.545762	-0.722177	-0.567161	-0.485565	-0.499366	-0.483960	0.132964	-0.427545	0.169338	0.673422	-0.254323	-0.452165	-0.392838	-0.331226	0.159370	0.183725	0.592203	0.027299	-0.452245	-0.235144	0.021338	-0.475059	0.169702	0.528101	0.102685	0.232766	0.023112	0.233423	-0.048492	1.051417	0.149735	0.531541	1.412124	0.234260	-0.236303	0.019469	-0.423352	0.559906	0.442248	-0.534499	0.129065	0.422485	-0.104991	0.342444	-0.652851	0.072892	0.418355	0.708696	0.217147	-0.025944	0.056487	-0.089059	-0.068508	0.231381	0.061273	0.218656	0.025346	-0.756441	-0.429687	-0.558497	-0.565580	0.038922	0.001591	0.524017	-1.024200	0.671704	-0.258885	0.284483	-0.512685	0.299464	-0.374351	-0.554232	0.327173	-0.530125	-0.447958	-0.089532	-0.192545	0.707302	0.038261	0.069477	-0.107843	1.186065	-0.226954	0.306012	-0.322996	-0.354370	-0.105303	0.637975	0.388986	-0.382680	0.702965	0.061966	-0.460948	0.033587	-0.286042	0.841960	-0.202170	-0.021774	-0.080869	0.282190	0.153683	-0.175119	-0.487926	-0.006568	-0.007093	-0.891649	-0.628927	-0.011428	0.131792	-0.009332	0.062504	-0.158502	-0.369588	-1.158160	0.273019	0.094370	-0.054028	-0.824164	-0.328409	0.528330	-0.011303	-0.101110	-0.349144	0.194441	0.822203	-0.090325	0.098879	-0.675491	-0.364001	0.418476	-0.959958	-0.578188	-0.762295	0.114431	-0.381334	0.646557	-0.332565	-0.058152	0.506490	0.403275	0.536226	0.446194	-0.458882	-0.014231	0.118909	-0.087864	-0.650851	0.431921	-0.506356	-0.153583	-0.263587	0.081136	-0.276515	-0.584934	-0.126681	-0.068153	0.083088	-0.516563	0.165037	-0.241521	0.300033	-0.575821	0.321665	0.417221	0.059785	-0.826756	-0.060132	0.205281	0.083489	0.066677	-0.390523	-0.112809	-0.335499
boy	0.360048	0.022927	0.345608	0.690323	0.138938	0.207515	0.221947	-0.301140	0.112954	0.332695	0.789615	0.022716	-0.317845	-0.149114	-0.042539	1.053729	0.186256	0.423906	0.392784	-0.242790	-0.041135	0.126354	-0.039824	-0.169427	0.431573	0.385554	-0.144424	-0.190631	-0.138985	0.220736	0.306802	0.161335	-0.435420	-0.584338	0.303716	0.580021	0.082294	-0.046797	0.305758	-0.364916	-0.327245	-0.133238	0.324615	-0.479430	0.340351	-0.656878	-0.278250	0.736710	0.277964	-0.201368	0.153981	-0.901559	0.073439	-0.359998	0.419296	0.552095	0.061675	-0.179631	-0.505574	0.841003	0.183855	-0.155327	-0.170114	-0.063863	-0.113312	0.303602	0.168815	-0.114208	0.004469	0.266979	0.110542	-0.161920	0.613293	-0.360923	0.485505	-0.348187	0.156928	0.404028	-0.082019	-0.604511	-0.463348	-0.330017	0.437783	-0.138276	-0.038224	0.333996	0.208648	0.064643	-0.176257	0.851283	0.501133	-0.010445	0.001820	-0.031133	-0.645089	-0.010105	0.201068	0.604586	0.397681	-0.258931	0.097181	0.272847	0.645932	-0.487739	-0.190083	0.196233	-0.161918	0.457871	0.109597	0.397063	-0.067166	0.638608	-0.918968	-0.422833	-0.173198	0.111816	-0.061097	0.956092	-0.705129	0.166714	-0.599165	-0.038206	0.060671	-0.238565	-0.923630	0.589859	0.333199	0.077671	-0.038112	0.459535	-0.346722	-0.253361	-0.177267	0.264108	-0.204709	0.387301	0.630997	0.135215	-0.487883	0.272061	-0.339075	0.271530	-0.304938	0.753018	-0.256030	-0.338455	0.247473	-0.002683	0.365135	0.349761	-0.162546	-0.209672	-0.099801	0.150680	-0.317957	0.013965	1.197203	0.244540	0.076460	1.210581	0.368429	-0.100205	0.339459	-0.486566	-0.046098	0.202901	-0.544998	0.371386	0.353084	0.456650	0.414635	0.028108	0.239715	0.624557	0.628929	0.144291	0.511483	-0.274265	-0.092610	-0.099012	0.736413	0.059661	0.011289	-0.484607	-0.016595	-0.417954	-0.413187	-0.651390	-0.286046	0.009834	0.121048	-0.304226	0.605867	-0.420760	-0.048195	-0.257549	0.568366	0.014242	-0.416491	-0.297330	-0.469568	0.134384	-0.219200	-0.008151	0.719831	-0.674290	0.390736	-0.249509	0.868376	0.179666	0.436994	-0.746785	-0.209388	-0.122319	0.503427	0.692594	-0.549069	0.556596	-0.247503	0.003598	-0.366094	-0.028510	0.685588	-0.537541	0.293849	-0.098822	0.514127	0.230896	-0.400634	-0.347455	-0.427442	0.253110	-0.945589	-0.054812	-0.247088	0.429187	0.253158	-0.099556	0.196095	0.188709	-1.036788	0.577510	0.678617	0.121490	-0.828842	0.189277	0.639695	0.613534	0.173898	0.347966	0.520783	0.371486	-0.449592	-0.150533	-0.422886	-0.495974	0.452063	-0.409183	0.444712	0.056359	-0.607228	-0.113663	0.314080	-0.387856	-0.086898	0.040404	-0.004564	0.522445	0.457393	-0.178538	-0.552401	0.030739	-0.090517	0.089172	-0.047261	-0.618462	-0.218944	-0.242031	-0.562815	-0.013588	-0.726502	-0.998261	-0.050644	-0.626473	-0.039303	-0.003428	-0.320271	0.254180	-0.311629	0.441188	0.139066	0.192005	-0.625108	-0.261450	0.335578	0.340815	0.195534	-0.476420	0.036618	0.214346
calf	-0.383873	-0.279355	-0.073540	-0.121140	0.311030	-0.458666	-0.260585	-0.385547	-0.072589	0.125381	0.252161	-0.167016	-0.290060	-0.485348	-0.059342	0.611266	-0.025158	0.175654	-0.370583	-0.140692	-0.158336	-1.093897	0.072386	-0.345847	0.100682	-0.096003	-0.124767	-0.478118	0.467214	0.261723	0.304193	0.126804	-0.276802	-0.786981	0.255040	-0.127022	0.187907	-0.363057	0.318152	0.674098	-0.299586	0.226717	0.140775	0.138464	0.691663	1.003076	0.310030	0.785038	0.415347	0.493123	-0.652633	0.067708	-0.151574	0.463768	-0.222459	-0.954779	-0.718701	-0.352897	0.190683	-0.059035	-0.118793	-0.246607	0.343866	0.390769	0.596944	0.145543	0.240411	-0.065703	-0.550304	0.162137	-0.392779	0.403965	0.641145	-0.275763	0.190796	-0.000350	0.112255	-0.189012	0.407143	0.028386	-0.572836	0.257655	0.437180	-0.304006	-0.110580	0.038424	0.092050	0.353294	-0.165622	0.053242	0.599461	0.014123	-0.274783	-0.986759	-0.570443	0.039882	0.865175	0.764696	-0.220829	0.031111	-0.007835	0.718833	0.075861	0.259538	0.043907	-0.272680	0.018184	-0.002253	-0.383549	0.072052	0.268882	0.733810	0.324680	-0.179499	0.275520	0.597469	-0.310607	0.225408	-0.288613	-0.162778	-0.241131	0.517565	0.562130	-0.626204	-0.470404	0.072316	-0.173584	0.281429	-0.363773	0.640743	-0.517788	0.008843	0.620982	-0.177240	-0.188758	0.220331	-0.426668	0.389896	-1.004982	0.142894	0.466196	0.391384	-0.432433	0.075572	-0.327693	0.074559	-0.392709	0.337690	-0.444349	0.085936	-0.005880	-0.095517	0.380643	-0.272043	-0.165298	0.097679	0.130791	-0.193026	0.208079	0.468622	0.491427	0.560055	0.303258	-0.908134	0.607376	0.049839	-0.764560	0.920280	0.248888	0.072971	0.115265	0.270820	-0.058082	0.444181	0.248970	-0.011068	-0.390252	-0.697473	-0.254201	0.276530	-0.091510	0.634136	0.299251	-0.408398	-0.271980	-0.313623	0.469114	-0.465748	0.146571	0.350003	0.060883	-0.015473	0.147658	-0.064345	0.299581	-0.111827	-0.133506	-0.178925	-0.109231	-0.106667	0.131187	-0.049895	0.472579	0.264744	0.330126	-0.479964	-0.349561	-0.188029	0.270798	-0.301534	0.359341	-1.044217	-0.360369	-0.074337	-0.154987	-0.438593	-0.402270	0.086895	-0.366686	-0.078893	0.487023	-0.025091	0.077574	0.209988	0.395000	-0.784380	0.382130	0.286870	-0.323930	-0.811651	0.027902	0.429039	-0.261270	0.486435	-0.304496	-0.295157	-0.466542	-0.159610	-0.790980	0.144634	-0.316390	0.448187	-0.513330	-0.502885	0.302087	0.386058	0.527571	0.089926	-0.125093	0.143371	-0.142408	0.056619	-0.464409	-0.528602	-0.241918	0.395600	0.831323	0.136888	-0.521988	-0.296618	-0.346634	-0.674002	-0.370969	-0.045327	-0.155959	0.183003	0.327076	0.705436	-0.219530	-0.508385	-0.305489	0.187822	-0.722272	-0.002079	-0.050166	-0.136613	-0.184796	-0.233795	-0.126339	-0.107269	0.498639	0.065850	0.305773	0.139308	0.315363	-0.360014	-0.277139	0.276694	-0.984545	0.330743	-0.365785	-0.210224	-0.844841	-0.241503	-0.508259	0.100952	-0.046245	-0.564104	-0.427496	0.270634
cow	-0.733746	-0.246403	-0.357452	0.442364	0.219326	-0.061132	0.106436	-0.399308	-0.177698	0.268788	0.735091	0.033236	0.347682	-0.345098	-0.502001	0.675869	-0.178686	0.047217	-0.005435	0.158862	0.015490	-0.351799	-0.388528	-0.456756	0.119260	-0.273764	-0.064981	-0.033924	0.619260	0.520916	0.302403	0.042338	-0.128024	-1.307326	0.155578	-0.140745	-0.070465	0.038336	0.205416	-0.497994	-0.216205	-0.055647	0.012282	0.127793	0.719438	0.316905	0.095795	0.325623	-0.005900	-0.125964	0.293296	0.029301	-0.079791	0.714789	-0.077593	-0.711697	-0.618369	0.006725	-0.228884	-0.341715	0.151611	-0.113067	0.481074	0.173907	0.347997	-0.467777	0.061476	-0.715174	-0.138189	0.205624	-0.607963	0.714159	0.236469	0.269210	0.196108	0.014957	-0.236201	-0.643855	-0.057714	0.069075	0.113244	-0.071896	0.125169	0.497932	-0.519579	0.114726	0.122352	0.386976	-0.011129	0.580000	0.784459	0.415615	0.069825	-0.087449	-0.220824	-0.336212	0.702825	-0.173135	-0.302634	0.505671	0.040976	0.438982	-0.138572	0.226119	-0.045155	0.865754	-0.132763	0.327857	0.198594	-0.767005	0.534715	0.693406	0.809617	0.395579	-0.127116	-0.186103	0.520384	-0.254134	-0.369597	0.448844	-0.202089	0.172922	0.212456	-0.083483	0.011267	0.246373	0.176662	0.167599	-0.035244	1.103737	-0.076520	-0.133233	0.404983	-0.471911	0.551664	0.279972	0.364540	0.849232	-0.468088	0.865368	0.424011	0.396475	-0.762461	0.379561	0.355428	0.678607	-0.009787	0.161845	-0.265465	-0.127385	0.184773	-0.784165	0.094959	-0.505005	-0.018160	0.577539	0.106796	0.326674	0.372321	1.220468	0.405352	0.036746	0.361909	-0.141707	0.274620	-0.285547	-0.323496	0.407599	-0.123630	-0.050904	0.015037	0.427145	-0.328167	0.558716	0.413676	0.024822	0.084013	-1.233293	-0.259944	0.221483	0.102127	0.444287	0.230603	0.370316	0.061439	-0.071020	0.326424	-0.142672	-0.096953	-0.016653	-0.049008	0.251884	0.975965	0.187345	0.021636	-0.163405	0.444123	-0.320073	-0.730065	-0.020347	-0.479325	-0.098588	0.263957	-0.206882	0.234242	0.076608	0.362782	-0.079113	-0.206813	-0.110136	0.098376	-0.481901	-0.709755	-0.012147	0.813642	-0.649302	-0.153005	-0.046667	0.088146	-0.019168	0.094913	-0.446126	-0.249474	-0.673806	0.436520	-0.097351	0.199637	-0.265892	-0.156598	-0.556284	-0.288821	0.650213	-0.584311	-0.227173	-0.508983	-0.374892	0.491788	1.295490	-0.208381	0.051998	-1.125174	0.709604	-0.232518	-0.436377	0.079021	0.249286	0.036358	0.123782	0.287497	-0.018726	-0.062218	0.209354	-0.410402	-0.583449	-0.764263	0.075398	0.254649	0.267990	-0.580879	0.045089	-0.066814	-0.471624	-0.066015	0.550269	0.072244	-0.788962	0.315950	0.420827	0.075502	-0.620438	-0.704688	0.398890	0.234166	0.262160	0.288305	-0.416486	-0.296988	-0.229641	-0.097837	-0.205311	0.457618	-0.646079	0.385025	0.073166	-0.104545	-0.044122	-0.082728	0.165636	-0.528706	0.268230	-0.609880	-0.403298	-0.806090	-0.037320	0.564670	0.446626	0.337464	-0.206068	0.150381	0.021819
queen	-0.033461	-0.017398	0.352060	0.101238	0.084845	-0.175323	0.600502	-0.775959	0.111538	-0.427726	-0.336685	-0.625213	-0.044299	-0.029349	-0.293436	0.349076	0.641846	-0.406729	-0.559148	-0.156858	0.710096	-0.220512	-0.158272	0.286810	-0.392130	-0.275306	-0.065847	-0.052318	0.373859	-0.122298	0.211604	-0.629744	-0.120021	0.493140	-0.027770	-0.365201	-0.051072	0.188537	0.136217	-0.606885	0.334378	-0.713988	0.516191	-0.641283	-0.246918	0.016413	0.310563	0.974000	-0.044638	-0.447463	-0.426317	-0.230980	0.375934	-0.118499	0.882740	-0.266615	-0.147467	-0.356325	-0.281042	-0.192496	0.529025	0.172724	-0.000465	-0.042759	-0.549438	0.019811	0.152400	-0.399176	-0.295966	-0.170652	0.402054	0.301775	-0.161980	-0.085485	0.666786	-0.820327	-0.142885	-0.452147	-0.363905	-0.203486	0.000247	0.206519	-0.078849	0.111640	-0.305220	0.314784	0.302468	0.373178	-0.058136	-0.060975	0.436916	0.258278	-0.102508	0.249199	-0.362721	0.151965	-0.531119	-0.080974	-0.126920	0.047508	0.403499	-0.124229	-0.111571	-0.048490	-0.116733	-0.061994	1.034769	0.301824	0.108858	-0.926455	0.112488	0.432757	-0.410982	0.594337	-0.025298	0.415744	0.094461	0.446789	-0.412367	1.134742	-0.410049	0.941177	-0.089994	-0.027005	-0.211838	-0.484339	0.043637	0.285364	0.094814	0.054347	-0.085543	-0.505844	-0.390996	-0.643889	-0.549987	0.171319	0.333905	0.295317	-0.085943	0.283308	-0.433274	-0.273361	0.369627	0.300422	-0.161282	-0.017639	-0.478298	-0.062566	0.040671	0.351699	0.019900	0.974259	0.541714	0.758196	0.335624	-0.202909	0.287539	0.508256	0.251682	1.090399	0.090692	-0.102830	-0.616578	0.172028	0.116162	-0.238165	0.371900	0.083667	0.596305	-1.043720	0.256093	-0.240199	0.212691	0.486311	0.297116	-0.131094	-0.368921	-0.214200	0.614269	-0.164251	0.357123	-0.220609	0.218577	-0.091595	-0.376341	0.070169	-0.024668	-0.458017	-0.139409	-0.612822	0.112119	-0.292039	0.745352	0.185787	0.556120	0.142923	0.127508	-0.187206	0.278080	-0.123392	-0.376056	-0.493199	-0.381516	0.163572	-0.035016	-0.198444	-0.336590	0.406283	0.539548	-0.534999	0.487710	-0.136383	-0.471508	-0.094337	0.266443	0.240628	-0.019871	0.339821	-0.672003	0.266823	-0.316526	-0.824551	0.191905	-0.346349	-0.134827	-0.361687	0.151779	-0.001800	-0.349208	-0.041958	-0.337480	0.634107	-0.151610	-0.252338	0.154093	0.497252	0.808029	0.056434	-0.326807	0.309248	-1.140199	0.268513	-0.294099	-0.145962	0.064822	-0.264753	-0.037347	0.590125	-0.182720	-0.261304	0.134363	0.870350	-0.590197	-0.081623	-0.289090	-0.552775	-0.149231	-1.339108	-0.473429	-0.303171	-0.327861	-0.470465	0.495577	-0.741680	0.060636	-0.001562	0.004478	0.188678	0.777436	-0.091853	-0.575504	-0.431427	-0.180470	-0.588887	-0.005057	-0.243716	0.212216	-0.883724	0.152707	-0.125519	0.044976	0.297978	-0.355703	-0.271993	-0.095539	-0.083512	-0.170969	0.296154	-0.538441	-0.271970	0.485544	-0.831129	0.095296	-0.330220	-0.122437	0.319756	-0.123044	-0.131111	-0.378707	-0.297790
mink	-0.068200	0.011973	-0.534327	0.625455	0.258480	-0.132890	0.470940	0.284231	0.052652	-0.286478	0.784943	0.070157	-0.008177	-0.555717	0.108887	0.426729	-0.253882	-0.079135	0.589838	-0.581522	0.073815	0.107806	-0.021574	-0.174517	0.225023	0.235753	-0.266851	0.182583	-0.277902	-0.396931	0.427261	-0.159566	0.019903	0.389609	0.821619	-0.486300	-0.032244	-0.492369	0.170332	-0.459721	-0.574935	0.318704	0.245437	0.569909	-0.228440	0.281754	-0.016747	0.694412	-0.349969	0.302384	-0.072116	0.058077	-0.302142	-0.184716	-0.360102	-0.276389	-0.483347	-0.118756	0.064445	0.353417	-0.132070	0.297570	0.427322	-0.374174	-0.006532	-0.222282	0.277389	-0.420508	0.143468	-0.021823	-0.373931	0.061493	0.111266	0.100337	0.390266	0.121325	-0.044013	-0.006488	0.324616	0.461973	-0.040837	0.778865	-0.597165	-0.548050	-0.492831	-0.452172	0.192586	0.621734	-0.509855	-0.170325	0.618325	0.891530	-0.117702	0.074167	-0.376796	-0.000281	0.222855	0.277183	-0.830778	0.895042	-0.501604	0.216816	0.152267	-0.632710	0.148834	0.361030	-0.163771	-0.491598	-0.356389	-0.398267	0.280276	-0.134280	0.989567	0.640952	0.410085	-0.651502	-0.412270	0.185838	0.105046	-0.175916	0.319726	0.954387	0.048898	0.124837	-0.299907	0.063498	-0.269281	0.462971	0.102171	0.647480	0.115650	-0.535157	0.447146	-0.258671	0.446438	0.398039	-0.098401	-0.207600	-0.315323	-0.187460	0.214505	-0.182408	0.494988	-0.533534	-0.347993	-0.283981	-0.567828	0.124056	-0.724706	-0.468533	-0.002197	-0.090680	0.274036	0.036211	-0.248010	0.067066	-0.034327	0.460238	-0.238778	0.450251	-0.032384	-0.876289	0.273485	0.093330	0.489212	0.039231	0.290817	-0.090962	0.345709	-0.501227	0.242562	0.944855	0.323427	0.054231	0.165544	0.306231	-0.823652	-0.047453	0.589761	0.680254	0.297400	-0.375541	0.086719	0.383176	0.450435	-0.055636	0.374324	0.006856	0.075157	-0.254669	-0.007978	-0.268432	-0.102336	-0.181721	0.612583	0.187526	0.236259	-0.229564	-0.472721	0.269755	0.320023	-0.075042	0.458431	-0.238678	0.077331	-0.754024	0.210650	0.056099	-0.402297	-0.438146	0.191147	-0.538938	0.294961	0.561907	0.596396	-0.192112	-0.306861	0.038392	0.431611	-0.132659	0.264474	-0.229579	-0.371537	-0.101212	0.278237	0.198646	0.590917	-0.027970	-0.162414	0.063543	0.293786	-0.224436	0.065181	-0.114028	0.437784	0.050173	0.288511	-0.028222	-0.083154	-0.604014	-0.223621	0.108363	-0.518417	-0.125951	0.284528	1.011216	-0.601658	0.414615	0.080236	0.116430	0.219699	-0.341280	-0.910388	-0.068808	-0.339092	-0.361271	0.653415	-0.158549	-0.837700	0.116896	-0.089713	0.284390	-0.644720	-0.031999	-0.241428	-0.279146	-0.178452	-0.107450	-0.196949	-0.219076	-0.421869	0.787411	0.307137	-0.354540	0.243894	-0.125475	-0.194861	0.092848	0.412465	0.143763	-0.064591	-0.384594	0.208428	-0.065051	-0.784539	-0.651528	-0.217585	0.037874	-0.543110	-0.499261	0.164318	-0.473177	-0.449721	0.669565	-0.414899	0.048959	-0.281576	0.097873	-0.170795	-0.118359
ant	0.110779	0.245085	0.066464	0.099602	0.642690	0.360031	-0.067035	-0.742077	0.574474	0.059342	0.143969	-0.377787	-0.489963	-0.167927	0.085074	0.341285	0.563917	0.075152	0.204937	-0.778642	0.472194	0.281798	0.863131	-0.263098	0.373651	-0.314623	0.388431	-0.322902	0.467782	0.072223	1.185397	-0.701844	-0.323022	-0.194389	0.142701	-0.718561	0.712117	0.427021	-0.165810	0.433279	0.355671	-0.236282	-0.471423	-0.389654	-0.383962	-0.152820	0.032752	1.058513	-0.046249	-0.049365	-0.378196	-0.025148	-0.212099	0.156112	0.212123	0.660063	-0.382635	-0.120157	-0.321754	0.357597	-0.736861	-0.336656	0.096416	0.178294	-0.064861	-0.139413	0.347446	-0.582923	0.282413	-0.220343	-0.645779	0.192880	-0.099947	-0.284816	0.450871	0.068751	-0.182145	-0.307535	0.079274	-0.785290	-0.258103	-0.150582	-0.029061	0.424217	-0.102340	-0.519309	0.303943	0.023241	0.103440	-0.181852	0.058026	0.426263	0.105961	-0.365966	-0.288907	-0.374450	0.085916	0.048997	0.048942	0.754827	0.078912	0.615537	-0.011763	-0.304780	-0.523846	-0.250624	0.153410	-0.473655	0.225376	0.011145	0.641970	0.012655	-0.056300	0.225509	-0.036788	-0.593036	0.031915	-0.141411	0.379058	0.403387	-0.046533	0.219668	-0.043876	0.130381	-0.097362	0.003326	-0.243330	0.217242	0.619381	0.518195	0.203255	-0.517616	-0.287207	-0.860704	0.049816	0.233706	-0.102207	0.872400	0.171289	0.261303	-0.151203	0.525834	-0.403086	-0.211053	0.470611	0.114646	0.001228	-0.049414	-0.152492	-0.051157	0.164898	-0.137093	-0.396784	0.156969	0.755355	0.312041	0.195109	-0.278106	-0.183398	-0.164912	0.476376	0.105560	0.145651	-0.183382	0.282774	-0.199023	0.489507	-0.091636	-0.094803	-0.201687	-0.249712	0.107067	-0.420896	-0.430060	0.044600	0.475515	-0.227249	0.030300	0.354168	-0.082013	-0.060023	-0.362702	-0.010566	-0.108078	0.193108	0.374181	0.273992	0.446151	-0.632922	-0.098299	-0.268927	-0.112149	0.161529	-0.325836	-0.253637	0.465432	-0.563377	0.044194	-0.684055	-0.373276	-0.561792	-0.103186	-0.432001	-0.418206	0.364616	-0.197143	0.291175	0.087234	0.087982	0.327621	0.443663	0.341701	0.017211	1.088793	0.776097	0.127900	-0.046479	0.035277	-0.767646	-0.348974	-0.751158	-0.549325	0.359952	-0.174799	-0.408560	0.158981	0.827345	0.344513	-0.161340	0.222586	-0.001544	-0.373643	-0.593907	0.155367	-0.153156	-0.658827	0.438263	-0.752946	0.343032	0.070367	-0.556580	0.588607	0.066036	0.025576	0.762645	0.318938	0.083226	0.644603	0.522324	-0.859865	-0.403415	0.159419	0.271295	0.123855	0.118101	-0.450866	0.059789	-0.612923	0.535588	0.626429	-0.189747	0.478619	0.053517	-0.302748	0.480359	-0.221299	-0.118840	0.206384	-0.228605	-0.179391	0.057488	0.721365	0.001268	-0.553034	0.807531	0.098049	-0.842341	0.016383	-0.425654	-0.120909	-0.043650	-0.359487	-0.068787	-0.115998	0.262305	-0.224357	0.279121	0.303154	-0.475686	-0.297424	-0.708969	-0.426463	0.199260	-0.123850	0.753177	0.241214	-0.483424	0.418737	-0.004474	0.097096
container	0.234979	0.749590	0.986546	-0.004776	0.400599	-0.085973	0.073768	-0.836079	-0.090094	0.250311	0.550896	0.783293	-0.063394	0.158441	0.546268	0.126896	0.582465	-0.632866	0.100557	0.563412	-0.251314	0.088273	-0.200270	1.278973	0.126124	-0.770027	-0.105965	-0.111667	0.562010	0.031744	0.123887	-0.634920	-0.045624	-0.521262	0.794506	0.310470	0.284993	0.911767	-0.292232	-0.630136	-0.378027	-0.080092	0.346109	0.445005	0.124163	0.332423	-0.326826	-0.465022	-0.286805	0.139417	-0.291962	-0.389189	-0.527939	0.026417	-0.056512	-0.712076	0.114798	-0.400252	-0.457913	-0.279624	-0.527328	-0.310467	-0.506406	-0.452525	0.279075	-0.052711	0.406190	-0.780666	-0.171780	-0.216456	-0.407981	0.334998	-0.110535	0.055851	0.123940	0.179436	0.790884	0.862162	-0.029705	-0.598486	0.301545	-0.194502	-0.066252	-0.138184	-0.512766	-0.058226	-0.538539	0.260506	-0.304868	-0.242118	-0.078418	-0.101841	0.161628	-0.185093	-0.062320	-0.173122	0.146305	-0.245232	-0.322790	0.032305	-0.444632	-0.152541	-0.856200	0.545037	-0.575869	0.190104	-0.487143	-0.361879	-0.134807	0.293782	0.249062	-0.323946	0.305775	-0.206813	0.218829	-0.167496	0.219225	0.577807	0.421430	-0.311720	0.046007	-0.317550	-0.190481	-0.370978	0.163381	0.459704	-0.507082	0.133436	-0.063400	0.254903	0.108789	0.200263	-0.118051	0.322677	0.520173	-0.096303	0.063628	0.680411	0.250871	-0.291673	-0.339606	1.009201	-0.084969	-0.216101	0.221089	-0.678317	-0.126548	0.110174	0.033456	-0.067466	0.042778	0.378432	-0.212538	0.628958	0.739221	0.753862	-0.356217	-0.553544	0.237801	0.547606	0.109469	-0.282702	-0.521060	0.313228	-0.559474	-0.309048	-0.044147	0.400753	0.378657	0.851717	0.510500	0.146697	0.264802	-0.166411	-0.055311	0.011408	0.020803	0.524599	-0.228574	0.283111	-0.051210	0.568600	0.060011	0.039340	-0.560303	0.095022	-0.226705	0.301877	-0.353982	0.345764	0.298703	0.638633	1.075810	0.450420	-0.177617	0.503058	0.438257	-0.381824	-0.549265	-0.975078	-0.272203	-0.090168	-0.183744	-0.048905	-0.021184	-0.944689	0.155451	-0.264927	0.179454	0.162476	-0.944736	0.254441	0.178983	0.012819	0.118434	0.402908	-0.086193	-0.071738	0.796869	-0.057397	0.416058	0.074413	0.325814	-0.665284	0.771168	-0.154703	0.218416	-0.231684	0.065648	-0.912882	0.263091	0.021655	-0.651259	-0.182605	0.236739	-0.640594	0.294659	0.138059	0.467275	0.267988	-0.483142	0.262135	-0.487789	-0.101387	0.330164	0.109229	0.707110	-0.105270	0.261030	0.237396	0.102221	1.333504	0.305022	0.594128	-0.442452	0.293990	0.228451	0.158206	0.154955	-0.348421	-0.036072	-0.120573	0.039214	-0.120926	0.325999	-0.654479	0.072301	0.599674	0.474135	0.072469	-0.308269	-0.165321	-0.159650	-0.786232	0.523711	-0.076777	0.313000	0.068949	0.237621	-0.043303	0.164474	0.029184	-0.545833	-0.092180	-1.082999	0.623802	-0.084930	0.363626	-0.429551	0.038776	-0.571224	0.095435	0.136640	-0.240100	-0.434768	0.503077	-0.840677	-0.520802	-0.510186	-0.403943
mouse	-0.441500	-0.194207	0.428693	0.210731	0.420806	0.474427	-0.084760	-0.630833	0.462840	0.247516	0.140821	-1.049126	-0.716022	0.147502	0.111460	0.179345	0.205963	-0.321962	-0.140674	-0.021127	-0.388590	-0.022986	-0.050649	-0.576813	0.419522	-0.201574	0.108938	-0.079646	-0.063890	-0.035510	0.867779	-0.529157	-0.761364	-0.355586	0.002661	0.045574	0.049140	0.640793	0.134168	0.041611	-0.515293	-0.193224	-0.099851	0.460560	0.369111	0.310086	0.651500	0.611900	-0.013453	0.478743	0.276890	-0.378899	-0.387107	-0.110477	-0.120106	-0.349043	-0.259019	0.033645	-0.235298	0.194083	-0.475889	-0.557004	0.269434	-0.294147	0.139424	-0.986348	0.336761	-0.671140	0.026217	-0.122968	-0.191546	0.464121	0.569448	0.887714	-0.199761	-0.057514	-0.217230	-0.191909	0.740491	-0.328692	-0.513472	0.514451	0.058729	-0.087040	-0.016162	0.286868	-0.079278	1.124329	-0.360710	0.488085	0.163619	0.355070	-0.169023	0.208366	-0.752428	-0.598667	0.349215	0.184287	-0.286021	0.024797	0.394261	0.274963	0.084507	0.080780	-0.307025	-0.512810	0.019623	0.122914	0.159606	0.240233	0.377711	0.934696	-0.751342	-0.081716	-0.004484	-0.274869	0.363956	-0.485764	-0.105029	0.722001	-0.395418	0.066137	0.489727	0.153481	0.309691	-0.027159	-0.057983	-0.200359	0.289332	1.096214	-0.045596	0.533620	0.420818	-0.072266	0.148293	0.488033	0.007898	0.717093	0.494022	0.212034	-0.449740	0.225497	-0.008224	0.539142	0.420476	1.242564	0.270444	0.096972	0.385276	-0.700983	0.319419	-0.887067	-0.120747	-0.117696	0.570476	0.662431	0.059356	0.322220	-0.451686	0.357375	0.470139	0.275125	0.506554	-0.977932	0.460995	0.052960	0.051501	0.418215	0.067254	0.623523	-0.421483	0.519734	0.226702	-0.003089	-0.144574	0.503535	-0.082416	-0.015055	-0.118187	0.937133	-0.277169	0.262224	0.017309	-0.134724	-0.191282	-0.234246	-0.556365	0.348988	-0.243205	0.875147	0.284633	0.218626	0.697152	0.296195	0.319050	0.382830	0.507571	0.003338	-0.389164	-0.269592	-0.670573	-0.608460	0.302861	-0.154556	0.421729	-0.217770	-0.404130	-0.002901	0.542801	0.560268	-0.105809	-0.155506	0.054416	0.520451	0.113083	-0.088095	0.215171	0.159397	0.714718	0.753608	-0.460163	0.105458	0.498699	-0.502539	0.188208	-0.463063	0.527463	0.172144	-0.240159	-0.192443	-0.742392	-0.485392	-0.383694	0.396555	0.097563	-0.867332	-0.161423	0.142743	-0.115063	0.262100	-0.282978	0.566348	0.014918	-0.113024	0.106280	0.532348	0.317465	0.689240	0.308284	-0.300948	0.232251	-0.130230	-0.309344	-0.539340	-0.271538	-0.420043	0.429832	-0.628979	-0.150451	0.183047	0.248728	-0.159647	0.051553	0.340101	0.175221	-0.728111	0.204107	0.262045	-0.529655	-0.431898	-0.296061	0.093473	-0.034438	0.012571	-0.200758	-0.881026	-0.738369	-0.587791	-1.026970	0.001069	0.274482	-0.604390	-0.225297	-0.425280	-0.344383	-0.571494	-0.127531	0.722675	-0.050331	-0.502448	-0.116417	-0.508976	-0.295855	-0.226595	0.498054	0.532607	-0.102895	0.777067	0.247911	-0.063975
bee	0.423474	0.049787	0.080947	-0.045674	0.149271	0.309927	-0.448139	-0.730045	0.295405	-0.160466	0.166964	-0.061967	-0.853382	-0.224633	0.385652	0.368377	0.400458	-0.300806	0.401210	-0.862743	0.657841	0.442841	0.004365	0.018119	-0.279189	0.225063	-0.345843	-0.924925	0.340433	0.487308	0.799169	-0.202216	0.272591	-0.003900	-0.077409	-0.284124	0.158748	-0.216192	-0.305036	0.126087	0.390253	-0.351558	-0.439901	-0.012663	-0.233709	-0.025118	0.543788	1.009689	-0.093807	-0.097218	-0.327242	0.084597	-0.424532	-0.077418	0.306094	0.185245	-0.036975	-0.379456	0.232314	0.437397	-0.435695	-0.104309	0.303194	-0.201609	-0.538363	-0.229451	-0.048129	-0.565778	-0.256900	0.271308	-0.268985	1.167321	-0.220827	0.005816	0.178983	0.165303	0.157558	-0.401159	0.184987	-0.573803	-0.320364	-0.094760	-0.828293	-0.289141	0.169518	-0.354823	-0.098362	0.204348	0.096368	-0.605963	0.069136	0.591387	-0.422835	0.275223	-0.323447	0.312199	0.044214	0.007930	-0.652728	0.378593	0.836005	0.503624	0.157605	-0.325077	0.176812	0.526625	0.224892	-0.409901	0.034587	-0.029319	0.472196	-0.405869	0.291160	-0.125866	-0.009955	-0.834881	0.286388	0.527106	0.212175	0.109148	-0.257978	0.658822	0.041234	0.015171	0.155781	-0.201423	-0.298296	0.481655	0.442750	0.769415	0.036605	-0.007256	-0.489239	-0.980699	-0.283070	0.243693	-0.384364	-0.087693	0.054314	0.678618	-0.367016	0.166950	-0.353957	0.320164	0.741119	-0.063074	-0.093440	0.064610	0.013355	-0.480854	0.052630	-0.222359	0.161059	0.640308	0.537246	0.186405	0.401501	-0.207463	-0.182117	0.095578	0.294055	0.024727	0.563612	-0.327551	-0.000721	-0.259807	0.028883	0.007686	-0.132556	0.031574	0.340376	0.424496	-0.383817	-0.103193	0.088339	1.034813	-0.137809	-0.173798	0.234893	-0.470164	-0.163106	0.287669	0.507717	0.033775	0.243114	0.348132	0.215018	0.075250	-0.359848	-0.515179	0.261418	0.052702	0.229416	0.035187	0.115429	0.437880	-0.460079	-0.205793	-0.914570	-0.086819	-0.417460	-0.232947	-0.284897	-0.148187	0.042358	0.175334	-0.243205	0.315016	0.249071	-0.303914	0.256886	-0.363303	-0.443368	0.409118	0.758045	-0.235031	-0.751205	0.172043	-0.428943	-0.396435	-0.617153	-0.620548	0.377276	0.075997	-0.303872	-0.009237	0.735495	-0.127323	0.032770	-0.037030	-0.761248	-0.460888	-0.694143	0.065023	0.726336	-0.413865	0.927247	0.093288	0.191300	0.687523	-0.774955	0.165917	-0.202182	0.100756	0.893546	0.320992	-0.167812	0.186065	0.306915	-0.122919	-0.146900	0.572467	-0.698823	-0.280585	0.150417	0.235058	-0.117783	-0.955031	0.360543	-0.151721	-0.251117	0.478881	0.358287	0.059522	-0.112717	0.115139	0.113208	0.108342	0.123910	-0.181533	-0.181044	0.448308	-0.428713	0.006301	-0.143443	0.333353	-0.601591	0.156084	-0.720136	-0.220646	0.320744	0.011335	-0.253296	-0.262967	1.160319	0.079881	-0.217896	0.630479	-0.280286	-0.605466	-0.809345	-0.033002	-0.063257	-0.286919	0.388228	0.356209	-0.420451	-0.413051	-0.230369	-0.220433
goat	-0.194285	-0.427720	-0.367923	0.726369	-0.120518	0.289217	-0.048938	-0.375150	-0.087692	0.487561	0.991542	0.603700	-0.176873	-0.298961	0.128358	0.344610	0.031032	0.305926	0.089482	-0.719670	0.317880	-0.229372	0.240861	-0.349908	-0.196580	-0.148322	0.316341	0.345155	0.840856	0.124813	0.407144	0.588927	-0.384813	-0.876867	0.157977	0.101618	-0.041721	-0.311806	0.346107	-0.483381	-0.432696	0.039142	-0.212463	0.817944	0.397126	0.419464	-0.028069	0.619657	-0.162789	0.496649	0.351697	-0.589978	0.127609	0.167941	-0.262757	-0.371286	-0.614483	-0.048018	-0.481238	0.434235	-0.233321	0.193207	0.794276	0.547091	0.423161	-0.694181	0.459167	-0.411047	-0.429648	-0.571092	-0.532783	0.323167	0.204930	0.534565	0.067899	0.430001	-0.443051	-0.302270	-0.093897	-0.122626	-0.405801	-0.028859	0.057350	-0.165556	-0.308985	0.364677	0.390043	0.459851	-0.255814	0.376846	0.192346	0.311924	-0.528957	-0.058121	-0.176405	-0.238743	0.562989	0.048349	-0.341826	0.652606	0.123404	0.235600	0.138046	-0.083073	-0.456720	0.323578	0.032253	-0.102026	0.523378	-0.880891	0.442076	0.256461	0.283707	0.127495	-0.441606	-0.011251	0.438040	0.309294	-0.434514	0.191444	0.227596	0.032910	-0.063072	-0.044555	-0.078830	0.289663	0.144448	0.591750	0.280553	1.018172	-0.054302	-0.417079	0.037723	-0.117512	0.239876	0.507944	0.064218	0.552178	-0.034007	0.043260	0.212665	0.495753	-0.345147	-0.338444	0.968262	0.746363	0.062939	-0.064691	-0.352693	-0.405573	-0.077869	-0.540153	0.068220	0.002181	-0.444931	0.759340	0.238737	0.371669	0.511009	0.368902	0.133346	-0.389510	0.355937	-0.260320	0.202274	0.117715	-0.429640	0.570583	-0.515770	-0.059748	0.117224	0.316584	0.022357	0.618948	0.684238	0.346833	0.370415	-0.885555	-0.214646	0.567601	0.166347	0.213033	-0.062936	0.267020	0.026128	-0.325731	0.262921	0.105123	0.129511	-0.213029	-0.174862	0.640363	0.262879	0.237734	-0.002391	-0.053490	0.339887	0.059169	-0.392999	-0.517587	-0.113419	-0.137013	0.327126	0.148730	0.210390	-0.180033	0.239967	-0.410819	-0.141698	0.222670	-0.027453	-0.643061	-0.168238	0.449867	0.451496	-0.064582	-0.225689	0.196471	-0.157197	-0.474065	-0.350406	-0.312734	-0.179252	-0.166063	0.246877	-0.309380	0.360823	-0.448441	-0.080858	-0.410744	-0.660060	-0.023522	-0.250746	0.166882	0.376178	-0.474719	0.442914	0.290261	-0.215645	-0.165582	-0.890435	0.470263	-0.077976	-0.388037	-0.028850	0.444033	-0.134501	0.136281	0.276721	-0.021969	-0.106470	-0.416114	-0.426636	-0.367996	-0.246212	-0.357149	0.512273	0.049519	-0.444787	-0.129406	-0.187798	-0.159201	-0.535876	-0.115877	0.473524	-0.441519	-0.004768	0.564739	0.009695	0.290166	-0.645268	0.350457	-0.437988	-0.065081	0.958899	-0.093437	-0.044248	-0.084632	-0.065829	-0.061515	-0.033921	-0.158320	0.067972	-0.166103	-0.242617	-0.107548	-0.418815	0.400414	-0.459427	-0.001357	-0.575405	0.057929	-0.501313	0.095633	-0.061011	0.473100	-0.338682	-0.275909	-0.165965	-0.203083
management	-0.091614	0.189426	-0.211981	-0.740696	-0.031537	0.204400	0.765430	-0.029632	0.426913	0.121071	-0.181091	-0.297147	-0.006105	0.016661	-0.057371	0.754160	-0.181223	0.221373	-0.441417	0.239722	1.152046	0.177440	-0.177845	0.058582	-0.294482	-0.237074	-0.375385	-0.629524	-0.509472	0.348232	0.070409	-0.891062	-0.563718	-0.117330	-0.097211	0.550883	0.409757	0.070863	-0.013747	0.358834	0.178790	-0.547464	-0.468993	0.244958	-0.202296	0.656335	-0.719484	-0.158020	-0.713653	0.126132	-0.195855	0.238586	0.559701	0.196436	0.058331	0.284207	0.608137	0.064515	-0.642049	0.022289	-0.455997	0.419901	-0.374091	0.287778	0.672299	0.116759	-0.193116	-0.013921	-0.192623	0.224947	-0.433627	-0.144287	0.283726	-0.654671	0.206114	0.017450	-0.064031	-0.056341	-0.128055	-0.140815	-0.481204	-0.427163	0.566173	0.667836	0.392329	0.803738	-0.539991	0.039438	0.462415	-0.682446	0.473300	0.095872	1.001278	-0.262624	-1.492897	-0.120559	-0.544267	0.231881	0.103168	0.366895	-0.248141	-0.249097	-0.311400	0.031204	0.525088	0.444371	0.503623	-0.349890	0.142742	0.018435	-0.117148	0.125673	0.182101	-0.001926	0.039328	0.425164	0.466214	0.168403	-0.163747	0.057636	-0.438476	-0.184530	-0.101525	0.018713	0.067318	0.083938	-0.167118	0.228635	0.491763	-0.222154	0.625590	0.005807	0.130135	-0.222333	0.371038	-0.080934	-0.295935	0.055120	0.111400	-0.407330	0.069450	-0.198337	0.296927	0.085126	0.011894	-0.091769	-0.065265	-0.067301	0.164501	-0.276783	0.789821	-0.371913	-0.150529	0.283476	-0.165291	0.654341	0.098546	0.019426	0.065340	0.896999	0.338716	-0.457485	0.257321	-0.067049	-0.181250	-0.132289	0.252186	-0.298449	-0.033229	0.253218	-0.310497	-0.497975	-0.329607	-0.101937	0.150272	0.133343	-0.600081	0.289762	0.039307	-0.121562	0.375139	-0.042798	0.018671	-0.139674	-0.273378	-0.001100	0.361013	0.515534	0.047121	0.087002	0.101520	-0.282371	0.465783	0.494038	-0.221761	0.158443	0.219992	0.130092	0.108640	0.620412	-0.302674	0.445727	-0.105529	-0.182189	0.057494	-0.124901	0.442304	-0.208020	0.121893	0.271218	0.008690	0.065741	-0.459572	-0.049912	-0.327750	-0.153852	0.462193	-0.288011	0.294975	-0.257054	-0.141826	0.253161	-0.146632	0.294385	-0.120892	0.051625	-0.231418	-0.120463	-0.459114	-0.247840	-0.802721	0.682456	-0.263384	-0.238821	-0.168325	-0.610309	0.072327	-0.752836	0.886833	0.538634	-0.184896	-0.164991	-0.255330	-0.812486	-0.461882	0.497210	0.896458	-0.310465	-0.102512	-0.100126	0.207010	1.412223	0.114351	-0.014949	-0.084478	0.636583	-0.054537	-0.136254	0.236213	-0.428497	-0.471333	0.495855	0.610407	0.442825	0.277988	-0.948914	-0.035666	0.729656	0.467892	0.095848	-0.366933	0.188799	-0.519460	0.513076	0.269400	-0.236070	-0.183512	0.021728	-0.274177	-0.514480	-0.054634	-0.302594	-0.635251	-0.338482	0.514300	-0.248977	-0.445874	0.563624	0.333092	0.181857	0.063295	-0.104366	-0.327497	-0.390211	0.242176	0.035271	0.131366	0.093311	-0.515535	0.573055
dinner	0.628342	-0.598152	0.095377	0.045547	-0.030118	0.080996	0.719915	-0.307218	0.198250	-0.124240	0.596239	0.039375	-0.303611	-0.265013	-0.113872	0.270154	-0.464534	-0.723914	-0.710328	0.059001	0.450878	-0.227420	0.702586	-0.220536	-0.295101	0.013305	-0.550841	0.046710	0.469984	-0.572092	0.653108	-0.492867	-0.167981	-0.719843	-0.423830	0.161190	-0.003015	0.745872	0.388435	0.225494	-0.127956	-0.572208	-0.083327	-0.464349	-0.123288	-0.014727	0.891860	0.293030	-0.207415	-0.198148	0.418066	0.258750	0.506973	-0.355353	-0.161172	-0.305949	0.091353	-0.075933	-0.886718	-0.062137	0.496793	0.004632	-0.178883	-0.104249	-0.443918	-0.134392	-0.140676	-0.928073	-0.403778	-0.600541	0.067122	-0.195632	-0.207737	-0.224399	-0.101049	0.276925	0.342962	0.062649	0.027938	-0.078176	-0.463435	-0.233008	0.346911	-0.224997	-0.345057	0.701703	-0.400554	0.116183	-0.265316	0.044454	-0.668743	-0.036466	-0.157076	-0.085242	-1.147478	-0.514832	0.040841	0.248478	0.288927	0.634285	-0.033307	-0.317413	0.448827	0.220646	-0.177667	-0.087228	0.391352	0.606932	0.388071	-0.328752	0.378614	-0.284929	0.260277	0.751480	-0.147735	0.765723	-0.178373	0.231709	-0.247456	-0.198788	-0.149518	0.219524	-0.236809	-0.046997	0.311745	0.001418	-0.492860	0.399015	0.291361	-0.239945	-0.072090	-0.846912	-0.108272	-0.042849	0.394720	0.353052	-0.023603	-0.344110	0.287657	0.351123	-0.057173	-0.189451	0.157045	0.049745	0.528126	0.074401	-0.177059	0.465416	0.370704	0.125804	0.333394	-0.005995	0.716944	-0.055940	-0.412156	0.249871	0.164785	-0.138116	0.513783	1.373024	-0.108145	-0.314390	-0.216297	-0.362527	0.069819	0.315170	-0.463750	0.620820	-0.138406	-0.375271	-0.335232	0.850774	0.079126	0.182022	0.714168	-0.156482	-0.336656	0.367011	-0.371213	-0.142632	0.249702	0.370993	-0.367559	0.004245	-0.486110	0.060904	-0.456364	-0.440659	-0.501419	0.113784	1.004745	0.085720	0.881380	0.123914	0.189570	0.059923	-0.041495	0.455109	0.181935	-0.297891	0.033458	0.466029	0.037693	-0.204308	-0.051147	-0.516345	0.227216	-0.016740	0.129910	-0.419756	-0.019437	0.079819	-0.546838	0.199870	0.337635	-0.005237	0.022256	-0.156032	-0.489340	0.409761	0.080404	-0.392554	-0.276276	-0.334379	0.184548	-0.065889	-0.068205	0.272770	-0.187874	-0.370670	0.162893	0.294220	-0.035658	-0.603497	0.527499	-0.113786	0.063083	0.572884	-0.651600	-0.142085	-0.727492	-0.102001	0.032118	0.317990	-0.663076	-0.328103	-0.543439	-0.284204	-0.658308	-0.578307	0.507743	0.111480	-0.533189	0.332707	0.146781	-1.074486	0.196412	-0.568411	0.209310	-0.212024	-0.706842	0.219987	-0.329650	-0.787020	0.379538	-0.025303	0.748880	0.288295	-0.103873	-0.293633	-0.414967	0.163022	0.876425	-0.636708	0.749475	0.417218	0.193275	0.406953	0.476876	-0.357265	-0.515018	-0.274224	-0.860992	-0.096351	-0.966324	-0.098307	-0.294840	0.214948	-0.267115	0.048545	-0.497924	0.153479	-0.966288	-0.413361	-0.346721	-0.027672	0.722220	-0.094841	-0.347577	-0.306032
